0.0013733764627596192239842708093329259275383547041018344282049954    -0.9994647988458811709964711929480384542784162589776093073817405364
0.0031945243772890345220777170874330778067052347553184647136224456    -0.9971811307716112672535614857625260019786748536909701106735973936
0.0050125385716061902638126995286608271280225389913376365090366019    -0.9930770155889451515552042080884570190561086649309562067419887656
0.0068216313491747923622093393702066211685926742910334916895121775    -0.9871590366249321147810284329615525539019133627675692068354544287
0.0086183104795322476139118167386582202813366080841166889586752055    -0.9794378920564836245627049880781513766294168637043763290890010859
0.0103992609950005322013041938640038603538937061885214752586614726    -0.9699276590549859127470076633096166174194526524000704222716532474
0.0121612209292811127277632230877377379334524079039060073607308382    -0.9586457006979742204138512570288010747004611981330411641072843879
0.0139009687883146508675196344240082771927283397846253529521013500    -0.9456126216894835719316678510044013966301041435995194021362510032
0.0156153254335914229955336110615515868821355266701637716917063719    -0.9308522273812245599046982383445161431967218400739906418575076339
0.0173011587624890830056070076484638668000561959218777409690772807    -0.9143914791762564147416835264508224705124459694752010950843942389
0.0189553890486700216897359689847237194104728928194053674621410144    -0.8962604448466912210489381899485989876163894764433857075186580775
0.0205749944203611691660195017568784187459977507186471494346544578    -0.8764922434206514998259428803071092965646106082397829629048005283
0.0221570163170400720567698023630444224076066919664469656394267204    -0.8551229845942994845079908283994670633939442020642197665545627557
0.0236985648642189746266093252715674602327938058164034433087298337    -0.8321917027249097437557883392976878583775454165309693684949704669
0.0251968241375383128133322522544288396185594446909041865707433589    -0.8077402855027359248070612403680051059146200865915235703584843067
0.0266490572987274829522304593181915417270612745220657273531766070    -0.7818133974216447513340912969526835175053876652892358142580322985
0.0280526115905720603238022343412453973487296296566595344277757312    -0.7544583981833234802384453776050064935780065103471242594302502732
0.0294049231801165601054572299810247238237586992176398431685733170    -0.7257252561815598185031357290681070605650038112404030866797965561
0.0307035218404335049381260167887429072727418365886316948900261206    -0.6956664572232627172202196808988418634825160927784174568797627534
0.0319460354619767064865014368985841373644540024457627634965498016    -0.6643369086521963388823761215126060769514004790689070353206961071
0.0331301943850438406770687994348887853163647408786345671325896220    -0.6317938390501184565110407620228320484806540601587257058045848673
0.0342538355453022154141295182617634650925065812901629135078950636    -0.5980966936982709760003988586894841926938730365841060271432780321
0.0353149064247282875090630738286812157283783384788890251217680702    -0.5633070259900165127362425742317544710413311393349414626421731012
0.0363114688006977846903466650777091111096388603476943658787259115    -0.5274883849928709368004410403941762541623366955327860370971877456
0.0372417022863497731568942114505920302175465936988042259247022926    -0.4907061993652519877002223466277819774709212874041180788526957716
0.0381039076557398005955080783652312883876818035479523623122464397    -0.4530276578399453951919905279960646960551249453893042953717623485
0.0388965099476967395204756018110251685035709504792484311588803398    -0.4145215864925757638891209278296870257529619787362547921647340908
0.0396180613427061433165080459595499140830513782466470506236913961    -0.3752583230192515029057389197161089223600076662720844615860624967
0.0402672438075600333649416843312412927914343131813511896130207087    -0.3353095882530224561157411586487287302482545930133359840263258855
0.0408428715029388615493605585635691230426375669239456636215212928    -0.2947483551538367682558550975350768088898418281328458913427504834
0.0413438929495254945268833418346880267631489944574464427404157151    -0.2536487155113013935558047851779317781319712150656531470071365447
0.0417693929486928537541016980203051319687152219293159481418790980    -0.2120857446037305265272435861479744311210070828885613367436221982
0.0421185942542556362689455221543500630099537633554468565452204208    -0.1701353640607007585056455694469945156501560365994822352705661738
0.0423908589922315944053739843391425763511304690474385648816381747    -0.1278742031796143017546791162544530821904391682193647517210338684
0.0425856898260183870257630080715183586215799206936111783763574049    -0.0853794589495963009958571371560067127775356400209297017061725456
0.0427027308648572220766009896640662046873123418203164039356079194    -0.0427287550384139911856907777124257291815097750039985986631660005
0.0427417683139235624114549545063793497974210917710513404014288569    0.0000000000000000000000000000000000000000000000000000000000000000
0.0427027308648572220766009896640662046873123418203164039356079194    0.0427287550384139911856907777124257291815097750039985986631660005
0.0425856898260183870257630080715183586215799206936111783763574049    0.0853794589495963009958571371560067127775356400209297017061725456
0.0423908589922315944053739843391425763511304690474385648816381747    0.1278742031796143017546791162544530821904391682193647517210338684
0.0421185942542556362689455221543500630099537633554468565452204208    0.1701353640607007585056455694469945156501560365994822352705661738
0.0417693929486928537541016980203051319687152219293159481418790980    0.2120857446037305265272435861479744311210070828885613367436221982
0.0413438929495254945268833418346880267631489944574464427404157151    0.2536487155113013935558047851779317781319712150656531470071365447
0.0408428715029388615493605585635691230426375669239456636215212928    0.2947483551538367682558550975350768088898418281328458913427504834
0.0402672438075600333649416843312412927914343131813511896130207087    0.3353095882530224561157411586487287302482545930133359840263258855
0.0396180613427061433165080459595499140830513782466470506236913961    0.3752583230192515029057389197161089223600076662720844615860624967
0.0388965099476967395204756018110251685035709504792484311588803398    0.4145215864925757638891209278296870257529619787362547921647340908
0.0381039076557398005955080783652312883876818035479523623122464397    0.4530276578399453951919905279960646960551249453893042953717623485
0.0372417022863497731568942114505920302175465936988042259247022926    0.4907061993652519877002223466277819774709212874041180788526957716
0.0363114688006977846903466650777091111096388603476943658787259115    0.5274883849928709368004410403941762541623366955327860370971877456
0.0353149064247282875090630738286812157283783384788890251217680702    0.5633070259900165127362425742317544710413311393349414626421731012
0.0342538355453022154141295182617634650925065812901629135078950636    0.5980966936982709760003988586894841926938730365841060271432780321
0.0331301943850438406770687994348887853163647408786345671325896220    0.6317938390501184565110407620228320484806540601587257058045848673
0.0319460354619767064865014368985841373644540024457627634965498016    0.6643369086521963388823761215126060769514004790689070353206961071
0.0307035218404335049381260167887429072727418365886316948900261206    0.6956664572232627172202196808988418634825160927784174568797627534
0.0294049231801165601054572299810247238237586992176398431685733170    0.7257252561815598185031357290681070605650038112404030866797965561
0.0280526115905720603238022343412453973487296296566595344277757312    0.7544583981833234802384453776050064935780065103471242594302502732
0.0266490572987274829522304593181915417270612745220657273531766070    0.7818133974216447513340912969526835175053876652892358142580322985
0.0251968241375383128133322522544288396185594446909041865707433589    0.8077402855027359248070612403680051059146200865915235703584843067
0.0236985648642189746266093252715674602327938058164034433087298337    0.8321917027249097437557883392976878583775454165309693684949704669
0.0221570163170400720567698023630444224076066919664469656394267204    0.8551229845942994845079908283994670633939442020642197665545627557
0.0205749944203611691660195017568784187459977507186471494346544578    0.8764922434206514998259428803071092965646106082397829629048005283
0.0189553890486700216897359689847237194104728928194053674621410144    0.8962604448466912210489381899485989876163894764433857075186580775
0.0173011587624890830056070076484638668000561959218777409690772807    0.9143914791762564147416835264508224705124459694752010950843942389
0.0156153254335914229955336110615515868821355266701637716917063719    0.9308522273812245599046982383445161431967218400739906418575076339
0.0139009687883146508675196344240082771927283397846253529521013500    0.9456126216894835719316678510044013966301041435995194021362510032
0.0121612209292811127277632230877377379334524079039060073607308382    0.9586457006979742204138512570288010747004611981330411641072843879
0.0103992609950005322013041938640038603538937061885214752586614726    0.9699276590549859127470076633096166174194526524000704222716532474
0.0086183104795322476139118167386582202813366080841166889586752055    0.9794378920564836245627049880781513766294168637043763290890010859
0.0068216313491747923622093393702066211685926742910334916895121775    0.9871590366249321147810284329615525539019133627675692068354544287
0.0050125385716061902638126995286608271280225389913376365090366019    0.9930770155889451515552042080884570190561086649309562067419887656
0.0031945243772890345220777170874330778067052347553184647136224456    0.9971811307716112672535614857625260019786748536909701106735973936
0.0013733764627596192239842708093329259275383547041018344282049954    0.9994647988458811709964711929480384542784162589776093073817405364
