0.0015359769527920840751294018377417897315144972754852882211748362    -0.9994014275432447882080609676461214185015717491617284422212893043
0.0035724167393973726097037452285013963462014508743564173732766087    -0.9968475004851951004594970149536452093578451673400674084972381338
0.0056045799278705948285359919336903817974836103786717380619213051    -0.9922582667168531187004339132194667857561145687114531829944425237
0.0076255559312015106114582696166109978160934124583015038065166084    -0.9856420800226375932371393526211225459197415964914551736097174192
0.0096310061504155755886602970047087526517735872666901154724001298    -0.9770123316220942633894660910215295059845301746377427923217950781
0.0116167966106719655487398729454516326321295504701082795662882348    -0.9663866216428605668557998116707972154916231141851124046163512107
0.0135788606490756709998118676287804256038760391809258658405770521    -0.9537866478051818975339398376311031314368643102940519099752970721
0.0155131865434061647397691087236705230879590550325184392005785925    -0.9392381470416084729668358001565772381570359867685032042570650880
0.0174158212319698291320737873085513449390970929609429117225808308    -0.9227708391804449971888177845397055269622426863063499776170845055
0.0192828771288494027892443780491022746784254014698335698749025499    -0.9044183649858271400665248332365862991144343228053598003635753938
0.0211105396398718946278901765020821052434214591659614221152933414    -0.8842182169472524366628188575638749509207902693036179863695312798
0.0228950747907407856555214504806789089692513278609337141055394575    -0.8622116624727440838571720228289397265516820340968771768864660776
0.0246328367845424553643358975901408466871636471710095202065627556    -0.8384436594805042132616164729850859459383098104748382927905936506
0.0263202754168694837917607310180191891967610697638415721497950257    -0.8129627645002956138564800809759535470609300398322622196600916537
0.0279539433121877059908617061046021318025541522017381776708402084    -0.7858210334467597603353690490805520681529024013739736822933031844
0.0295305029579067117798110611736252380616952276457782968179404314    -0.7570739152558378515947231944327573450405958115600413614578427662
0.0310467335178905390326857172001527494490632243611955522861187775    -0.7267801385960080886571601299520252501958291449298507534468650960
0.0324995374096461112447338950072030305981909327980120221775765237    -0.6950015918829284609297438522865979819007311113336528403416949722
0.0338859466308322894978098207524373574177956443121261665662865120    -0.6618031968410782440242262316148079857794379148229133303482373501
0.0352031288216834861477543635077868508230234845896327941596647912    -0.6272527758698494017674575586672838242272015984281270820368196826
0.0364483930507005140566435084686224616857958088674187871080891060    -0.5914209134845558255693095044220249674678342975450041881008836710
0.0376191953116409065081583665735551734593145203468454750706241524    -0.5543808121151320145379729912181265792088031800984055248234668758
0.0387131437204925139327394461492304134215773733167518322934477870    -0.5162081425569337091718207204502726731902906228571181778957611292
0.0397280034017616412064585469100731286394670268614373634535255844    -0.4769808893790457103414408766550550891658494467565014187898428486
0.0406617010540616005375260203090389439582408581828070241143733004    -0.4367791916058444208698768933859218247116361489830376379629856395
0.0415123291856545020828740616684119910417435617390464456681511533    -0.3956851789972444473517561045943773251522071981327344313132659260
0.0422781500112805128515826862576760563444659931294863542854288931    -0.3537828042620663179601270934528697007774076058755678498766863035
0.0429575990023052138784199022252778143412036251631754711264294890    -0.3111576715472811865859053303227171045268062919209547822544564579
0.0435492880829267410335757770620688899616513623286060796175696040    -0.2678968615535034285815985966254429393478232084793274442517236289
0.0440520084659092843809859173220065625820763617635466882823678991    -0.2240887536339990132814641150834153411050682446777702993591453481
0.0444647331220471380962310973419187631554242652873303657027239284    -0.1798228452406431643597132181062399134116935241266222517910211569
0.0447866188783125575421352782248060259131767284483552763063651409    -0.1351895690856829921584716039699171453437872594892280897358167323
0.0450170081403998021987161927160437848929470660436707100302285041    -0.0902801083928287425621196670640081146019718414708110496068098004
0.0451554302361454605165170532199639285206302125673222130023191604    -0.0451862106151017235316324034581133919931084925528535030067625306
0.0452016023770799542422892118755362690976227374322730930850434493    0.0000000000000000000000000000000000000000000000000000000000000000
0.0451554302361454605165170532199639285206302125673222130023191604    0.0451862106151017235316324034581133919931084925528535030067625306
0.0450170081403998021987161927160437848929470660436707100302285041    0.0902801083928287425621196670640081146019718414708110496068098004
0.0447866188783125575421352782248060259131767284483552763063651409    0.1351895690856829921584716039699171453437872594892280897358167323
0.0444647331220471380962310973419187631554242652873303657027239284    0.1798228452406431643597132181062399134116935241266222517910211569
0.0440520084659092843809859173220065625820763617635466882823678991    0.2240887536339990132814641150834153411050682446777702993591453481
0.0435492880829267410335757770620688899616513623286060796175696040    0.2678968615535034285815985966254429393478232084793274442517236289
0.0429575990023052138784199022252778143412036251631754711264294890    0.3111576715472811865859053303227171045268062919209547822544564579
0.0422781500112805128515826862576760563444659931294863542854288931    0.3537828042620663179601270934528697007774076058755678498766863035
0.0415123291856545020828740616684119910417435617390464456681511533    0.3956851789972444473517561045943773251522071981327344313132659260
0.0406617010540616005375260203090389439582408581828070241143733004    0.4367791916058444208698768933859218247116361489830376379629856395
0.0397280034017616412064585469100731286394670268614373634535255844    0.4769808893790457103414408766550550891658494467565014187898428486
0.0387131437204925139327394461492304134215773733167518322934477870    0.5162081425569337091718207204502726731902906228571181778957611292
0.0376191953116409065081583665735551734593145203468454750706241524    0.5543808121151320145379729912181265792088031800984055248234668758
0.0364483930507005140566435084686224616857958088674187871080891060    0.5914209134845558255693095044220249674678342975450041881008836710
0.0352031288216834861477543635077868508230234845896327941596647912    0.6272527758698494017674575586672838242272015984281270820368196826
0.0338859466308322894978098207524373574177956443121261665662865120    0.6618031968410782440242262316148079857794379148229133303482373501
0.0324995374096461112447338950072030305981909327980120221775765237    0.6950015918829284609297438522865979819007311113336528403416949722
0.0310467335178905390326857172001527494490632243611955522861187775    0.7267801385960080886571601299520252501958291449298507534468650960
0.0295305029579067117798110611736252380616952276457782968179404314    0.7570739152558378515947231944327573450405958115600413614578427662
0.0279539433121877059908617061046021318025541522017381776708402084    0.7858210334467597603353690490805520681529024013739736822933031844
0.0263202754168694837917607310180191891967610697638415721497950257    0.8129627645002956138564800809759535470609300398322622196600916537
0.0246328367845424553643358975901408466871636471710095202065627556    0.8384436594805042132616164729850859459383098104748382927905936506
0.0228950747907407856555214504806789089692513278609337141055394575    0.8622116624727440838571720228289397265516820340968771768864660776
0.0211105396398718946278901765020821052434214591659614221152933414    0.8842182169472524366628188575638749509207902693036179863695312798
0.0192828771288494027892443780491022746784254014698335698749025499    0.9044183649858271400665248332365862991144343228053598003635753938
0.0174158212319698291320737873085513449390970929609429117225808308    0.9227708391804449971888177845397055269622426863063499776170845055
0.0155131865434061647397691087236705230879590550325184392005785925    0.9392381470416084729668358001565772381570359867685032042570650880
0.0135788606490756709998118676287804256038760391809258658405770521    0.9537866478051818975339398376311031314368643102940519099752970721
0.0116167966106719655487398729454516326321295504701082795662882348    0.9663866216428605668557998116707972154916231141851124046163512107
0.0096310061504155755886602970047087526517735872666901154724001298    0.9770123316220942633894660910215295059845301746377427923217950781
0.0076255559312015106114582696166109978160934124583015038065166084    0.9856420800226375932371393526211225459197415964914551736097174192
0.0056045799278705948285359919336903817974836103786717380619213051    0.9922582667168531187004339132194667857561145687114531829944425237
0.0035724167393973726097037452285013963462014508743564173732766087    0.9968475004851951004594970149536452093578451673400674084972381338
0.0015359769527920840751294018377417897315144972754852882211748362    0.9994014275432447882080609676461214185015717491617284422212893043
