0.0010391335164519718891881135390812291191545037450981956856839450    -0.9995950612269232422047472582512344259587005074495607691506088297
0.0024175112654431228552351917532905581670629778147202867515556955    -0.9978670164217119615614189657833630489952452147494776670416501016
0.0037945916504523496963933944075235042695447764990364985142950459    -0.9947606382612846411958374062123982658639489821254946021998961632
0.0051666051827468083298810211160260448206948821566160270804325957    -0.9902795289653566873342158975716513342765477362713804099221561286
0.0065315136877136546011213493931907821500699393495681128478033822    -0.9844297971275816515190749936266545645098770167777825294647184446
0.0078874057526481463821061278247736423952224058995539734023257756    -0.9772195073583157826543006642671009504738587144866699850606647603
0.0092324007841902470143829456142152573067668611142418542561400531    -0.9686586181736218976906279071689186381033350561284465841443964880
0.0105646376230082452648484785699581669174784627109199524809853786    -0.9587589587296934720199491856779103358045717485167765325026114003
0.0118822740898012234950519616430967790521475630553148880230879565    -0.9475342099474431228112757411684118747431289848530462474185336122
0.0131834886791823459867994674340018676644523998036324668822878741    -0.9349998847635588177524005690916613245072383057356996210251935266
0.0144664827891611862422748721229512144888013454723692985738601031    -0.9211733063630512177272067298071407413514293362086022322623026597
0.0157294830955835982015998235831063007556159838441403152700216616    -0.9060735840940084213399755086458147797748349292803395176096217559
0.0169707439552116113430816822898765092678039087060276600518135159    -0.8897215869883154608039394628265777711437217360125430450707288354
0.0181885497960565499276002407845758873793564015907627645572832542    -0.8721399148835790320298105828283817298825698242475944165782117888
0.0193812174773188086478070583120437772624875111407294814475073916    -0.8533528671689186615987408364405843058759640499173762895144493458
0.0205470986097562786115244396366892794049978523911430080677292130    -0.8333864091900214288460524466068008271519729511537261524128585214
0.0216845818306448229892440371715014780582287894857160729693276095    -0.8122681363561230390229378705427353561897746573618492526810886279
0.0227920950289421293388886334012873783168701678434647137830449712    -0.7900272359965968679677376568561017785738043401677625392229284436
0.0238681075169582393847154219004387659905402172395572945812874690    -0.7666944470188362826669001853804166421034965578752089315419092528
0.0249111321452064288843913597832101206797179222299650349744958590    -0.7423020174226099207735217396176025440865768678131442640566727654
0.0259197273573346477251602155204057173582796824404834214176392588    -0.7168836597292748238228822528705588210964090449767792813555679780
0.0268924991821976375158164234534642811096781507695481782935067868    -0.6904745043872484712203072050207145393795862177696856832978127337
0.0278281031602584060357669203286374338980418950342779043386009970    -0.6631110512180146343361991426069225150160371837569927261416853010
0.0287252462016218022126647793795872530547656018451548082742985071    -0.6348311189696914836440142488404225644113420753750141518669176811
0.0295826883731108452896052613482587628117544787110740898564099052    -0.6056737930478333896842687218076798395095764469956278337470753199
0.0303992446119024697731137023090169956239837675138615041135728009    -0.5756793714956741560419158937751715218679467820316519555682522175
0.0311737863633456612919674695492219850960773805441297742757611300    -0.5448893092984496889126467899075812329481732076756510984872244858
0.0319052431406927274840229657768828741032142942342603384801594331    -0.5133461610887614000481038429100331094709781248822490783918729181
0.0325926040045842571836133353160918964878695502559554494600434976    -0.4810935223321561760543089362317528261264835019060419171158600569
0.0332349189602404440747156266588090841259842223351663097417025844    -0.4481759690742023311584997295291224609655421102501167171401313662
0.0338313002704259848037248913812260789256065059263059225860972572    -0.4146389963323312193399896832996798309826330985804425141946959343
0.0343809236823727006213349333041121432421609924543345141221395134    -0.3805289552175887005388012640840524397311876307395625341104072515
0.0348830295669633084564166620759768362781065297948796327730882478    -0.3458929888731970590331299717178187696658296217287943322098793786
0.0353369239686012761603887249704209550119024714470940282297053881    -0.3107789673184639726279707357280000143366077389724346016712429064
0.0357419795643153072778889730279038920457662828529613448402390738    -0.2752354212880885604993537153034977129139230458430657059356684837
0.0360976365307725667017526226798206427511378582342012502092702270    -0.2393114751583033657092926190505342727989651493170293571093175485
0.0364034033180021224886262601287836206386381746607612422574394356    -0.2030567790525534781288094195289488467374844206773548942668555403
0.0366588573287590756365769173427926049753384859970012852194622139    -0.1665214402205481589664451037804560221315409682898526635312756445
0.0368636455025903077184520716378216273298094686116136350999652071    -0.1297559537855247418005375713010221744192328564627574203834420047
0.0370174848037945205852444236981303050927920345619995297416656058    -0.0928111329554378827462503406450995751679516963464410037881053606
0.0371201626126020942737275872868440687313590190315391965444158762    -0.0557380387945282169992728423223793681128781790265235652224373467
0.0371715370190340676032836125449523978407182806508187399238483031    -0.0185879096523321332868301027854343340631972350092110521604456077
0.0371715370190340676032836125449523978407182806508187399238483031    0.0185879096523321332868301027854343340631972350092110521604456077
0.0371201626126020942737275872868440687313590190315391965444158762    0.0557380387945282169992728423223793681128781790265235652224373467
0.0370174848037945205852444236981303050927920345619995297416656058    0.0928111329554378827462503406450995751679516963464410037881053606
0.0368636455025903077184520716378216273298094686116136350999652071    0.1297559537855247418005375713010221744192328564627574203834420047
0.0366588573287590756365769173427926049753384859970012852194622139    0.1665214402205481589664451037804560221315409682898526635312756445
0.0364034033180021224886262601287836206386381746607612422574394356    0.2030567790525534781288094195289488467374844206773548942668555403
0.0360976365307725667017526226798206427511378582342012502092702270    0.2393114751583033657092926190505342727989651493170293571093175485
0.0357419795643153072778889730279038920457662828529613448402390738    0.2752354212880885604993537153034977129139230458430657059356684837
0.0353369239686012761603887249704209550119024714470940282297053881    0.3107789673184639726279707357280000143366077389724346016712429064
0.0348830295669633084564166620759768362781065297948796327730882478    0.3458929888731970590331299717178187696658296217287943322098793786
0.0343809236823727006213349333041121432421609924543345141221395134    0.3805289552175887005388012640840524397311876307395625341104072515
0.0338313002704259848037248913812260789256065059263059225860972572    0.4146389963323312193399896832996798309826330985804425141946959343
0.0332349189602404440747156266588090841259842223351663097417025844    0.4481759690742023311584997295291224609655421102501167171401313662
0.0325926040045842571836133353160918964878695502559554494600434976    0.4810935223321561760543089362317528261264835019060419171158600569
0.0319052431406927274840229657768828741032142942342603384801594331    0.5133461610887614000481038429100331094709781248822490783918729181
0.0311737863633456612919674695492219850960773805441297742757611300    0.5448893092984496889126467899075812329481732076756510984872244858
0.0303992446119024697731137023090169956239837675138615041135728009    0.5756793714956741560419158937751715218679467820316519555682522175
0.0295826883731108452896052613482587628117544787110740898564099052    0.6056737930478333896842687218076798395095764469956278337470753199
0.0287252462016218022126647793795872530547656018451548082742985071    0.6348311189696914836440142488404225644113420753750141518669176811
0.0278281031602584060357669203286374338980418950342779043386009970    0.6631110512180146343361991426069225150160371837569927261416853010
0.0268924991821976375158164234534642811096781507695481782935067868    0.6904745043872484712203072050207145393795862177696856832978127337
0.0259197273573346477251602155204057173582796824404834214176392588    0.7168836597292748238228822528705588210964090449767792813555679780
0.0249111321452064288843913597832101206797179222299650349744958590    0.7423020174226099207735217396176025440865768678131442640566727654
0.0238681075169582393847154219004387659905402172395572945812874690    0.7666944470188362826669001853804166421034965578752089315419092528
0.0227920950289421293388886334012873783168701678434647137830449712    0.7900272359965968679677376568561017785738043401677625392229284436
0.0216845818306448229892440371715014780582287894857160729693276095    0.8122681363561230390229378705427353561897746573618492526810886279
0.0205470986097562786115244396366892794049978523911430080677292130    0.8333864091900214288460524466068008271519729511537261524128585214
0.0193812174773188086478070583120437772624875111407294814475073916    0.8533528671689186615987408364405843058759640499173762895144493458
0.0181885497960565499276002407845758873793564015907627645572832542    0.8721399148835790320298105828283817298825698242475944165782117888
0.0169707439552116113430816822898765092678039087060276600518135159    0.8897215869883154608039394628265777711437217360125430450707288354
0.0157294830955835982015998235831063007556159838441403152700216616    0.9060735840940084213399755086458147797748349292803395176096217559
0.0144664827891611862422748721229512144888013454723692985738601031    0.9211733063630512177272067298071407413514293362086022322623026597
0.0131834886791823459867994674340018676644523998036324668822878741    0.9349998847635588177524005690916613245072383057356996210251935266
0.0118822740898012234950519616430967790521475630553148880230879565    0.9475342099474431228112757411684118747431289848530462474185336122
0.0105646376230082452648484785699581669174784627109199524809853786    0.9587589587296934720199491856779103358045717485167765325026114003
0.0092324007841902470143829456142152573067668611142418542561400531    0.9686586181736218976906279071689186381033350561284465841443964880
0.0078874057526481463821061278247736423952224058995539734023257756    0.9772195073583157826543006642671009504738587144866699850606647603
0.0065315136877136546011213493931907821500699393495681128478033822    0.9844297971275816515190749936266545645098770167777825294647184446
0.0051666051827468083298810211160260448206948821566160270804325957    0.9902795289653566873342158975716513342765477362713804099221561286
0.0037945916504523496963933944075235042695447764990364985142950459    0.9947606382612846411958374062123982658639489821254946021998961632
0.0024175112654431228552351917532905581670629778147202867515556955    0.9978670164217119615614189657833630489952452147494776670416501016
0.0010391335164519718891881135390812291191545037450981956856839450    0.9995950612269232422047472582512344259587005074495607691506088297
