0.0013367616500698835503287491364679858895660735050667146325827944    -0.9994790687803295242710445151095284968393558895522661936068067113
0.0031094201498967546786733661213291849902969143856129434988178656    -0.9972562617110163908380640963444577858850787503868736338368443863
0.0048791797585941445842898117670415529775269323241401660461066543    -0.9932614098046449727138849278415656240084887853451523263945584441
0.0066404929091143576347612487075257367516525601735374362193591280    -0.9875007266162385596071243271394819001833274804678640310750939689
0.0083900454339713970640883408508292244081185696594424930844122110    -0.9799843454313003360988040664084038925897080978295218883449535805
0.0101246945382873054211199360180768542226617844986379965024921331    -0.9707256040425187268193545598227449261388369739232858927228562563
0.0118413475474996673231684741193353615189899672853216968128853396    -0.9597409554595289126999172160385015113249605951092027435668798410
0.0135369494117874943410533513544741726402890411118512040130785011    -0.9470499264283850082726283484145170650621841074831417753447250510
0.0152084842434012348088747407275396362301309721614336847346246691    -0.9326750794620545660856011297018675800837433275879995911759066113
0.0168529795820248535848474727664362323524769809444921204341592550    -0.9166419716429064606771482582860433248137613620658938253582365349
0.0184675113089798797828537296592577326600909105917715438270680910    -0.8989791087618957955837154038012783234215530592103225943263329271
0.0200492087027949442527346554704768947802938015448118496183192043    -0.8797178944520888092287632646739469312825535367555292939753319381
0.0215952594816758889696995473220615224659796479650963511317400100    -0.8588925742659835767964863872879191929512002049487518750627896401
0.0231029147749158230309326268891745040405158047836889738521375317    -0.8365401747428157391683480170213286947999219465311490697943616945
0.0245694939959427672456492057832262287475823996430840559065189606    -0.8127004375519743738752551112824622028947719861962440291538953747
0.0259923896007237878667735460436170044085377292477874993240801208    -0.7874157488195755178199867099064000279537132050480957115095348364
0.0273690717196793523024377727124606912676779775706387333470277425    -0.7607310637589944759686228985534809458513692481558098064145957135
0.0286970926532698753420951064486633315671109678004652600235308141    -0.7326938267368802777624634039906139377627554430950409489587638229
0.0299740912224611873399647771003799653470679013439501248940173824    -0.7033538869154418590603199592144899788243826539355534030362220319
0.0311977969659154260333723511056083686148940236976437485780915810    -0.6727634096202476027185054667503053182941377354363618676169405268
0.0323660341762169995252801864901367563421769689934072231268569848    -0.6409767835906923885953419452805299460278683405452751040285564406
0.0334767257678287662637224740216670686779638281979054456498748640    -0.6080505242777798255251629054709183541268039597232006604712573089
0.0345278969698264610033339737986060254145193823802522222985251373    -0.5740431733609941525018926202612970988894533730477212288243340989
0.0355176788368009599258538694538579004162073720094206849370839061    -0.5390151946628170832407270326463048437237064875961676425718482717
0.0364443115716585644818109075162809458507032502680346660468891013    -0.5030288666458851659140730438778176644100554503515720753784858285
0.0373061476543941557337066856256952171128476043998132987289864719    -0.4661481716838811834220598319754183549207152741105226963333381269
0.0381016547712632488963516566586349812925880534004795765261555155    -0.4284386823030032793758292940202347259481630345144621721791286455
0.0388294185391377077580822729118821102160788256203948352927513431    -0.3899674445962507505710719299665658302491951306812633453056018333
0.0394881450201964683236327204903400922038011302689509577513105013    -0.3508028590177980474925349688284704618900084695291052803834820042
0.0400766630224769667591511719233769673422815882778955256626667028    -0.3110145587693906370497577216093009283091018205507992955437878894
0.0405939261821947280580768198279083024133611460520297212986115845    -0.2706732859949804055376722412702830961761670167216434929682046213
0.0410390148241272668474188098165169007705427651573340917377801163    -0.2298507660037170310181694332257526285576621737817282751309059881
0.0414111375967535108200680700198815018151357031751025023554404961    -0.1886195797449185783107210676799340811895827833125897152500515181
0.0417096328792407543787099336086234902344210213119635940056502639    -0.1470530347617534117288513568885247250010894011126164448233654956
0.0419339699577770214699552078398869823819063938624867494445958747    -0.1052250348530709718639887992479505462145782766914745219770441497
0.0420837499691569724748957650023828862866750622227882940443355788    -0.0632099486751162918957266017766211004098019570973614381703338785
0.0421587066099434221222306648903396853473289441632660146114355683    -0.0210824775167483044475352185140474316260076172757574263131045320
0.0421587066099434221222306648903396853473289441632660146114355683    0.0210824775167483044475352185140474316260076172757574263131045320
0.0420837499691569724748957650023828862866750622227882940443355788    0.0632099486751162918957266017766211004098019570973614381703338785
0.0419339699577770214699552078398869823819063938624867494445958747    0.1052250348530709718639887992479505462145782766914745219770441497
0.0417096328792407543787099336086234902344210213119635940056502639    0.1470530347617534117288513568885247250010894011126164448233654956
0.0414111375967535108200680700198815018151357031751025023554404961    0.1886195797449185783107210676799340811895827833125897152500515181
0.0410390148241272668474188098165169007705427651573340917377801163    0.2298507660037170310181694332257526285576621737817282751309059881
0.0405939261821947280580768198279083024133611460520297212986115845    0.2706732859949804055376722412702830961761670167216434929682046213
0.0400766630224769667591511719233769673422815882778955256626667028    0.3110145587693906370497577216093009283091018205507992955437878894
0.0394881450201964683236327204903400922038011302689509577513105013    0.3508028590177980474925349688284704618900084695291052803834820042
0.0388294185391377077580822729118821102160788256203948352927513431    0.3899674445962507505710719299665658302491951306812633453056018333
0.0381016547712632488963516566586349812925880534004795765261555155    0.4284386823030032793758292940202347259481630345144621721791286455
0.0373061476543941557337066856256952171128476043998132987289864719    0.4661481716838811834220598319754183549207152741105226963333381269
0.0364443115716585644818109075162809458507032502680346660468891013    0.5030288666458851659140730438778176644100554503515720753784858285
0.0355176788368009599258538694538579004162073720094206849370839061    0.5390151946628170832407270326463048437237064875961676425718482717
0.0345278969698264610033339737986060254145193823802522222985251373    0.5740431733609941525018926202612970988894533730477212288243340989
0.0334767257678287662637224740216670686779638281979054456498748640    0.6080505242777798255251629054709183541268039597232006604712573089
0.0323660341762169995252801864901367563421769689934072231268569848    0.6409767835906923885953419452805299460278683405452751040285564406
0.0311977969659154260333723511056083686148940236976437485780915810    0.6727634096202476027185054667503053182941377354363618676169405268
0.0299740912224611873399647771003799653470679013439501248940173824    0.7033538869154418590603199592144899788243826539355534030362220319
0.0286970926532698753420951064486633315671109678004652600235308141    0.7326938267368802777624634039906139377627554430950409489587638229
0.0273690717196793523024377727124606912676779775706387333470277425    0.7607310637589944759686228985534809458513692481558098064145957135
0.0259923896007237878667735460436170044085377292477874993240801208    0.7874157488195755178199867099064000279537132050480957115095348364
0.0245694939959427672456492057832262287475823996430840559065189606    0.8127004375519743738752551112824622028947719861962440291538953747
0.0231029147749158230309326268891745040405158047836889738521375317    0.8365401747428157391683480170213286947999219465311490697943616945
0.0215952594816758889696995473220615224659796479650963511317400100    0.8588925742659835767964863872879191929512002049487518750627896401
0.0200492087027949442527346554704768947802938015448118496183192043    0.8797178944520888092287632646739469312825535367555292939753319381
0.0184675113089798797828537296592577326600909105917715438270680910    0.8989791087618957955837154038012783234215530592103225943263329271
0.0168529795820248535848474727664362323524769809444921204341592550    0.9166419716429064606771482582860433248137613620658938253582365349
0.0152084842434012348088747407275396362301309721614336847346246691    0.9326750794620545660856011297018675800837433275879995911759066113
0.0135369494117874943410533513544741726402890411118512040130785011    0.9470499264283850082726283484145170650621841074831417753447250510
0.0118413475474996673231684741193353615189899672853216968128853396    0.9597409554595289126999172160385015113249605951092027435668798410
0.0101246945382873054211199360180768542226617844986379965024921331    0.9707256040425187268193545598227449261388369739232858927228562563
0.0083900454339713970640883408508292244081185696594424930844122110    0.9799843454313003360988040664084038925897080978295218883449535805
0.0066404929091143576347612487075257367516525601735374362193591280    0.9875007266162385596071243271394819001833274804678640310750939689
0.0048791797585941445842898117670415529775269323241401660461066543    0.9932614098046449727138849278415656240084887853451523263945584441
0.0031094201498967546786733661213291849902969143856129434988178656    0.9972562617110163908380640963444577858850787503868736338368443863
0.0013367616500698835503287491364679858895660735050667146325827944    0.9994790687803295242710445151095284968393558895522661936068067113
