0.0030272789889229050774806981758271409728300420038317733852349851    -0.9988201506066353793618312727041106551236809978645019641129491773
0.0070350995900864514734506783113484108628638570390273368512183971    -0.9937886619441677907601138592579536188413073949386501676046027865
0.0110205510315935804975082881668333327521935605449577449623804527    -0.9847578959142130043592989953685747103533074621452529532172163576
0.0149621449356246510295843191202015040362810163727672786460381471    -0.9717622009015553801399724215047741334978625471809056933192274180
0.0188435958530894584444506533911073492677499020192522803114595428    -0.9548536586741372335552436796681844190546944519002737919229861741
0.0226492015874466764987709642160428873267974990232647759762438887    -0.9341002947558101490589824606365449024604229528101919944077018733
0.0263636189270660169609457452397420476944609717657405082277524549    -0.9095856558280732852130196403558000710427712311167180391068447204
0.0299718846205838253506905580741472100620720359508768289205557436    -0.8814084455730089100370315358170049261592400372623913396175291831
0.0334594667916221743424871508916892018494798678602284555937892187    -0.8496821198441657010348818722429793333266043324647162487435869645
0.0368123209630006898194672366988822950013615524059829569388591010    -0.8145344273598554315395007877647770444946721358227533517367668829
0.0400169457663730213686050367431033214278646074650014684934934945    -0.7761068943454466350181428122484560712644504618291818652710343025
0.0430604369812595979883454840010384958067135812398217601043484745    -0.7345542542374026962136742128585248846528354533237018344394709862
0.0459305393555958535424996199721276710088243223546234086767627685    -0.6900438244251321135047518072749419276335051261890357509915486164
0.0486156958878282402776511972878685308813689286185930726392406351    -0.6427548324192376640568569485839001095403354722532775325414824280
0.0511050943301445906746228060493185613896124493297433889145579374    -0.5928776941089007124558643367926285346330010153188475904535107931
0.0533887107082589685279429337301762061655860694482272094221682490    -0.5406132469917260665582254672294359169241013462383658465979479906
0.0554573496748035886904315814826980672042515240737943837583239730    -0.4861719414524920421769760960585750620751151943349366052805976939
0.0573026815301874754851645923508165363505804388031196815906604432    -0.4297729933415765246585841418074230330634178978780720098437071044
0.0589172757600272660245276507424925162624961138594794597941654417    -0.3716435012622848888637345409469605276147447867339269767498683366
0.0602946309531520173031061168755415904977765089197254878149520458    -0.3120175321197487622078606765064162650968334079943872495833973369
0.0614292009791929362968266461403010749431900091920979337210504101    -0.2511351786125772735071559428246112745829841745736642512940265542
0.0623164173200572674010768252159497042241335362213208338442385191    -0.1892415924618135864853101738599865111796788776788190893444373541
0.0629527074651956994743995557828910063637254277695700413723057518    -0.1265859972696720510679852885755361903244871210668667135109682579
0.0633355092964917485908369274000905201479714165648258204473111761    -0.0634206849826867860288348208784849731527868727788803874902091384
0.0634632814047905977182534678795296349996295223082522191857774971    0.0000000000000000000000000000000000000000000000000000000000000000
0.0633355092964917485908369274000905201479714165648258204473111761    0.0634206849826867860288348208784849731527868727788803874902091384
0.0629527074651956994743995557828910063637254277695700413723057518    0.1265859972696720510679852885755361903244871210668667135109682579
0.0623164173200572674010768252159497042241335362213208338442385191    0.1892415924618135864853101738599865111796788776788190893444373541
0.0614292009791929362968266461403010749431900091920979337210504101    0.2511351786125772735071559428246112745829841745736642512940265542
0.0602946309531520173031061168755415904977765089197254878149520458    0.3120175321197487622078606765064162650968334079943872495833973369
0.0589172757600272660245276507424925162624961138594794597941654417    0.3716435012622848888637345409469605276147447867339269767498683366
0.0573026815301874754851645923508165363505804388031196815906604432    0.4297729933415765246585841418074230330634178978780720098437071044
0.0554573496748035886904315814826980672042515240737943837583239730    0.4861719414524920421769760960585750620751151943349366052805976939
0.0533887107082589685279429337301762061655860694482272094221682490    0.5406132469917260665582254672294359169241013462383658465979479906
0.0511050943301445906746228060493185613896124493297433889145579374    0.5928776941089007124558643367926285346330010153188475904535107931
0.0486156958878282402776511972878685308813689286185930726392406351    0.6427548324192376640568569485839001095403354722532775325414824280
0.0459305393555958535424996199721276710088243223546234086767627685    0.6900438244251321135047518072749419276335051261890357509915486164
0.0430604369812595979883454840010384958067135812398217601043484745    0.7345542542374026962136742128585248846528354533237018344394709862
0.0400169457663730213686050367431033214278646074650014684934934945    0.7761068943454466350181428122484560712644504618291818652710343025
0.0368123209630006898194672366988822950013615524059829569388591010    0.8145344273598554315395007877647770444946721358227533517367668829
0.0334594667916221743424871508916892018494798678602284555937892187    0.8496821198441657010348818722429793333266043324647162487435869645
0.0299718846205838253506905580741472100620720359508768289205557436    0.8814084455730089100370315358170049261592400372623913396175291831
0.0263636189270660169609457452397420476944609717657405082277524549    0.9095856558280732852130196403558000710427712311167180391068447204
0.0226492015874466764987709642160428873267974990232647759762438887    0.9341002947558101490589824606365449024604229528101919944077018733
0.0188435958530894584444506533911073492677499020192522803114595428    0.9548536586741372335552436796681844190546944519002737919229861741
0.0149621449356246510295843191202015040362810163727672786460381471    0.9717622009015553801399724215047741334978625471809056933192274180
0.0110205510315935804975082881668333327521935605449577449623804527    0.9847578959142130043592989953685747103533074621452529532172163576
0.0070350995900864514734506783113484108628638570390273368512183971    0.9937886619441677907601138592579536188413073949386501676046027865
0.0030272789889229050774806981758271409728300420038317733852349851    0.9988201506066353793618312727041106551236809978645019641129491773
