0.0041059986046490846106027794968359626570167733748022903578521270    -0.9983996189900624150228681268470502761778760835227812517648555025
0.0095362203017485024118201002926979981886847987350125725118652036    -0.9915772883408609197923612532808688334526932647371040175768790481
0.0149224436973574941446776781058657676200927474901078965946573345    -0.9793425080637481937089825665428560955864749801290629286155092700
0.0202278695690526447570557190793541850826714265524220962116535809    -0.9617593653382044887469271578533226811717212889140319989786297060
0.0254229595261130478867424429094308643861354103739789548611818969    -0.9389235573549881785331734336255919702513878184501718708418034494
0.0304792406996034683629047335233923977917696542444008948236439164    -0.9109597249041274525838478792085065423189003513394556038784481337
0.0353690710975921108326621811265075419057485217806414500728322037    -0.8780205698121727427119851034786235340628197162439185987558612703
0.0400657351806922617605961248300369345537337018657456150992271998    -0.8402859832618169009254399950860998178233985751935683568051072777
0.0445435777719658778743163659852342413185954660371275812452601637    -0.7979620532554874132327059525463766601323755112906541340580999385
0.0487781407928032450274493631284027239211176969342269030310122365    -0.7512799356894804895684721759146586555025645198295409248539312307
0.0527462956991740703439425390440974770315659878271861196217404726    -0.7004945905561712137415699290554655343001759418000931811275692804
0.0564263693580183816464268551396956893988731585762885074228808835    -0.6458833888692478339574963037184117011690865438401438646847262184
0.0597982622275866543128315457535348515098534186959439094532330084    -0.5877445974851093228407113454739957199054313048280016458982562702
0.0628435580450025764093182513237798891527970439218897387187869714    -0.5263957499311922875928675587919014614357397649299099289284323512
0.0655456243649089789270051078517944256097822940857930823316482895    -0.4621719120704219297590750299306359851096649084736086310928303621
0.0678897033765219448553634022137663072661347346585931978698987123    -0.3954238520429750576770939545943719807991785764863534882619755104
0.0698629924925941597661547863814822044439273130474320937075310571    -0.3265161244654115121971565893754656690584114704985845239381966338
0.0714547142651709829218104441174621550225898638775037186326404641    -0.2558250793428790839664147910187084487687664564654009546606981667
0.0726561752438041048879057614925330312767836839684272299957304739    -0.1837368065648545508527556393807429409333239616225151003544115714
0.0734608134534675282640282570543039387336557834504052393627521013    -0.1106450272085198683491225450026410048673440244836308074034761449
0.0738642342321728799963855611497914131284705205020709080739717028    -0.0369489431653517758130959800375594266417084522492225313496450106
0.0738642342321728799963855611497914131284705205020709080739717028    0.0369489431653517758130959800375594266417084522492225313496450106
0.0734608134534675282640282570543039387336557834504052393627521013    0.1106450272085198683491225450026410048673440244836308074034761449
0.0726561752438041048879057614925330312767836839684272299957304739    0.1837368065648545508527556393807429409333239616225151003544115714
0.0714547142651709829218104441174621550225898638775037186326404641    0.2558250793428790839664147910187084487687664564654009546606981667
0.0698629924925941597661547863814822044439273130474320937075310571    0.3265161244654115121971565893754656690584114704985845239381966338
0.0678897033765219448553634022137663072661347346585931978698987123    0.3954238520429750576770939545943719807991785764863534882619755104
0.0655456243649089789270051078517944256097822940857930823316482895    0.4621719120704219297590750299306359851096649084736086310928303621
0.0628435580450025764093182513237798891527970439218897387187869714    0.5263957499311922875928675587919014614357397649299099289284323512
0.0597982622275866543128315457535348515098534186959439094532330084    0.5877445974851093228407113454739957199054313048280016458982562702
0.0564263693580183816464268551396956893988731585762885074228808835    0.6458833888692478339574963037184117011690865438401438646847262184
0.0527462956991740703439425390440974770315659878271861196217404726    0.7004945905561712137415699290554655343001759418000931811275692804
0.0487781407928032450274493631284027239211176969342269030310122365    0.7512799356894804895684721759146586555025645198295409248539312307
0.0445435777719658778743163659852342413185954660371275812452601637    0.7979620532554874132327059525463766601323755112906541340580999385
0.0400657351806922617605961248300369345537337018657456150992271998    0.8402859832618169009254399950860998178233985751935683568051072777
0.0353690710975921108326621811265075419057485217806414500728322037    0.8780205698121727427119851034786235340628197162439185987558612703
0.0304792406996034683629047335233923977917696542444008948236439164    0.9109597249041274525838478792085065423189003513394556038784481337
0.0254229595261130478867424429094308643861354103739789548611818969    0.9389235573549881785331734336255919702513878184501718708418034494
0.0202278695690526447570557190793541850826714265524220962116535809    0.9617593653382044887469271578533226811717212889140319989786297060
0.0149224436973574941446776781058657676200927474901078965946573345    0.9793425080637481937089825665428560955864749801290629286155092700
0.0095362203017485024118201002926979981886847987350125725118652036    0.9915772883408609197923612532808688334526932647371040175768790481
0.0041059986046490846106027794968359626570167733748022903578521270    0.9983996189900624150228681268470502761778760835227812517648555025
