0.0026913169500471111189521798688452180236693737610649004187705479    -0.9989511111039502780909614407165925612780132611153575616799248405
0.0062555239629732768997161021698145466164117046531312593637996624    -0.9944775909292160292450432717995717066319117760978821714588562966
0.0098026345794627520619511681166895023278384118572793052735047727    -0.9864461956515498406453228591183973680227390358273262327971529783
0.0133151149823409606566003444777991485546764997333043912196613474    -0.9748838842217445031407064703996455544599236639459383978284433506
0.0167800233963007356779215368705201620834158091638185160071399099    -0.9598318269330865525320251534250654427878474760376774154149939732
0.0201848915079807922029890342094782372367124670848078201907053153    -0.9413438536413590568435791838505670058287655454363191996700318719
0.0235175135539844615903225199100546094292291290029855012254292491    -0.9194861289164245398935963765418815850295202727024720571862228606
0.0267659537465040134494930802860183788552618844990582872570309964    -0.8943368905344953225208440882635275553455809955623764931926988622
0.0299185811471439466412820687399708879321233155105875174834793725    -0.8659861628460675852443585176242069408983389526242908239353345450
0.0329641090897187979150100447786951961767273925745843488003966138    -0.8345354323267345349617263896212386852459363126692260532316753954
0.0358916348350972329419423932852807387853385030651726362693942912    -0.8000972834304683243347587542258076511976418586077015805873084944
0.0386906783104239789851012067403526469280782659935645860649681723    -0.7627949951937449602792111630890508407918305745076215467186477547
0.0413512195005602716790402864239551629382699693154642276674598925    -0.7227620997499831936768166760719359547839939052147200199234892689
0.0438637342590004079951296655787644501641606665302048159962246339    -0.6801419042271677020922387797366410079009967101657759155654529888
0.0462192283727847935076457053352846392239010216264228405080317658    -0.6350869776952459242981245792888096535935989889549896632034837966
0.0484092697440748968539602492860462780097495217284633972848027563    -0.5877586049795790699020257815572042238812201665380434899597849612
0.0504260185663423772182112540828587544625779587655397969886837989    -0.5383262092858274383759511679753567638234901414030809734098556336
0.0522622553839069930343941444263921437081990780858669848773571681    -0.4869667456980960777824582413464655568504550397190236877426344804
0.0539114069327572647508368248937999595766012469593051258848183002    -0.4338640677187616703090865682097802607437458524184033858190972556
0.0553675696693026525490410934512185822901540032510420234131144118    -0.3792082691160936692466817669394488804621215913511966093360123101
0.0566255309023685971908082404783701505672200728147146762239886498    -0.3231950034348078255010990666014471790540475338065794579393387323
0.0576807874525268276539319976634035195394398350513375844862481532    -0.2660247836050018274729717305988398844559243749621846684671372572
0.0585295617718138685502905989716236936380687327423255988373217703    -0.2079022641563660596864661281223455182726628108282046469354128178
0.0591688154660429703693320023948709783254170522175978797865113525    -0.1490355086069491804886340400181135703222697618882335324355708655
0.0595962601712481582583108787484149536622772803819419155385807811    -0.0896352446489005654888546911223993031698512871901984204841026294
0.0598103657452918602477853788114774609444808036304140629325763147    -0.0299141097973387660436807760707999268188436082499469816198575394
0.0598103657452918602477853788114774609444808036304140629325763147    0.0299141097973387660436807760707999268188436082499469816198575394
0.0595962601712481582583108787484149536622772803819419155385807811    0.0896352446489005654888546911223993031698512871901984204841026294
0.0591688154660429703693320023948709783254170522175978797865113525    0.1490355086069491804886340400181135703222697618882335324355708655
0.0585295617718138685502905989716236936380687327423255988373217703    0.2079022641563660596864661281223455182726628108282046469354128178
0.0576807874525268276539319976634035195394398350513375844862481532    0.2660247836050018274729717305988398844559243749621846684671372572
0.0566255309023685971908082404783701505672200728147146762239886498    0.3231950034348078255010990666014471790540475338065794579393387323
0.0553675696693026525490410934512185822901540032510420234131144118    0.3792082691160936692466817669394488804621215913511966093360123101
0.0539114069327572647508368248937999595766012469593051258848183002    0.4338640677187616703090865682097802607437458524184033858190972556
0.0522622553839069930343941444263921437081990780858669848773571681    0.4869667456980960777824582413464655568504550397190236877426344804
0.0504260185663423772182112540828587544625779587655397969886837989    0.5383262092858274383759511679753567638234901414030809734098556336
0.0484092697440748968539602492860462780097495217284633972848027563    0.5877586049795790699020257815572042238812201665380434899597849612
0.0462192283727847935076457053352846392239010216264228405080317658    0.6350869776952459242981245792888096535935989889549896632034837966
0.0438637342590004079951296655787644501641606665302048159962246339    0.6801419042271677020922387797366410079009967101657759155654529888
0.0413512195005602716790402864239551629382699693154642276674598925    0.7227620997499831936768166760719359547839939052147200199234892689
0.0386906783104239789851012067403526469280782659935645860649681723    0.7627949951937449602792111630890508407918305745076215467186477547
0.0358916348350972329419423932852807387853385030651726362693942912    0.8000972834304683243347587542258076511976418586077015805873084944
0.0329641090897187979150100447786951961767273925745843488003966138    0.8345354323267345349617263896212386852459363126692260532316753954
0.0299185811471439466412820687399708879321233155105875174834793725    0.8659861628460675852443585176242069408983389526242908239353345450
0.0267659537465040134494930802860183788552618844990582872570309964    0.8943368905344953225208440882635275553455809955623764931926988622
0.0235175135539844615903225199100546094292291290029855012254292491    0.9194861289164245398935963765418815850295202727024720571862228606
0.0201848915079807922029890342094782372367124670848078201907053153    0.9413438536413590568435791838505670058287655454363191996700318719
0.0167800233963007356779215368705201620834158091638185160071399099    0.9598318269330865525320251534250654427878474760376774154149939732
0.0133151149823409606566003444777991485546764997333043912196613474    0.9748838842217445031407064703996455544599236639459383978284433506
0.0098026345794627520619511681166895023278384118572793052735047727    0.9864461956515498406453228591183973680227390358273262327971529783
0.0062555239629732768997161021698145466164117046531312593637996624    0.9944775909292160292450432717995717066319117760978821714588562966
0.0026913169500471111189521798688452180236693737610649004187705479    0.9989511111039502780909614407165925612780132611153575616799248405
