0.0014927212888445157310393560571378587460956566331719347588790742    -0.9994182859735758420567425818852093846185367392155283092066324737
0.0034718948930781432549991924810463304553325708232771205242769154    -0.9969362519616801566098134958341555118823752779529051903788312579
0.0054471118742172183128209656238969017445693015603853838518850638    -0.9924760552116899810989420857593900184883215827212260603119028183
0.0074117693631902103621109273232030250037090035109481998710254974    -0.9860455580703986599271013393173348854883025590727932569797769780
0.0093617627696990268114995142357860398379309243208141659388575723    -0.9776574059575924003939076281362327492414957193895433202977357283
0.0112931846499315376496309969771448417330394257864132137971515490    -0.9673282236649864383886182357240887367774555411937847333354142278
0.0132021908146767476250734908864842915540377026534410056794755401    -0.9550785091142928426403273546285194272174144249423696832196393789
0.0150849878654431276822951872143965447146577203184475523955072608    -0.9409325790038153555228154157419870608517227256600739132601918328
0.0169378363763029325318368541746873115804705297792108319674429846    -0.9249185168979344402722659651848872639540857445742983582421390177
0.0187570570931334234154511303218699167666594567492321396068015724    -0.9070681162609228494363527242939418652051712185183261879939553087
0.0205390378243264533844925803326730686607172682098703141088346855    -0.8874168168633481711243734899940875090272615514136031696096553271
0.0222802404522565958338908416195441400042597952088375699113077912    -0.8660036342138586293800345194206027961924694473223046751076506799
0.0239772078891002922786866941535334270070607040434516983112685695    -0.8428710819989802423185935301974340300753374006484406057971393146
0.0256265709084684827989848322993845710611559321890696829275035117    -0.8180650876254411890272319871066868830224751151020886709221294784
0.0272250548186644171591072101624331370211920652672780664779295648    -0.7916349010078927581076761744848141267499722063208138578868255662
0.0287694859558082806613103837802050405636545230629291044375232669    -0.7636329967718995689250950564967334825216914907970508267839956120
0.0302567979801542378165367435724326692301726037585702364556388685    -0.7341149700609426413076516789381984959959323589687096315563511066
0.0316840379613084817346528560224676753805575251747347787761896650    -0.7031394261515285970629473602224457695745165907883339981891285716
0.0330483722393724204708742853979139463124009809115139890030704287    -0.6707678640940774056462811950114210894839004274450830403068159156
0.0343470920499065375685453293485348315693224170249009719659025290    -0.6370645546097780962788596446870299614648063645490040332311511197
0.0355776189012923805327697139526149191125293011277059130206385538    -0.6020964124853554873367665822034375779790568935107139581816220019
0.0367375096936726953480402758947295870982642189085192747054326290    -0.5659328637188082863729593574700118382498526079023841071333820488
0.0378244615692228171972721391990150943257448511219678286433793015    -0.5286457076797111272650807566608182421109615132245471352828522447
0.0388363164840734039790030435968849581569208715341686826022048562    -0.4903089745576365892697781413528103570079310586105122741674372149
0.0397710654927765674778495459931257406584433745808711950681471572    -0.4509987783816478657316397038811177237577988763261415835443522210
0.0406268527367896163512259108565387550229281515328837035597924310    -0.4107931659026305893712627679343629808464063577607582323918043818
0.0414019791290452086382265039797212571647360228484225015501499423    -0.3697719616384618958394046946329180229448596246746681322640133455
0.0420949057272844060209838881826738959785582891822589322030946479    -0.3280166093896432578461314544870550426976742062913557513562031805
0.0427042567894497777699657102443388321570764118719078635321772871    -0.2856100105400378616916647808603884568973473297029568595149340970
0.0432288225050686997893952387744783978136459833689213601081666740    -0.2426363594637406457835790263837904412400166109664567060493458218
0.0436675613972014402525484288919817064653128790337989318641565618    -0.1991809763648576641514034616200601845672631173268712708757785965
0.0440196023901834587573557803511148294187090036780144425574147845    -0.1553301378820702473090054915026339982098060394049548645733725979
0.0442842465390554067757996743919545460663441103089707568645193370    -0.1111709057942986937357523305502807689770759445848957532075038213
0.0444609684172463708235572766258955363592336871718464545163644552    -0.0667909541675513240037194364395975267568853064277594167026637224
0.0445494171597546672021674970801563752545567367432441984378894710    -0.0222783952861403096934927824888102829695662392066094819503822545
0.0445494171597546672021674970801563752545567367432441984378894710    0.0222783952861403096934927824888102829695662392066094819503822545
0.0444609684172463708235572766258955363592336871718464545163644552    0.0667909541675513240037194364395975267568853064277594167026637224
0.0442842465390554067757996743919545460663441103089707568645193370    0.1111709057942986937357523305502807689770759445848957532075038213
0.0440196023901834587573557803511148294187090036780144425574147845    0.1553301378820702473090054915026339982098060394049548645733725979
0.0436675613972014402525484288919817064653128790337989318641565618    0.1991809763648576641514034616200601845672631173268712708757785965
0.0432288225050686997893952387744783978136459833689213601081666740    0.2426363594637406457835790263837904412400166109664567060493458218
0.0427042567894497777699657102443388321570764118719078635321772871    0.2856100105400378616916647808603884568973473297029568595149340970
0.0420949057272844060209838881826738959785582891822589322030946479    0.3280166093896432578461314544870550426976742062913557513562031805
0.0414019791290452086382265039797212571647360228484225015501499423    0.3697719616384618958394046946329180229448596246746681322640133455
0.0406268527367896163512259108565387550229281515328837035597924310    0.4107931659026305893712627679343629808464063577607582323918043818
0.0397710654927765674778495459931257406584433745808711950681471572    0.4509987783816478657316397038811177237577988763261415835443522210
0.0388363164840734039790030435968849581569208715341686826022048562    0.4903089745576365892697781413528103570079310586105122741674372149
0.0378244615692228171972721391990150943257448511219678286433793015    0.5286457076797111272650807566608182421109615132245471352828522447
0.0367375096936726953480402758947295870982642189085192747054326290    0.5659328637188082863729593574700118382498526079023841071333820488
0.0355776189012923805327697139526149191125293011277059130206385538    0.6020964124853554873367665822034375779790568935107139581816220019
0.0343470920499065375685453293485348315693224170249009719659025290    0.6370645546097780962788596446870299614648063645490040332311511197
0.0330483722393724204708742853979139463124009809115139890030704287    0.6707678640940774056462811950114210894839004274450830403068159156
0.0316840379613084817346528560224676753805575251747347787761896650    0.7031394261515285970629473602224457695745165907883339981891285716
0.0302567979801542378165367435724326692301726037585702364556388685    0.7341149700609426413076516789381984959959323589687096315563511066
0.0287694859558082806613103837802050405636545230629291044375232669    0.7636329967718995689250950564967334825216914907970508267839956120
0.0272250548186644171591072101624331370211920652672780664779295648    0.7916349010078927581076761744848141267499722063208138578868255662
0.0256265709084684827989848322993845710611559321890696829275035117    0.8180650876254411890272319871066868830224751151020886709221294784
0.0239772078891002922786866941535334270070607040434516983112685695    0.8428710819989802423185935301974340300753374006484406057971393146
0.0222802404522565958338908416195441400042597952088375699113077912    0.8660036342138586293800345194206027961924694473223046751076506799
0.0205390378243264533844925803326730686607172682098703141088346855    0.8874168168633481711243734899940875090272615514136031696096553271
0.0187570570931334234154511303218699167666594567492321396068015724    0.9070681162609228494363527242939418652051712185183261879939553087
0.0169378363763029325318368541746873115804705297792108319674429846    0.9249185168979344402722659651848872639540857445742983582421390177
0.0150849878654431276822951872143965447146577203184475523955072608    0.9409325790038153555228154157419870608517227256600739132601918328
0.0132021908146767476250734908864842915540377026534410056794755401    0.9550785091142928426403273546285194272174144249423696832196393789
0.0112931846499315376496309969771448417330394257864132137971515490    0.9673282236649864383886182357240887367774555411937847333354142278
0.0093617627696990268114995142357860398379309243208141659388575723    0.9776574059575924003939076281362327492414957193895433202977357283
0.0074117693631902103621109273232030250037090035109481998710254974    0.9860455580703986599271013393173348854883025590727932569797769780
0.0054471118742172183128209656238969017445693015603853838518850638    0.9924760552116899810989420857593900184883215827212260603119028183
0.0034718948930781432549991924810463304553325708232771205242769154    0.9969362519616801566098134958341555118823752779529051903788312579
0.0014927212888445157310393560571378587460956566331719347588790742    0.9994182859735758420567425818852093846185367392155283092066324737
