0.0045212770985331912584717328781853327278311101997059907003419423    -0.9982377097105592003496227024205864923357703815950459066033361171
0.0104982845311528136147421710672796523767926213157967797156751236    -0.9907262386994570064530543522213721549622220813510865378830762443
0.0164210583819078887128634848823639272923422933469577619719039155    -0.9772599499837742626633702837129038069786679320379860964292620160
0.0222458491941669572615043241842085732070331966793544278807342400    -0.9579168192137916558045409994527592850948834906027470315690538436
0.0279370069800234010984891575077210773025508620507663984480859165    -0.9328128082786765333608521668452057164347535752826924492293430154
0.0334601952825478473926781830864108489772417866537643504131911767    -0.9020988069688742967282533308684931035844880810576694677252601115
0.0387821679744720176399720312904461622534592112320258578372668889    -0.8659595032122595038207818083546199635705465530111016494599402548
0.0438709081856732719916746860417154958110068371702368897585259086    -0.8246122308333116631963202306660987739072403842429877996917909632
0.0486958076350722320614341604481463880678430273771197751406460513    -0.7783056514265193876949715455064948480206913161268917942453420606
0.0532278469839368243549964797722605045553211718220064507643608805    -0.7273182551899271032809964517549305485573786735333281375475512442
0.0574397690993915513666177309104259856001048358544536265066812669    -0.6719566846141795483793545149614941099703259813838511500710929690
0.0613062424929289391665379964083985959025937635111743219868976387    -0.6125538896679802379526124502306948773801237816831496111353475625
0.0648040134566010380745545295667527300326929642084889063631952443    -0.5494671250951282020759313055295179702339751015956514649025654717
0.0679120458152339038256901082319239859841972383792859547178962036    -0.4830758016861787129085665742448230045990223955331141007893352432
0.0706116473912867796954836308552868323595591039955860973106842690    -0.4137792043716050015248797458037136829740996240529182382944022511
0.0728865823958040590605106834425178358575590809857986304762548168    -0.3419940908257584730074924811791943100669536200273257964634095841
0.0747231690579682642001893362613246731912029344203598217313408914    -0.2681521850072536811411843448085961834248043732362469814572599749
0.0761103619006262423715580759224948230125595538450711070541824590    -0.1926975807013710997155168520651498948140920211052088748854675922
0.0770398181642479655883075342838102485244397541639404154891808924    -0.1160840706752552084834512844080241137687285308542159490302974322
0.0775059479784248112637239629583263269636686527881064357329542739    -0.0387724175060508219331934440246232946793646343831415991686371814
0.0775059479784248112637239629583263269636686527881064357329542739    0.0387724175060508219331934440246232946793646343831415991686371814
0.0770398181642479655883075342838102485244397541639404154891808924    0.1160840706752552084834512844080241137687285308542159490302974322
0.0761103619006262423715580759224948230125595538450711070541824590    0.1926975807013710997155168520651498948140920211052088748854675922
0.0747231690579682642001893362613246731912029344203598217313408914    0.2681521850072536811411843448085961834248043732362469814572599749
0.0728865823958040590605106834425178358575590809857986304762548168    0.3419940908257584730074924811791943100669536200273257964634095841
0.0706116473912867796954836308552868323595591039955860973106842690    0.4137792043716050015248797458037136829740996240529182382944022511
0.0679120458152339038256901082319239859841972383792859547178962036    0.4830758016861787129085665742448230045990223955331141007893352432
0.0648040134566010380745545295667527300326929642084889063631952443    0.5494671250951282020759313055295179702339751015956514649025654717
0.0613062424929289391665379964083985959025937635111743219868976387    0.6125538896679802379526124502306948773801237816831496111353475625
0.0574397690993915513666177309104259856001048358544536265066812669    0.6719566846141795483793545149614941099703259813838511500710929690
0.0532278469839368243549964797722605045553211718220064507643608805    0.7273182551899271032809964517549305485573786735333281375475512442
0.0486958076350722320614341604481463880678430273771197751406460513    0.7783056514265193876949715455064948480206913161268917942453420606
0.0438709081856732719916746860417154958110068371702368897585259086    0.8246122308333116631963202306660987739072403842429877996917909632
0.0387821679744720176399720312904461622534592112320258578372668889    0.8659595032122595038207818083546199635705465530111016494599402548
0.0334601952825478473926781830864108489772417866537643504131911767    0.9020988069688742967282533308684931035844880810576694677252601115
0.0279370069800234010984891575077210773025508620507663984480859165    0.9328128082786765333608521668452057164347535752826924492293430154
0.0222458491941669572615043241842085732070331966793544278807342400    0.9579168192137916558045409994527592850948834906027470315690538436
0.0164210583819078887128634848823639272923422933469577619719039155    0.9772599499837742626633702837129038069786679320379860964292620160
0.0104982845311528136147421710672796523767926213157967797156751236    0.9907262386994570064530543522213721549622220813510865378830762443
0.0045212770985331912584717328781853327278311101997059907003419423    0.9982377097105592003496227024205864923357703815950459066033361171
