0.0015811402563729129390950587911008852200645270320570330791863957    -0.9993838255297043471639340504596700045733905709189373927034601016
0.0036773665950117306335680820195447240980460658455842183912446488    -0.9967548366766642925361734721313221733982149254745056849866820540
0.0057689699187299520214684715448281809237456109915965096340936802    -0.9920308877424485746478453027873869399791176743081606630208794426
0.0078487113931771674150504608461789719759309317239112920701302080    -0.9852208614402446388944953529307468372761998721884223306053856851
0.0099120012515859372091303783981081417299226213857814389742454574    -0.9763389504003569569426115595670483741415716090066404405188011951
0.0119544623197694421032230573069476048253406673025999456052899785    -0.9654038025821998032319549865551397687493381390413295930298866163
0.0139717891744576558159650257495670690492327445799285905067927511    -0.9524384044796020493233588243703073569073073585447995554854871981
0.0159597359096138000721334043207816550441665700780762081874157486    -0.9374700183128008864856205524424068370446988304041102635658599823
0.0179141204579231524894054647418151444011612645276624767811514728    -0.9205301208479181664605523632027348470913135226272484808893982514
0.0198308320879554982910286705829823110192013957875078367880589835    -0.9016543359201078302157092545369577634521634564387461147620936171
0.0217058396103780798014656808154624128587313914732501825427591042    -0.8808823590174559176972641305774841772990188848134613401499683359
0.0235351996858763333612929821079980145855066054935099121887016579    -0.8582578735826598454949622917285603874416559186303201864335474607
0.0253150650451763983239027106259933501336948776025344845043152387    -0.8338284590416709458207110279386526875970404927418301120588434605
0.0270416925459039615579781182894066143716322732442337776489169815    -0.8076454906897086652336262587296123357154342238732288232361013125
0.0287114510274849907108039200912680640773168090949892699690238508    -0.7797640316188976587449512968870000704569118391308072880359623905
0.0303208289385539803415792836451648969831405841966331810722326653    -0.7502427169029165197675782298187730545968599679661749856186352927
0.0318664417168210649393476434206596932006654703266122112185532889    -0.7191436302764729926230734440214753532172574920921984562663049070
0.0333450389039806879031431278857716102440778524545075883266674207    -0.6865321735660129447843561224053065324995701170206635947903940497
0.0347535109797515131667931176706359076535136053286712364859888452    -0.6524769291446769642005546842103273305054226070492567513150065834
0.0360888959001798707149758249590250372882651140971031297685872967    -0.6170495156998834227169471294127935405043768287929944658562923064
0.0373483853261866677160791228936108890641947994031214076063716651    -0.5803244376163507401751352387804408808534692636567384089176692040
0.0385293305291067144932536329747254540849293636093458394233701808    -0.5423789282910033858144905745554598683395567451755076476451415277
0.0396292479607123080254064542895236341167450846133811571423277572    -0.5032927877090848726351352830304674322132423466134088266846274670
0.0406458244759540761408817271125462239695533503092187653411827650    -0.4631482146229390391727719000302516808250549092963854132361591864
0.0415769221974029164845754825193796720069683411745071170475373476    -0.4220296336863135791469387919354798828636698008513613409370204340
0.0424205830111424993006142311083854816042159792725021235022804413    -0.3800235179076744774979641757541590089309737076250598420042586850
0.0431750326846442232258435305398237380725486031277321509111681325    -0.3372182067958807627274852396680583032965900430984051759091532871
0.0438386845979560520106049582824835901832826258646817545081399449    -0.2937037205806387399784231188079046378098386624317781004710236213
0.0444101430803527559093486993583644224445228374171958553077973090    -0.2495715708984167345115747610939736290181675776239490011578276667
0.0448882063454266678263521311872780305162832195914515648081294139    -0.2049145683419392958425297811963051365853135898191112003306763332
0.0452718690184437778694116989960012465945995807619108799611918415    -0.1598266272779789609952204628916333999664860908268126905589197744
0.0455603242506482859807077125514453645737460175209075203976590207    -0.1144025683439106844305777201668398659478582529185915853475938817
0.0457529654160679505190061453476045903824825682483919654428918744    -0.0687379190383771522113900529329080477800006619876611417926038057
0.0458493873872509746865639890255873727025706465189013748565966317    -0.0229287128254223497139962432541440276293666799363525177590435684
0.0458493873872509746865639890255873727025706465189013748565966317    0.0229287128254223497139962432541440276293666799363525177590435684
0.0457529654160679505190061453476045903824825682483919654428918744    0.0687379190383771522113900529329080477800006619876611417926038057
0.0455603242506482859807077125514453645737460175209075203976590207    0.1144025683439106844305777201668398659478582529185915853475938817
0.0452718690184437778694116989960012465945995807619108799611918415    0.1598266272779789609952204628916333999664860908268126905589197744
0.0448882063454266678263521311872780305162832195914515648081294139    0.2049145683419392958425297811963051365853135898191112003306763332
0.0444101430803527559093486993583644224445228374171958553077973090    0.2495715708984167345115747610939736290181675776239490011578276667
0.0438386845979560520106049582824835901832826258646817545081399449    0.2937037205806387399784231188079046378098386624317781004710236213
0.0431750326846442232258435305398237380725486031277321509111681325    0.3372182067958807627274852396680583032965900430984051759091532871
0.0424205830111424993006142311083854816042159792725021235022804413    0.3800235179076744774979641757541590089309737076250598420042586850
0.0415769221974029164845754825193796720069683411745071170475373476    0.4220296336863135791469387919354798828636698008513613409370204340
0.0406458244759540761408817271125462239695533503092187653411827650    0.4631482146229390391727719000302516808250549092963854132361591864
0.0396292479607123080254064542895236341167450846133811571423277572    0.5032927877090848726351352830304674322132423466134088266846274670
0.0385293305291067144932536329747254540849293636093458394233701808    0.5423789282910033858144905745554598683395567451755076476451415277
0.0373483853261866677160791228936108890641947994031214076063716651    0.5803244376163507401751352387804408808534692636567384089176692040
0.0360888959001798707149758249590250372882651140971031297685872967    0.6170495156998834227169471294127935405043768287929944658562923064
0.0347535109797515131667931176706359076535136053286712364859888452    0.6524769291446769642005546842103273305054226070492567513150065834
0.0333450389039806879031431278857716102440778524545075883266674207    0.6865321735660129447843561224053065324995701170206635947903940497
0.0318664417168210649393476434206596932006654703266122112185532889    0.7191436302764729926230734440214753532172574920921984562663049070
0.0303208289385539803415792836451648969831405841966331810722326653    0.7502427169029165197675782298187730545968599679661749856186352927
0.0287114510274849907108039200912680640773168090949892699690238508    0.7797640316188976587449512968870000704569118391308072880359623905
0.0270416925459039615579781182894066143716322732442337776489169815    0.8076454906897086652336262587296123357154342238732288232361013125
0.0253150650451763983239027106259933501336948776025344845043152387    0.8338284590416709458207110279386526875970404927418301120588434605
0.0235351996858763333612929821079980145855066054935099121887016579    0.8582578735826598454949622917285603874416559186303201864335474607
0.0217058396103780798014656808154624128587313914732501825427591042    0.8808823590174559176972641305774841772990188848134613401499683359
0.0198308320879554982910286705829823110192013957875078367880589835    0.9016543359201078302157092545369577634521634564387461147620936171
0.0179141204579231524894054647418151444011612645276624767811514728    0.9205301208479181664605523632027348470913135226272484808893982514
0.0159597359096138000721334043207816550441665700780762081874157486    0.9374700183128008864856205524424068370446988304041102635658599823
0.0139717891744576558159650257495670690492327445799285905067927511    0.9524384044796020493233588243703073569073073585447995554854871981
0.0119544623197694421032230573069476048253406673025999456052899785    0.9654038025821998032319549865551397687493381390413295930298866163
0.0099120012515859372091303783981081417299226213857814389742454574    0.9763389504003569569426115595670483741415716090066404405188011951
0.0078487113931771674150504608461789719759309317239112920701302080    0.9852208614402446388944953529307468372761998721884223306053856851
0.0057689699187299520214684715448281809237456109915965096340936802    0.9920308877424485746478453027873869399791176743081606630208794426
0.0036773665950117306335680820195447240980460658455842183912446488    0.9967548366766642925361734721313221733982149254745056849866820540
0.0015811402563729129390950587911008852200645270320570330791863957    0.9993838255297043471639340504596700045733905709189373927034601016
