0.0017292582513002508983395851463039377959561964124784884003918231    -0.9993260970754128772656936112421478397279364663259347185346343929
0.0040215241720037363470786599528287504846822295031968251697378911    -0.9964509480618491630557949383221307841995717861974315832094568399
0.0063079425789717545501888719038615710902793864088581261883040276    -0.9912852761768016687218211810655518138823185863870695304761889573
0.0085801482668814598936358121591981263437862117912647018866612154    -0.9838398121870349413776377814060661513865961951958403479401546643
0.0108326787895979686215140551272022609271806737221625139345616257    -0.9741315398335511690749678873908828950280166940101656478684387339
0.0130603116399948463361683429219155172188288200449441813380017872    -0.9621827547180552377119837464672351524939007856568610584209106174
0.0152579121464483103492653881446228117231372051424117173017592747    -0.9480209281684075063737697407292864429502959380401694015302742072
0.0174204219976702484953657599691980581920723835076922387488115516    -0.9316786282287493379656769873463860478290314071757084043703431702
0.0195428658367500628268374293130011968375100104779398590047827997    -0.9131934405428462617365469209829437979074735426127647734952972748
0.0216203612849340628416542746674863712505377365748340192571731840    -0.8926078805047389314232855396975003464738713573587176086382927727
0.0236481296912872366987809789939901317473315012187950327265651669    -0.8699692949264070361941319580646813269800269340324776418967873750
0.0256215069380377582140849786935481087424279799194076775568796832    -0.8453297528999302839424500407352122406458467053049935106413660964
0.0275359540884503439424997223271138376133869834039111236498924078    -0.8187459259226514534339191373257984969174709138559798126519543073
0.0293870677893106680626448592097737400720759977954941343871757233    -0.7902789574921218430473804160740254492153590395973796822944537258
0.0311705903801891424644318457766610608829695058462746303424387462    -0.7599943224419997868739827531162181813382180394837683009655484582
0.0328824196763685749840496380081423129244764973983661516166020266    -0.7279616763294246790119737292931981087940507789923763412213908283
0.0345186183985490586252212768593925134265223413516449177454701901    -0.6942546952139916335526224799476448569205159785618265002529496226
0.0360754232255652739321662705244535993695095139996198744501983222    -0.6589509061936251330409407719608062439849386461752404351449782807
0.0375492534482577098097722231982534366339924266879394096078990083    -0.6221315090854002415825995518638022891960648959992435654022016402
0.0389367192040511976166738063639470973890826959945470155612824735    -0.5838811896604873133271544624319436128436801662130117550864015427
0.0402346292730055338154463377433756980405197321226331370715344471    -0.5442879248622271385455724797475070132265317899825644494429465061
0.0414399984172402930226862992325431859767140077504297321270598353    -0.5034427804550068823410430513910384317943430207842894434694653969
0.0425500542467558027192171508026537405624256390024983973523452360    -0.4614397015691450576978341001012239292691138880484371315728733481
0.0435622435958004865322848216613986457490912680230607384535740203    -0.4183752966234090092641990107529909034477477214390287899713124314
0.0444742383950829744273235039999460242794817050739289603784527443    -0.3743486151220660120087938908430239972611947981570295273613322587
0.0452839410263002306571282405741799764070605761459167824817699726    -0.3294609198374864076452867124128784439056502400231463945352011706
0.0459894891466516969638933908178345050250393874265806839188628339    -0.2838154539022487306176554259604767137787299380718735556657965199
0.0465892599722334983022551367896927343102522359614812994419748445    -0.2375172033464168065707124273219394819921525275300630844479854581
0.0470818740104545222460068082901623670186743604178590024989026180    -0.1906726556261427697749123590660045157279784383597383588397000304
0.0474661982328855031526444587400259142208235089438786138405157065    -0.1433895546989751711312496219858614437180574131890413577720872639
0.0477413486812406215590389722265560270828579632742446701659139810    -0.0957766532091975056522185545424478102243369785399036143363602309
0.0479066925004958620313472891762263656155111752062376673456553013    -0.0479434623531718575225297542899348479423417464951980059148888726
0.0479618493944666181207076213690207500916042868989353520976990617    0.0000000000000000000000000000000000000000000000000000000000000000
0.0479066925004958620313472891762263656155111752062376673456553013    0.0479434623531718575225297542899348479423417464951980059148888726
0.0477413486812406215590389722265560270828579632742446701659139810    0.0957766532091975056522185545424478102243369785399036143363602309
0.0474661982328855031526444587400259142208235089438786138405157065    0.1433895546989751711312496219858614437180574131890413577720872639
0.0470818740104545222460068082901623670186743604178590024989026180    0.1906726556261427697749123590660045157279784383597383588397000304
0.0465892599722334983022551367896927343102522359614812994419748445    0.2375172033464168065707124273219394819921525275300630844479854581
0.0459894891466516969638933908178345050250393874265806839188628339    0.2838154539022487306176554259604767137787299380718735556657965199
0.0452839410263002306571282405741799764070605761459167824817699726    0.3294609198374864076452867124128784439056502400231463945352011706
0.0444742383950829744273235039999460242794817050739289603784527443    0.3743486151220660120087938908430239972611947981570295273613322587
0.0435622435958004865322848216613986457490912680230607384535740203    0.4183752966234090092641990107529909034477477214390287899713124314
0.0425500542467558027192171508026537405624256390024983973523452360    0.4614397015691450576978341001012239292691138880484371315728733481
0.0414399984172402930226862992325431859767140077504297321270598353    0.5034427804550068823410430513910384317943430207842894434694653969
0.0402346292730055338154463377433756980405197321226331370715344471    0.5442879248622271385455724797475070132265317899825644494429465061
0.0389367192040511976166738063639470973890826959945470155612824735    0.5838811896604873133271544624319436128436801662130117550864015427
0.0375492534482577098097722231982534366339924266879394096078990083    0.6221315090854002415825995518638022891960648959992435654022016402
0.0360754232255652739321662705244535993695095139996198744501983222    0.6589509061936251330409407719608062439849386461752404351449782807
0.0345186183985490586252212768593925134265223413516449177454701901    0.6942546952139916335526224799476448569205159785618265002529496226
0.0328824196763685749840496380081423129244764973983661516166020266    0.7279616763294246790119737292931981087940507789923763412213908283
0.0311705903801891424644318457766610608829695058462746303424387462    0.7599943224419997868739827531162181813382180394837683009655484582
0.0293870677893106680626448592097737400720759977954941343871757233    0.7902789574921218430473804160740254492153590395973796822944537258
0.0275359540884503439424997223271138376133869834039111236498924078    0.8187459259226514534339191373257984969174709138559798126519543073
0.0256215069380377582140849786935481087424279799194076775568796832    0.8453297528999302839424500407352122406458467053049935106413660964
0.0236481296912872366987809789939901317473315012187950327265651669    0.8699692949264070361941319580646813269800269340324776418967873750
0.0216203612849340628416542746674863712505377365748340192571731840    0.8926078805047389314232855396975003464738713573587176086382927727
0.0195428658367500628268374293130011968375100104779398590047827997    0.9131934405428462617365469209829437979074735426127647734952972748
0.0174204219976702484953657599691980581920723835076922387488115516    0.9316786282287493379656769873463860478290314071757084043703431702
0.0152579121464483103492653881446228117231372051424117173017592747    0.9480209281684075063737697407292864429502959380401694015302742072
0.0130603116399948463361683429219155172188288200449441813380017872    0.9621827547180552377119837464672351524939007856568610584209106174
0.0108326787895979686215140551272022609271806737221625139345616257    0.9741315398335511690749678873908828950280166940101656478684387339
0.0085801482668814598936358121591981263437862117912647018866612154    0.9838398121870349413776377814060661513865961951958403479401546643
0.0063079425789717545501888719038615710902793864088581261883040276    0.9912852761768016687218211810655518138823185863870695304761889573
0.0040215241720037363470786599528287504846822295031968251697378911    0.9964509480618491630557949383221307841995717861974315832094568399
0.0017292582513002508983395851463039377959561964124784884003918231    0.9993260970754128772656936112421478397279364663259347185346343929
