0.0013015917173758559938982255824572663991178009414457668396676693    -0.9994927755360354564834671943563161102502998843127922092641473943
0.0030276710146060412912264457881623009496109612118035751929064698    -0.9973284289622318033090657567439105510400372028270694979514378021
0.0047510691850152739658987564751546629949502100501202474296954872    -0.9934385365788927043770471978457726219190366844068069045159463488
0.0064664649070375384019631920735973278715801609999022245678580113    -0.9878289667675245201412666800750419500740245893911405050627982837
0.0081707107073278264037178591781228320862815290744218022719784954    -0.9805093245974166057716931237352091416449035710892407575269369972
0.0098608249161140183920517498356407668649251072952414269776934560    -0.9714922563430638233638137974676820143997631305103180739071012790
0.0115338733283044959668136761875654321749764893671666173146776998    -0.9607933637418923141554480006128022462340132189797259778663748199
0.0131869567628248021196138741970230798826480546085587221626986419    -0.9484311650792873779219198472468264077400845989117143610172706082
0.0148172122898144685201377355490909003132007799096593654270446334    -0.9344270599641071568361941262537320911824740091767601079999300686
0.0164218171190246400435993060787563812924198653461852286803845054    -0.9188052912283939912712394952934911880807923078362481895620582243
0.0179979931256450506379456744808312063867744950782332420501355328    -0.9015929025484463340939642719361352672810533036782708128912769276
0.0195430115201278893795709202535551253664684719193498235720989078    -0.8828196914478955421600923135435974138774005619736057144290220908
0.0210541975122828422364459426083950109173227209820531465768053093    -0.8625181576268834254612623459233625433682515607944043415692177871
0.0225289349138657764505463799825644212065582466955436652078366643    -0.8407234466549580500970116014060357325956223939334685771277118543
0.0239646706537169591747654488788657568594592724504453844732210678    -0.8174732891035413148433952712046164397090573534925372704479277699
0.0253589191902163790942084395913309005649909296811950754127611303    -0.7928079352135635103604139456796317675685871894337446824021475809
0.0267092668101208517723540830687150451602806036014552768536115289    -0.7667700852066419255240947541836365571417975324978881926854233133
0.0280133758047805408252590145381061515424984291990562213864994436    -0.7394048153580325264965135667773608527718646120642622586827692617
0.0292689885157259868050334064839846517273007774191742749449730945    -0.7107594999580411267695593342732213744191043007727111377992677272
0.0304739312422145392031376219417682480912126114406649661647873267    -0.6808837292962695980443839055027292177118846800383813420621841823
0.0316261180037496480560323918093918443179643692993972206991151232    -0.6498292238102622325868869347951525478030589349795274096138624532
0.0327235541509342205215227573099681071248552393668633260678034838    -0.6176497445469259644501858775927887168185075330863684542659568463
0.0337643398183340926469556870403621133490603823942585080348229932    -0.5844010000915778803196073113433951102994747971869505640637190263
0.0347466732133304065350985386972094986139297674743678934751809121    -0.5501405501256455515030149363430695260969976438421642963162853090
0.0356688537352404530891183804034152185241630213005093418696934780    -0.5149277057799166405279919523843497159584348689211152746095468794
0.0365292849192903390068510972435417114282413514745814937984973910    -0.4788234269558031570158090759895771642713057385479068267817726853
0.0373264772003320901673063926148265517703921580627572872024654638    -0.4418902167923482665373354638810969479329429092497515800478697228
0.0380590504915136031356309000378778899904279353230027304681597698    -0.4041920134616536131908068733286190795531355558443505442355638444
0.0387257365734325758414664510051756044277536839543275573349986180    -0.3657940794800359253260180209033826153107230428198312889413484681
0.0393253812896351625207674689825894830318875007047774178427416425    -0.3267628887265263023583999747602306151713542650878828479455857820
0.0398569465446563525759653048401945061360171185845347110378772953    -0.2871660113642972469427016651500816388204954311033553812241780244
0.0403195121011415775581743683739268890630315564349289429713509524    -0.2470719968642347569042400393984801092809540887293706318397059096
0.0407122771729373302987578206085518610440029276026361863601673995    -0.2065502553331596071144744535899052773853328268137549475347596479
0.0410345618113921066762225173102152957064302900935560964731474478    -0.1656709373521378183859495207779857962078331561317736080100062478
0.0412858080824671890834608725306558644185120174105371047717060501    -0.1245048125329002616250844917393688828017501681505986505157940443
0.0414655810326190921352483356626358588953980123264186187036786096    -0.0831231470026109916974970876587727894186338192139608898797666037
0.0415735694417812787829994222333801606617393377174670969334161235    -0.0415975800290794559748913312280015553347223653530659894756640889
0.0416095863621414093804670810447881456872316264068048248956843414    0.0000000000000000000000000000000000000000000000000000000000000000
0.0415735694417812787829994222333801606617393377174670969334161235    0.0415975800290794559748913312280015553347223653530659894756640889
0.0414655810326190921352483356626358588953980123264186187036786096    0.0831231470026109916974970876587727894186338192139608898797666037
0.0412858080824671890834608725306558644185120174105371047717060501    0.1245048125329002616250844917393688828017501681505986505157940443
0.0410345618113921066762225173102152957064302900935560964731474478    0.1656709373521378183859495207779857962078331561317736080100062478
0.0407122771729373302987578206085518610440029276026361863601673995    0.2065502553331596071144744535899052773853328268137549475347596479
0.0403195121011415775581743683739268890630315564349289429713509524    0.2470719968642347569042400393984801092809540887293706318397059096
0.0398569465446563525759653048401945061360171185845347110378772953    0.2871660113642972469427016651500816388204954311033553812241780244
0.0393253812896351625207674689825894830318875007047774178427416425    0.3267628887265263023583999747602306151713542650878828479455857820
0.0387257365734325758414664510051756044277536839543275573349986180    0.3657940794800359253260180209033826153107230428198312889413484681
0.0380590504915136031356309000378778899904279353230027304681597698    0.4041920134616536131908068733286190795531355558443505442355638444
0.0373264772003320901673063926148265517703921580627572872024654638    0.4418902167923482665373354638810969479329429092497515800478697228
0.0365292849192903390068510972435417114282413514745814937984973910    0.4788234269558031570158090759895771642713057385479068267817726853
0.0356688537352404530891183804034152185241630213005093418696934780    0.5149277057799166405279919523843497159584348689211152746095468794
0.0347466732133304065350985386972094986139297674743678934751809121    0.5501405501256455515030149363430695260969976438421642963162853090
0.0337643398183340926469556870403621133490603823942585080348229932    0.5844010000915778803196073113433951102994747971869505640637190263
0.0327235541509342205215227573099681071248552393668633260678034838    0.6176497445469259644501858775927887168185075330863684542659568463
0.0316261180037496480560323918093918443179643692993972206991151232    0.6498292238102622325868869347951525478030589349795274096138624532
0.0304739312422145392031376219417682480912126114406649661647873267    0.6808837292962695980443839055027292177118846800383813420621841823
0.0292689885157259868050334064839846517273007774191742749449730945    0.7107594999580411267695593342732213744191043007727111377992677272
0.0280133758047805408252590145381061515424984291990562213864994436    0.7394048153580325264965135667773608527718646120642622586827692617
0.0267092668101208517723540830687150451602806036014552768536115289    0.7667700852066419255240947541836365571417975324978881926854233133
0.0253589191902163790942084395913309005649909296811950754127611303    0.7928079352135635103604139456796317675685871894337446824021475809
0.0239646706537169591747654488788657568594592724504453844732210678    0.8174732891035413148433952712046164397090573534925372704479277699
0.0225289349138657764505463799825644212065582466955436652078366643    0.8407234466549580500970116014060357325956223939334685771277118543
0.0210541975122828422364459426083950109173227209820531465768053093    0.8625181576268834254612623459233625433682515607944043415692177871
0.0195430115201278893795709202535551253664684719193498235720989078    0.8828196914478955421600923135435974138774005619736057144290220908
0.0179979931256450506379456744808312063867744950782332420501355328    0.9015929025484463340939642719361352672810533036782708128912769276
0.0164218171190246400435993060787563812924198653461852286803845054    0.9188052912283939912712394952934911880807923078362481895620582243
0.0148172122898144685201377355490909003132007799096593654270446334    0.9344270599641071568361941262537320911824740091767601079999300686
0.0131869567628248021196138741970230798826480546085587221626986419    0.9484311650792873779219198472468264077400845989117143610172706082
0.0115338733283044959668136761875654321749764893671666173146776998    0.9607933637418923141554480006128022462340132189797259778663748199
0.0098608249161140183920517498356407668649251072952414269776934560    0.9714922563430638233638137974676820143997631305103180739071012790
0.0081707107073278264037178591781228320862815290744218022719784954    0.9805093245974166057716931237352091416449035710892407575269369972
0.0064664649070375384019631920735973278715801609999022245678580113    0.9878289667675245201412666800750419500740245893911405050627982837
0.0047510691850152739658987564751546629949502100501202474296954872    0.9934385365788927043770471978457726219190366844068069045159463488
0.0030276710146060412912264457881623009496109612118035751929064698    0.9973284289622318033090657567439105510400372028270694979514378021
0.0013015917173758559938982255824572663991178009414457668396676693    0.9994927755360354564834671943563161102502998843127922092641473943
