0.0014512673300293972684980410268601848990151958603899869880173713    -0.9994344421197369275616599471657888022987390816121519991594511225
0.0033755554967306758651266906083242197813620802801603324478618876    -0.9970213082512551300656725980112360893404744104952413013284691009
0.0052961828440258926326796210147641207611924441306653149790559546    -0.9926847848706415699418056347163609349511736020377164052521454166
0.0072068352818314933873446534219393320220367033867128765517136994    -0.9864322772682613680921418466664012357364740085136922989490444461
0.0091036264619920058513167475447216015790145221785188055730267505    -0.9782757361136017928748240715380559176849831314279225577005877958
0.0109828601542985517062745452071540889996357523324228401836747358    -0.9682308774263253456803045912416612045646069496542576465759212699
0.0128408996680878060704179526044897026106916439843936793360053322    -0.9563170810410528748847043749728837340778556335486729977688070153
0.0146741553346115292004076279800645766395630090001075663446783680    -0.9425573399222711591243956737786293906815142792433450968126469472
0.0164790872074623965505924406199875065734512534411498478903210574    -0.9269782122508714107681305087287796076717930799876520551217357144
0.0182522107046786705023293803251339520164501579491677180208234601    -0.9096097689845343594416349022848934754113747806831302133892559654
0.0199901029323501112874851437274832126170243889393099887272414990    -0.8904855353552065116739117609923178971027252809795274623869615653
0.0216894091359853679618323264623768608229872512296661272521557898    -0.8696424259563074111470882030658311374874803356633056500674989162
0.0233468491092232526317149531775968538671412579962484603308986469    -0.8471206733918739689410671918626336713511160880114404432629719493
0.0249592234943138730552756710731540736396859750712550979962320014    -0.8229637505675527523893650502986790715449582067795416084578808221
0.0265234199421579080081054540525604536793549564920877431181526269    -0.7972182867493179606394907421209772661852783512213546301277231628
0.0280364191117414906179800139320839996918541463514056200793231327    -0.7699339775410366474051653616949606615153414735699223757292020299
0.0294953004937088124649364875406447569097802345156641452399501367    -0.7411634889493768480103441067484745653915915099888644816927141964
0.0308972480450907216986058408727370881455639873679254638103541626    -0.7109623557185443709746052598091508932428347955864048244946115490
0.0322395556234435269419071602695189567507114721694962287525349848    -0.6793888741296445762845781253604441355330263596413424945957847977
0.0335196322094540308344061289364005376840632202919492547687932724    -0.6465039894707876428014034791075700304139893908744144518860217603
0.0347350069076821883753652730701090909702220483983769094952568664    -0.6123711783946823363103760906327257932501795775973558334405433547
0.0358833337156489107779684272200834485204767402135495214593463067    -0.5770563263905198104857989971829506804543951670711883346798264828
0.0369623960519820318560829177201379665071053058998415418945023790    -0.5406276006064873560049113335911784634274931421356863385822966665
0.0379701110348311562144179619185287521897181554699139225275974080    -0.5031553182682900708336053815539265405290363652765379545898159242
0.0389045335022629474924027429042462590447409289123780387251805499    -0.4647118109475978229475786272981842325115120699299054301693614322
0.0397638597668575816743370585121029626958116848066630004306279981    -0.4253712849423695558632514872189496354794699237177924484845333143
0.0405464310972468964349252219469312478596296817513301210450010331    -0.3852096780385272959897203280153012059174129263569720989640922555
0.0412507369198660242491088930370628960099233342715461117528924637    -0.3443045129294470247104674701673346582778245049442223861437449648
0.0418754177347330061895426032735603106891589097912692504410171857    -0.3027347475761913764349420691525150347506567542826992193268324292
0.0424192677396245930353393266432897004696246366738321190513388099    -0.2605806227973186620239264528924190428870096521796242250918142614
0.0428812371575804350206070863518684040449555094764061516305259054    -0.2179235073824533355343830264175909265188836040277742740525132141
0.0432604342632412665988562556163607474317498272232545569396680665    -0.1748457410285848631696875898574380207855212255803165582949837598
0.0435561271041085333711339723628755649461455076029219988168825842    -0.1314304754022660870129099215061625673496787316126122430697431741
0.0437677449134021449723098250860264318153899951801001033804728869    -0.0877615136345006823618069033864131301273190178983118112865554379
0.0438948792117885863212525666158556738556576455914075369471912008    -0.0439231485581353293322169351467208224008243615749277493495837614
0.0439372845958523657582259746459289265182208715370240341433669712    0.0000000000000000000000000000000000000000000000000000000000000000
0.0438948792117885863212525666158556738556576455914075369471912008    0.0439231485581353293322169351467208224008243615749277493495837614
0.0437677449134021449723098250860264318153899951801001033804728869    0.0877615136345006823618069033864131301273190178983118112865554379
0.0435561271041085333711339723628755649461455076029219988168825842    0.1314304754022660870129099215061625673496787316126122430697431741
0.0432604342632412665988562556163607474317498272232545569396680665    0.1748457410285848631696875898574380207855212255803165582949837598
0.0428812371575804350206070863518684040449555094764061516305259054    0.2179235073824533355343830264175909265188836040277742740525132141
0.0424192677396245930353393266432897004696246366738321190513388099    0.2605806227973186620239264528924190428870096521796242250918142614
0.0418754177347330061895426032735603106891589097912692504410171857    0.3027347475761913764349420691525150347506567542826992193268324292
0.0412507369198660242491088930370628960099233342715461117528924637    0.3443045129294470247104674701673346582778245049442223861437449648
0.0405464310972468964349252219469312478596296817513301210450010331    0.3852096780385272959897203280153012059174129263569720989640922555
0.0397638597668575816743370585121029626958116848066630004306279981    0.4253712849423695558632514872189496354794699237177924484845333143
0.0389045335022629474924027429042462590447409289123780387251805499    0.4647118109475978229475786272981842325115120699299054301693614322
0.0379701110348311562144179619185287521897181554699139225275974080    0.5031553182682900708336053815539265405290363652765379545898159242
0.0369623960519820318560829177201379665071053058998415418945023790    0.5406276006064873560049113335911784634274931421356863385822966665
0.0358833337156489107779684272200834485204767402135495214593463067    0.5770563263905198104857989971829506804543951670711883346798264828
0.0347350069076821883753652730701090909702220483983769094952568664    0.6123711783946823363103760906327257932501795775973558334405433547
0.0335196322094540308344061289364005376840632202919492547687932724    0.6465039894707876428014034791075700304139893908744144518860217603
0.0322395556234435269419071602695189567507114721694962287525349848    0.6793888741296445762845781253604441355330263596413424945957847977
0.0308972480450907216986058408727370881455639873679254638103541626    0.7109623557185443709746052598091508932428347955864048244946115490
0.0294953004937088124649364875406447569097802345156641452399501367    0.7411634889493768480103441067484745653915915099888644816927141964
0.0280364191117414906179800139320839996918541463514056200793231327    0.7699339775410366474051653616949606615153414735699223757292020299
0.0265234199421579080081054540525604536793549564920877431181526269    0.7972182867493179606394907421209772661852783512213546301277231628
0.0249592234943138730552756710731540736396859750712550979962320014    0.8229637505675527523893650502986790715449582067795416084578808221
0.0233468491092232526317149531775968538671412579962484603308986469    0.8471206733918739689410671918626336713511160880114404432629719493
0.0216894091359853679618323264623768608229872512296661272521557898    0.8696424259563074111470882030658311374874803356633056500674989162
0.0199901029323501112874851437274832126170243889393099887272414990    0.8904855353552065116739117609923178971027252809795274623869615653
0.0182522107046786705023293803251339520164501579491677180208234601    0.9096097689845343594416349022848934754113747806831302133892559654
0.0164790872074623965505924406199875065734512534411498478903210574    0.9269782122508714107681305087287796076717930799876520551217357144
0.0146741553346115292004076279800645766395630090001075663446783680    0.9425573399222711591243956737786293906815142792433450968126469472
0.0128408996680878060704179526044897026106916439843936793360053322    0.9563170810410528748847043749728837340778556335486729977688070153
0.0109828601542985517062745452071540889996357523324228401836747358    0.9682308774263253456803045912416612045646069496542576465759212699
0.0091036264619920058513167475447216015790145221785188055730267505    0.9782757361136017928748240715380559176849831314279225577005877958
0.0072068352818314933873446534219393320220367033867128765517136994    0.9864322772682613680921418466664012357364740085136922989490444461
0.0052961828440258926326796210147641207611924441306653149790559546    0.9926847848706415699418056347163609349511736020377164052521454166
0.0033755554967306758651266906083242197813620802801603324478618876    0.9970213082512551300656725980112360893404744104952413013284691009
0.0014512673300293972684980410268601848990151958603899869880173713    0.9994344421197369275616599471657888022987390816121519991594511225
