0.0020268119688737584964317102098923246953116682255589499073453877    -0.9992101232274360220342295857976492663987989787113256706920228891
0.0047127299269535686408948217140772359480849701937150601152906186    -0.9958405251188381738767467133774406527748902949771391019074832413
0.0073899311633454555315169560220860608822281802062250920876044741    -0.9897878952222217173672789870160960425773931537869390408195725632
0.0100475571822879843578857643770572564996517474876773843432389793    -0.9810672017525981856185767998267700338805385792218917434963732891
0.0126781664768159601314953792695142349883383643026329456038954031    -0.9697017887650527337215440989137942725409343448682470720863275167
0.0152746185967847993067260380988253351779093841150728644823922493    -0.9557222558399961073972318458296995024800937447666142196360949061
0.0178299010142077202603962612483485676338592195833932469018398839    -0.9391662761164232494954190116097050964194034204011980315483164937
0.0203371207294572867750321474171063014620171125053439038177226807    -0.9200784761776275528566568625198968287837688760137060399232293650
0.0227895169439978198637834581929002078101673842152082582329039162    -0.8985103108100459419377893295726283301644584427470738245437340045
0.0251804776215212483795709659723612791317808329441895486144370355    -0.8745199226468983151293080999124358051591822944357820758572042278
0.0275035567499247916352231976386222476484034707541621772545669569    -0.8481719847859296324905154949943756012975287165067781969509887907
0.0297524915007889452408364846734877103324751581241072319506327932    -0.8195375261621457593685181085197235718994905189695925095750946682
0.0319212190192963289494588995367604767666972922829914209813815848    -0.7886937399322640545699447997772157352463329278792276196352758562
0.0340038927249464228349144015552587411872762235528588760120306114    -0.7557237753065856868688420666023731059289001995647077248228937826
0.0359948980510845030665786462880623385942424200210035838581158599    -0.7207165133557303994360210610135210777647739947332390431901613883
0.0378888675692434440309407942092760318100842810638063715434988903    -0.6837663273813554372229302392242971590875946043388749798790581521
0.0396806954523807994701228348117100087628035112941742186549195189    -0.6449728284894770678134478964204447171651900193466609962446551749
0.0413655512355847556131638368066588968801870085215107142486795473    -0.6044405970485103634442087763112017206504210535910598380495927629
0.0429388928359356419542312206563828069492117719649164789897974119    -0.5622789007539445391782725874859987290631882376593953995975870791
0.0443964787957871133277841640913773696638849857340142985112364592    -0.5186014000585697474178893484847213013298466762886855726908052768
0.0457343797161144866471964552909093330079349742586849544488564419    -0.4735258417617071111081630537527946380078680050998368897497057994
0.0469489888489122048470131563947015662755749025834444429243632886    -0.4271737415830783893074528535303119233534421361842320902082442055
0.0480370318199711809636666527287336536025000292469219569367643255    -0.3796700565767979771549526705218877040563744331623898660638631630
0.0489955754557568353894756868578942983575838959990902424805859818    -0.3311428482684481942523529653505527048001214963763112028954119050
0.0498220356905501810111592308937033124792155972437847697333692226    -0.2817229374232616916906948603394415983082630607953774243553423469
0.0505141845325093745982387357416536432399561627374166281440428697    -0.2315435513760293380103446313467554407435390519395857319460314140
0.0510701560698556274045491207344910353661970831136710547445083179    -0.1807399648734254172408769412618526312317721686390454927304541040
0.0514884515009809339950443971770543117339238266595808248032332291    -0.1294491353969450031464441646495757747598735243664721434154157591
0.0517679431749101875438036430288237329323469454992015640732585369    -0.0778093339495365694192855070822252875775947828977239550142187612
0.0519078776312206397328649383622696801801515955656409355994875239    -0.0259597723012477985891703854003448256603147607172752254926166408
0.0519078776312206397328649383622696801801515955656409355994875239    0.0259597723012477985891703854003448256603147607172752254926166408
0.0517679431749101875438036430288237329323469454992015640732585369    0.0778093339495365694192855070822252875775947828977239550142187612
0.0514884515009809339950443971770543117339238266595808248032332291    0.1294491353969450031464441646495757747598735243664721434154157591
0.0510701560698556274045491207344910353661970831136710547445083179    0.1807399648734254172408769412618526312317721686390454927304541040
0.0505141845325093745982387357416536432399561627374166281440428697    0.2315435513760293380103446313467554407435390519395857319460314140
0.0498220356905501810111592308937033124792155972437847697333692226    0.2817229374232616916906948603394415983082630607953774243553423469
0.0489955754557568353894756868578942983575838959990902424805859818    0.3311428482684481942523529653505527048001214963763112028954119050
0.0480370318199711809636666527287336536025000292469219569367643255    0.3796700565767979771549526705218877040563744331623898660638631630
0.0469489888489122048470131563947015662755749025834444429243632886    0.4271737415830783893074528535303119233534421361842320902082442055
0.0457343797161144866471964552909093330079349742586849544488564419    0.4735258417617071111081630537527946380078680050998368897497057994
0.0443964787957871133277841640913773696638849857340142985112364592    0.5186014000585697474178893484847213013298466762886855726908052768
0.0429388928359356419542312206563828069492117719649164789897974119    0.5622789007539445391782725874859987290631882376593953995975870791
0.0413655512355847556131638368066588968801870085215107142486795473    0.6044405970485103634442087763112017206504210535910598380495927629
0.0396806954523807994701228348117100087628035112941742186549195189    0.6449728284894770678134478964204447171651900193466609962446551749
0.0378888675692434440309407942092760318100842810638063715434988903    0.6837663273813554372229302392242971590875946043388749798790581521
0.0359948980510845030665786462880623385942424200210035838581158599    0.7207165133557303994360210610135210777647739947332390431901613883
0.0340038927249464228349144015552587411872762235528588760120306114    0.7557237753065856868688420666023731059289001995647077248228937826
0.0319212190192963289494588995367604767666972922829914209813815848    0.7886937399322640545699447997772157352463329278792276196352758562
0.0297524915007889452408364846734877103324751581241072319506327932    0.8195375261621457593685181085197235718994905189695925095750946682
0.0275035567499247916352231976386222476484034707541621772545669569    0.8481719847859296324905154949943756012975287165067781969509887907
0.0251804776215212483795709659723612791317808329441895486144370355    0.8745199226468983151293080999124358051591822944357820758572042278
0.0227895169439978198637834581929002078101673842152082582329039162    0.8985103108100459419377893295726283301644584427470738245437340045
0.0203371207294572867750321474171063014620171125053439038177226807    0.9200784761776275528566568625198968287837688760137060399232293650
0.0178299010142077202603962612483485676338592195833932469018398839    0.9391662761164232494954190116097050964194034204011980315483164937
0.0152746185967847993067260380988253351779093841150728644823922493    0.9557222558399961073972318458296995024800937447666142196360949061
0.0126781664768159601314953792695142349883383643026329456038954031    0.9697017887650527337215440989137942725409343448682470720863275167
0.0100475571822879843578857643770572564996517474876773843432389793    0.9810672017525981856185767998267700338805385792218917434963732891
0.0073899311633454555315169560220860608822281802062250920876044741    0.9897878952222217173672789870160960425773931537869390408195725632
0.0047127299269535686408948217140772359480849701937150601152906186    0.9958405251188381738767467133774406527748902949771391019074832413
0.0020268119688737584964317102098923246953116682255589499073453877    0.9992101232274360220342295857976492663987989787113256706920228891
