0.0023238553757732155011022764433958647375932099173585940305072915    -0.9990943438014655843531538250909042621760189784597563697721572585
0.0054025222460153377613112609441208728416278181841139773575855779    -0.9952312260810697472163087600989409455485384552339903745338542327
0.0084690631633078876616271123750081601760774875741269159489372704    -0.9882937155401615110899251635234862167645411432246161649574309912
0.0115098243403833821737727593244971192748559048179691435853550407    -0.9783017091402563833769905515381881312270138977502284238404763696
0.0145150892780214718077707405330129910240961984992442575901907149    -0.9652859019054901836261949760550956982175512186576634281113326525
0.0174755129114009465049593689054571502307802805768764900066082793    -0.9492864795619626356467376027949280668895635225881445221468701543
0.0203819298824025726348059836669333475071194643986120084502264243    -0.9303528802474963005472727232916008530268143059968950267406016976
0.0232253515625653169372581575767885265557220198245790044338038277    -0.9085436204206554908461072899572417795322110688095869157318461477
0.0259969870583919521918194322072723514480102520506943593733170925    -0.8839261083278275407890122858092867275059814102320892519075205066
0.0286882684738227417298858844303942726041341370468452293668623745    -0.8565764337627486354029913867668706040736741747098642806623516968
0.0312908767473104478678354777930253469778460131872277166142461207    -0.8265791321428816516721269744568503233430421759638600863972072049
0.0337967671156117612954266312254470498176070716782671451541213592    -0.7940269228938664980300083084860004776572033016832420454877692786
0.0361981938723151860358844682888862454006302346723142169208460267    -0.7590204227051289022024132944458938673648372492736494693302841666
0.0384877342592476624868255916233812793438196346814820132609956968    -0.7216678344501880835225937870475534573440485192857382543555452820
0.0406583113847445178801250227788527630755422730490527223183999177    -0.6820846126944704555015614779698363331051093674612101942127208564
0.0427032160846670865110385723624770808934709459666175748904150292    -0.6403931068070068942679385960628130789238065729478058308169970870
0.0446161276526922832134151929276237403258464384162967042256470525    -0.5967221827706633201041352171384083832205008692419443647332588531
0.0463911333730018967621901910664960342346098061005004903055756316    -0.5512068248555346187543635145763166025256625783524902433882323897
0.0480227467936002581207355056669997121440168767700242701003147882    -0.5039877183843817141952244012186381377093059493540175024412756740
0.0495059246830475789199660464308455564187188490713179959568292411    -0.4552108148784595789488315813246095599072269055039078798019631570
0.0508360826177984805601240184701986559829916379320842155137566090    -0.4050268809270912781188669626029228946553713823682907257430060531
0.0520091091517413998430522648274847216705325853129013583877678202    -0.3535910321749545209697073270332324056346787943811719764684198156
0.0530213785240107639679915586076914687273814340810240065496059296    -0.3010622538672206690530942331252343439250718461243834706968355661
0.0538697618657144857089544104066979942479245356718882474484464493    -0.2476029094343372039729665549705269728796632431427670060901902323
0.0545516368708894210617506548900901799440607237809163526321590052    -0.1933782386352752582401847230126841618161673927638012590361582725
0.0550648959017624257963045975478503253413555128006590125775142719    -0.1385558468103762420128865804384905953514905084625285514833684588
0.0554079525032451232177933918439100189095620313806630179957929487    -0.0833051868224353744402873554406624481839874141890305458910885742
0.0555797463065143958462734268351611701440666225563429590041722088    -0.0277970352872754370940611967749205218883766031467744877612491559
0.0555797463065143958462734268351611701440666225563429590041722088    0.0277970352872754370940611967749205218883766031467744877612491559
0.0554079525032451232177933918439100189095620313806630179957929487    0.0833051868224353744402873554406624481839874141890305458910885742
0.0550648959017624257963045975478503253413555128006590125775142719    0.1385558468103762420128865804384905953514905084625285514833684588
0.0545516368708894210617506548900901799440607237809163526321590052    0.1933782386352752582401847230126841618161673927638012590361582725
0.0538697618657144857089544104066979942479245356718882474484464493    0.2476029094343372039729665549705269728796632431427670060901902323
0.0530213785240107639679915586076914687273814340810240065496059296    0.3010622538672206690530942331252343439250718461243834706968355661
0.0520091091517413998430522648274847216705325853129013583877678202    0.3535910321749545209697073270332324056346787943811719764684198156
0.0508360826177984805601240184701986559829916379320842155137566090    0.4050268809270912781188669626029228946553713823682907257430060531
0.0495059246830475789199660464308455564187188490713179959568292411    0.4552108148784595789488315813246095599072269055039078798019631570
0.0480227467936002581207355056669997121440168767700242701003147882    0.5039877183843817141952244012186381377093059493540175024412756740
0.0463911333730018967621901910664960342346098061005004903055756316    0.5512068248555346187543635145763166025256625783524902433882323897
0.0446161276526922832134151929276237403258464384162967042256470525    0.5967221827706633201041352171384083832205008692419443647332588531
0.0427032160846670865110385723624770808934709459666175748904150292    0.6403931068070068942679385960628130789238065729478058308169970870
0.0406583113847445178801250227788527630755422730490527223183999177    0.6820846126944704555015614779698363331051093674612101942127208564
0.0384877342592476624868255916233812793438196346814820132609956968    0.7216678344501880835225937870475534573440485192857382543555452820
0.0361981938723151860358844682888862454006302346723142169208460267    0.7590204227051289022024132944458938673648372492736494693302841666
0.0337967671156117612954266312254470498176070716782671451541213592    0.7940269228938664980300083084860004776572033016832420454877692786
0.0312908767473104478678354777930253469778460131872277166142461207    0.8265791321428816516721269744568503233430421759638600863972072049
0.0286882684738227417298858844303942726041341370468452293668623745    0.8565764337627486354029913867668706040736741747098642806623516968
0.0259969870583919521918194322072723514480102520506943593733170925    0.8839261083278275407890122858092867275059814102320892519075205066
0.0232253515625653169372581575767885265557220198245790044338038277    0.9085436204206554908461072899572417795322110688095869157318461477
0.0203819298824025726348059836669333475071194643986120084502264243    0.9303528802474963005472727232916008530268143059968950267406016976
0.0174755129114009465049593689054571502307802805768764900066082793    0.9492864795619626356467376027949280668895635225881445221468701543
0.0145150892780214718077707405330129910240961984992442575901907149    0.9652859019054901836261949760550956982175512186576634281113326525
0.0115098243403833821737727593244971192748559048179691435853550407    0.9783017091402563833769905515381881312270138977502284238404763696
0.0084690631633078876616271123750081601760774875741269159489372704    0.9882937155401615110899251635234862167645411432246161649574309912
0.0054025222460153377613112609441208728416278181841139773575855779    0.9952312260810697472163087600989409455485384552339903745338542327
0.0023238553757732155011022764433958647375932099173585940305072915    0.9990943438014655843531538250909042621760189784597563697721572585
