0.0021677232496274499430543429249845114310354402245786183237694727    -0.9991552004073866064427370441846057610458135858727156307118186112
0.0050399816126502430850175011746224235533308794367412626183057068    -0.9955514765972909026027715261799461412769672802429748808659519140
0.0079019738499986747540167456748477595072549745114457002267469142    -0.9890790082484426364999102552754420568832053655013215053390124926
0.0107415535328787741168563619136618737235674500177416582814027214    -0.9797550146943503091078163343925980348698759456912891387548839752
0.0135502371129888121451789664017618618308308531829865016577047313    -0.9676062025029240901533007846212061949128727749944259602912784021
0.0163198742349709650521208304195708874821816105277690601527732140    -0.9526675575188690914428455100229303337055876289754912261899030119
0.0190424654618934086557876594821076039333641329342966622171180545    -0.9349821375882593484808432347662474954091474227445639435080510777
0.0217101561401462357669168094951182899226029340779503370338755977    -0.9146009285643525406865056498975218204956150954254061147170561082
0.0243152527249639525402587606257985097442911865134363058873272764    -0.8915826920220301763998828208127975464825518499410306494734976435
0.0268502431819818684759074786781449555910274646571860065769964469    -0.8659937940748074792750712325120876576942741486055610629084201203
0.0293078180441604907183940268884438100349616013719531895625243323    -0.8379080133393733163520979206216243612868673056979423938541466160
0.0316808912538093273202920396219502966872861645240879873259067179    -0.8074063279130881410489971522073952279832834240101305423558082495
0.0339626204934160107977275551845847994387837763949648005548224519    -0.7745766817496527452661400464968266656489700006272807869832170213
0.0361464268670872705407808569758552272333427912991269833931771084    -0.7395137310200422678466172348510327909706574480482035298981369635
0.0382260138458584332294590344571485400659427639863191564728220187    -0.7023185711539081134797573014582013836606858166476068889994004064
0.0401953854098677968880767508268822923579140402207077844356624418    -0.6630984453321252664330162997535656919606436243041219914868654563
0.0420488633295821259945699819172542314622665402355190603459430230    -0.6219664352630791110339840587454911202322352538492550850048577971
0.0437811035336402510390256923483360732427561176600973782616054048    -0.5790411351302250304899771171360834038201768166839603411656574812
0.0453871115148198025039805360888660491491617686449521352114825401    -0.5344463096488475863998024174252043557887632873563370841208836436
0.0468622567290263469184180780379200348509136109749744945437591308    -0.4883105372167184636155525727367854208942287208024512793435814145
0.0482022859454177484065704061098669065750307136268468625963555576    -0.4407668391868395651937030622143044141224148019081763972134664174
0.0494033355089623928665108657127013196506444226693611684176472752    -0.3919522963307531503712169412130107021850176244230042154438750589
0.0504619424799531252976598215676317780474879663625451495780418997    -0.3420076535979952612483682674839969508776728216292872890506920087
0.0513750546182857254745148206110653803029581080956232019346605287    -0.2910769143111091895330252683143033021895171008575493476889966215
0.0521400391836698189712605560600718257610216901342433443579107721    -0.2393069249661534544289485090853347877005288280353303066039951022
0.0527546905263708334296457672315231717649335929173374798139921464    -0.1868469518357613213743838814640224060615478884412170347211498982
0.0532172364465790141034809843773847932124579233045218450892887171    -0.1338482505954668570223768478745409119529575242705604195710799448
0.0535263433040582521006108138861701805419674894903239215017231698    -0.0804636302141427293098477923805031948893348968318648099211817751
0.0536811198633348488639059553057246129006819920023619436266546277    -0.0268470123659423558033386895173799858434211766318936099778288246
0.0536811198633348488639059553057246129006819920023619436266546277    0.0268470123659423558033386895173799858434211766318936099778288246
0.0535263433040582521006108138861701805419674894903239215017231698    0.0804636302141427293098477923805031948893348968318648099211817751
0.0532172364465790141034809843773847932124579233045218450892887171    0.1338482505954668570223768478745409119529575242705604195710799448
0.0527546905263708334296457672315231717649335929173374798139921464    0.1868469518357613213743838814640224060615478884412170347211498982
0.0521400391836698189712605560600718257610216901342433443579107721    0.2393069249661534544289485090853347877005288280353303066039951022
0.0513750546182857254745148206110653803029581080956232019346605287    0.2910769143111091895330252683143033021895171008575493476889966215
0.0504619424799531252976598215676317780474879663625451495780418997    0.3420076535979952612483682674839969508776728216292872890506920087
0.0494033355089623928665108657127013196506444226693611684176472752    0.3919522963307531503712169412130107021850176244230042154438750589
0.0482022859454177484065704061098669065750307136268468625963555576    0.4407668391868395651937030622143044141224148019081763972134664174
0.0468622567290263469184180780379200348509136109749744945437591308    0.4883105372167184636155525727367854208942287208024512793435814145
0.0453871115148198025039805360888660491491617686449521352114825401    0.5344463096488475863998024174252043557887632873563370841208836436
0.0437811035336402510390256923483360732427561176600973782616054048    0.5790411351302250304899771171360834038201768166839603411656574812
0.0420488633295821259945699819172542314622665402355190603459430230    0.6219664352630791110339840587454911202322352538492550850048577971
0.0401953854098677968880767508268822923579140402207077844356624418    0.6630984453321252664330162997535656919606436243041219914868654563
0.0382260138458584332294590344571485400659427639863191564728220187    0.7023185711539081134797573014582013836606858166476068889994004064
0.0361464268670872705407808569758552272333427912991269833931771084    0.7395137310200422678466172348510327909706574480482035298981369635
0.0339626204934160107977275551845847994387837763949648005548224519    0.7745766817496527452661400464968266656489700006272807869832170213
0.0316808912538093273202920396219502966872861645240879873259067179    0.8074063279130881410489971522073952279832834240101305423558082495
0.0293078180441604907183940268884438100349616013719531895625243323    0.8379080133393733163520979206216243612868673056979423938541466160
0.0268502431819818684759074786781449555910274646571860065769964469    0.8659937940748074792750712325120876576942741486055610629084201203
0.0243152527249639525402587606257985097442911865134363058873272764    0.8915826920220301763998828208127975464825518499410306494734976435
0.0217101561401462357669168094951182899226029340779503370338755977    0.9146009285643525406865056498975218204956150954254061147170561082
0.0190424654618934086557876594821076039333641329342966622171180545    0.9349821375882593484808432347662474954091474227445639435080510777
0.0163198742349709650521208304195708874821816105277690601527732140    0.9526675575188690914428455100229303337055876289754912261899030119
0.0135502371129888121451789664017618618308308531829865016577047313    0.9676062025029240901533007846212061949128727749944259602912784021
0.0107415535328787741168563619136618737235674500177416582814027214    0.9797550146943503091078163343925980348698759456912891387548839752
0.0079019738499986747540167456748477595072549745114457002267469142    0.9890790082484426364999102552754420568832053655013215053390124926
0.0050399816126502430850175011746224235533308794367412626183057068    0.9955514765972909026027715261799461412769672802429748808659519140
0.0021677232496274499430543429249845114310354402245786183237694727    0.9991552004073866064427370441846057610458135858727156307118186112
