0.0014115163939734341357190617170904818283370319526754814583811332    -0.9994499344529626421818538176472081919430377639424984712501285359
0.0032831697746674958019005129023798835982307178186195463090362286    -0.9971028716427290784659665363522714814235624146338334068498122205
0.0051514360187908869082506347580233559285480674205050030724272989    -0.9928849510168019082281038409033805172870368120037229962782135851
0.0070102723218618632960813244556762258148751676527051699242128177    -0.9868031523758304658080733924546022360614907598366755423306277474
0.0088559960737061533839574135275297571165407934189077452450537431    -0.9788687785572337717961867299551747824086007851514447447395213069
0.0106851081653518971589583076875229766847714936235038693803601011    -0.9690966979987804259221709396442838217834342130552473147555022780
0.0124941656198737577677828913626861031193200620578123451050103598    -0.9575052475776982256642033057968505877614011374428161256519324077
0.0142797690545541932665552929582791962318361190984979714890213130    -0.9441161852725379650071809763307279193846083333376037578039515881
0.0160385649502851552181612121788727644564965177106273479579281634    -0.9289546458809180105722237991187144673916188499869384227680430576
0.0177672507892006535943597954588264178057298225784081944161088452    -0.9120490926886714699230298465138313335172654375717756654171259141
0.0194625808632942780430172314153163349592372492849823136136790966    -0.8934312635880912561958970456861104366869742977202719848261773635
0.0211213722164405535098195197003396205379003295401374243879577629    -0.8731361112987789052817081698053284837778823241625330020267582360
0.0227405105550357544559313430634583666676304752638081880163358816    -0.8512017376544378511119500008771157728500845940074852612743921144
0.0243169560644191643263471421757702704900430178805413807080210967    -0.8276693220227543146165601897352494014319532696684454765986785208
0.0258477491006558902838977225924504240575095857330458545137679677    -0.8025830439692918520270029610631697758149927360283693340457945722
0.0273300157389509344337962482431322728306805023869738341513988932    -0.7759900002999825621421966838136094188713901050347489032113214210
0.0287609731647017610951250137100377077086157995169216946544777686    -0.7479401166328323906708059945384769348405628167790374013087293580
0.0301379348953754792929827419874671064546116974500069387335574536    -0.7184860536622349613624615748623755925300123871451973922220575542
0.0314583158225618139777759354873828854194065928811390222782984062    -0.6876831082904678074914093783091646802571087291142395013842834523
0.0327196370642938467043127010832026749930397667811130842582488642    -0.6555891098112010561488969434202440438435773207166190260236866783
0.0339195306182860594971961497751678582214306666870311358686098720    -0.6222643113394681910077237945523800963656950736706459295322566740
0.0350557438072178704341384105199334562429167451607257836119399439    -0.5877712766916555992037729832863992239344311664877949635294660785
0.0361261435076379929856310579022025963150207319538662332271993220    -0.5521747629277143974002582349672450325285905741177520901753550424
0.0371287201545028994605552120215450416220907536909156309767651094    -0.5155415987760035238601586550914924377453013017908706039757825881
0.0380615915138021638343755281462191717068379173255564524645182198    -0.4779405591689404571837510404032689367685711238705570947168159683
0.0389230062161696637999629327658526413177173814985495509915530791    -0.4394422361249607320838757788210426946385104557512203794104923865
0.0397113470448349017823986387904556256702427737089405065131941971    -0.4001189062191616127027076741575393559303844859222886432294821820
0.0404251339717339700433289142563417761860988977823930798105788543    -0.3600443948914192375400737725497252798230063850597260935385310346
0.0410630269360750611019360345515061524721904929744935424235180260    -0.3192939378467121713329824647371742206467357248711968963158855867
0.0416238283601385982076078072662595872395186976252800105033254355    -0.2779440398078476069801108638547424877060616881392092367048818231
0.0421064853975864641465872817867472678825822434952531183346729522    -0.2360723308857599250578050778050580230990012493953968825078585802
0.0425100919100577200778008276555410329056044891257852413086815255    -0.1937574208370260598031329452311184010105508444758282579427688822
0.0428338901683388136668398194080342997620844571731783437481243441    -0.1510787514822100303267070959244226812574105039307805637745943114
0.0430772722749136997452503605970377500108781010189661059179632738    -0.1081164475621028148096332876922653182699488632619365977437940636
0.0432397813052226174852651411923297422637093144747681300169790475    -0.0649511663118571140746755438926418450621929868472383721632520185
0.0433211121654865370763938368993811734777155262533647246090936025    -0.0216639460354240446703263791153192207733402821607684199613444307
0.0433211121654865370763938368993811734777155262533647246090936025    0.0216639460354240446703263791153192207733402821607684199613444307
0.0432397813052226174852651411923297422637093144747681300169790475    0.0649511663118571140746755438926418450621929868472383721632520185
0.0430772722749136997452503605970377500108781010189661059179632738    0.1081164475621028148096332876922653182699488632619365977437940636
0.0428338901683388136668398194080342997620844571731783437481243441    0.1510787514822100303267070959244226812574105039307805637745943114
0.0425100919100577200778008276555410329056044891257852413086815255    0.1937574208370260598031329452311184010105508444758282579427688822
0.0421064853975864641465872817867472678825822434952531183346729522    0.2360723308857599250578050778050580230990012493953968825078585802
0.0416238283601385982076078072662595872395186976252800105033254355    0.2779440398078476069801108638547424877060616881392092367048818231
0.0410630269360750611019360345515061524721904929744935424235180260    0.3192939378467121713329824647371742206467357248711968963158855867
0.0404251339717339700433289142563417761860988977823930798105788543    0.3600443948914192375400737725497252798230063850597260935385310346
0.0397113470448349017823986387904556256702427737089405065131941971    0.4001189062191616127027076741575393559303844859222886432294821820
0.0389230062161696637999629327658526413177173814985495509915530791    0.4394422361249607320838757788210426946385104557512203794104923865
0.0380615915138021638343755281462191717068379173255564524645182198    0.4779405591689404571837510404032689367685711238705570947168159683
0.0371287201545028994605552120215450416220907536909156309767651094    0.5155415987760035238601586550914924377453013017908706039757825881
0.0361261435076379929856310579022025963150207319538662332271993220    0.5521747629277143974002582349672450325285905741177520901753550424
0.0350557438072178704341384105199334562429167451607257836119399439    0.5877712766916555992037729832863992239344311664877949635294660785
0.0339195306182860594971961497751678582214306666870311358686098720    0.6222643113394681910077237945523800963656950736706459295322566740
0.0327196370642938467043127010832026749930397667811130842582488642    0.6555891098112010561488969434202440438435773207166190260236866783
0.0314583158225618139777759354873828854194065928811390222782984062    0.6876831082904678074914093783091646802571087291142395013842834523
0.0301379348953754792929827419874671064546116974500069387335574536    0.7184860536622349613624615748623755925300123871451973922220575542
0.0287609731647017610951250137100377077086157995169216946544777686    0.7479401166328323906708059945384769348405628167790374013087293580
0.0273300157389509344337962482431322728306805023869738341513988932    0.7759900002999825621421966838136094188713901050347489032113214210
0.0258477491006558902838977225924504240575095857330458545137679677    0.8025830439692918520270029610631697758149927360283693340457945722
0.0243169560644191643263471421757702704900430178805413807080210967    0.8276693220227543146165601897352494014319532696684454765986785208
0.0227405105550357544559313430634583666676304752638081880163358816    0.8512017376544378511119500008771157728500845940074852612743921144
0.0211213722164405535098195197003396205379003295401374243879577629    0.8731361112987789052817081698053284837778823241625330020267582360
0.0194625808632942780430172314153163349592372492849823136136790966    0.8934312635880912561958970456861104366869742977202719848261773635
0.0177672507892006535943597954588264178057298225784081944161088452    0.9120490926886714699230298465138313335172654375717756654171259141
0.0160385649502851552181612121788727644564965177106273479579281634    0.9289546458809180105722237991187144673916188499869384227680430576
0.0142797690545541932665552929582791962318361190984979714890213130    0.9441161852725379650071809763307279193846083333376037578039515881
0.0124941656198737577677828913626861031193200620578123451050103598    0.9575052475776982256642033057968505877614011374428161256519324077
0.0106851081653518971589583076875229766847714936235038693803601011    0.9690966979987804259221709396442838217834342130552473147555022780
0.0088559960737061533839574135275297571165407934189077452450537431    0.9788687785572337717961867299551747824086007851514447447395213069
0.0070102723218618632960813244556762258148751676527051699242128177    0.9868031523758304658080733924546022360614907598366755423306277474
0.0051514360187908869082506347580233559285480674205050030724272989    0.9928849510168019082281038409033805172870368120037229962782135851
0.0032831697746674958019005129023798835982307178186195463090362286    0.9971028716427290784659665363522714814235624146338334068498122205
0.0014115163939734341357190617170904818283370319526754814583811332    0.9994499344529626421818538176472081919430377639424984712501285359
