0.0019614533616702826717730644619268480941492940618714977619951789    -0.9992355976313634717318622595691308628534420485030008313876371803
0.0045609240060124171845389325797427882708130433783153315119863842    -0.9959745998151202342680127607122882762868488647891317254356288676
0.0071523549917490895858339930916941755712732816670284150417031692    -0.9901167452325170509655316856999165016287567811764973134962243274
0.0097254618303561337361366717555701183268433463799220265769625705    -0.9816760112840370796851725407513194221600740620949265455770360934
0.0122732635078121046292778003595261313544926604914256754824186737    -0.9706742588331829082474084535479102725683363767575303196784557798
0.0147890658849379145461785157814882612603715285337802067999505150    -0.9571401519129840913720802874212152611044403409270235102768162919
0.0172662929876137435944332127724366211841880545205192718937836535    -0.9411089866813611474775438609777890082804747110584594221191598153
0.0196984777461011813305178302126845666657966361360438340269444610    -0.9226225813829552612575515005558454454506351612987175124405073569
0.0220792731483190440024757656281816274361721240829312286446403570    -0.9017291624740011706420400426835111646531175210872635770314962142
0.0244024671875442029153406597324675323257701985040236007585406670    -0.8784832372148810324789475138933526314595545202804179461560837647
0.0266619985241508896628107068449680195640554191241206073699761643    -0.8529454508476634455648469046741705383399532599844601323157881856
0.0288519720881834015043417755455902525435071199346938874490094308    -0.8251824281086599506642818924508475270063946599595831263382652964
0.0309666743683973948246979466124893837667092710275253843403586513    -0.7952665992823596491520488027525462648732368702058311792527264072
0.0330005882759074106327236834410044928074089398081505861517828804    -0.7632760111723121971459146684943503710445191510986214734858229688
0.0349484075165333510908519192092192782550094709415075836447750668    -0.7292941234494651096889566901355317985763710145381773488221227849
0.0368050504231548173843210428640674608759007235916177133416899149    -0.6934095908944911554991843639602317372843775685461854598996119976
0.0385656732070081727461520476296538028292229332149573981460734497    -0.6557160320950708716991857778363068870008473464416822585066415531
0.0402256825909982473676399837575115791559285285247384514246415016    -0.6163117851979217247096168593285910358956716839612327249972519287
0.0417807477908884920666755723510730075126973740835647877265967663    -0.5752996513508306186003699819449728789973319253377291345896891678
0.0432268118124960979010436458226828733502967443538131356591570277    -0.5327866265029252656384817163730716403248199109454741538627676463
0.0445601020350834882715414198310883529333563351947651630614415207    -0.4888836222622521188206985114258295975165309247249961682517708530
0.0457771400531459593713398338468247919615348145520921039671550524    -0.4437051765385316019955893010658225593823246374722383240315567464
0.0468747507508090659764294455885907359337142723543964813969308794    -0.3973691547257566091782918473685892218128728926937219201499230106
0.0478500705850956071618334275186996627134012529702368158839211128    -0.3499964422040668345334344770620938497875046174048839829924548466
0.0487005550564115260875300883147056067586983721814505762989151303    -0.3017106289630307126044865254569771252411976328700373275456263207
0.0494239853467355899399687766511164994166596566677484811314408411    -0.2526376871690534958336908633344051062275107475600592220849238182
0.0500184741081782534250516150063586254420559192366724340129831556    -0.2029056425180584992269472033430570545014390518583634334096254995
0.0504824703867974046481444651881512691728991520000886695686234450    -0.1526442402308153005295067617734774168835389766174593014231180773
0.0508147636688183432077005292234786973478423438565676647167307008    -0.1019846065622740689572084047643656419767898170557517104406897959
0.0510144870386972635437350805738520107682023754233863468132722169    -0.0510589067079743493668875006189007980701842540412565384683917415
0.0510811194407862179779210956063098528020576264040892787911989215    0.0000000000000000000000000000000000000000000000000000000000000000
0.0510144870386972635437350805738520107682023754233863468132722169    0.0510589067079743493668875006189007980701842540412565384683917415
0.0508147636688183432077005292234786973478423438565676647167307008    0.1019846065622740689572084047643656419767898170557517104406897959
0.0504824703867974046481444651881512691728991520000886695686234450    0.1526442402308153005295067617734774168835389766174593014231180773
0.0500184741081782534250516150063586254420559192366724340129831556    0.2029056425180584992269472033430570545014390518583634334096254995
0.0494239853467355899399687766511164994166596566677484811314408411    0.2526376871690534958336908633344051062275107475600592220849238182
0.0487005550564115260875300883147056067586983721814505762989151303    0.3017106289630307126044865254569771252411976328700373275456263207
0.0478500705850956071618334275186996627134012529702368158839211128    0.3499964422040668345334344770620938497875046174048839829924548466
0.0468747507508090659764294455885907359337142723543964813969308794    0.3973691547257566091782918473685892218128728926937219201499230106
0.0457771400531459593713398338468247919615348145520921039671550524    0.4437051765385316019955893010658225593823246374722383240315567464
0.0445601020350834882715414198310883529333563351947651630614415207    0.4888836222622521188206985114258295975165309247249961682517708530
0.0432268118124960979010436458226828733502967443538131356591570277    0.5327866265029252656384817163730716403248199109454741538627676463
0.0417807477908884920666755723510730075126973740835647877265967663    0.5752996513508306186003699819449728789973319253377291345896891678
0.0402256825909982473676399837575115791559285285247384514246415016    0.6163117851979217247096168593285910358956716839612327249972519287
0.0385656732070081727461520476296538028292229332149573981460734497    0.6557160320950708716991857778363068870008473464416822585066415531
0.0368050504231548173843210428640674608759007235916177133416899149    0.6934095908944911554991843639602317372843775685461854598996119976
0.0349484075165333510908519192092192782550094709415075836447750668    0.7292941234494651096889566901355317985763710145381773488221227849
0.0330005882759074106327236834410044928074089398081505861517828804    0.7632760111723121971459146684943503710445191510986214734858229688
0.0309666743683973948246979466124893837667092710275253843403586513    0.7952665992823596491520488027525462648732368702058311792527264072
0.0288519720881834015043417755455902525435071199346938874490094308    0.8251824281086599506642818924508475270063946599595831263382652964
0.0266619985241508896628107068449680195640554191241206073699761643    0.8529454508476634455648469046741705383399532599844601323157881856
0.0244024671875442029153406597324675323257701985040236007585406670    0.8784832372148810324789475138933526314595545202804179461560837647
0.0220792731483190440024757656281816274361721240829312286446403570    0.9017291624740011706420400426835111646531175210872635770314962142
0.0196984777461011813305178302126845666657966361360438340269444610    0.9226225813829552612575515005558454454506351612987175124405073569
0.0172662929876137435944332127724366211841880545205192718937836535    0.9411089866813611474775438609777890082804747110584594221191598153
0.0147890658849379145461785157814882612603715285337802067999505150    0.9571401519129840913720802874212152611044403409270235102768162919
0.0122732635078121046292778003595261313544926604914256754824186737    0.9706742588331829082474084535479102725683363767575303196784557798
0.0097254618303561337361366717555701183268433463799220265769625705    0.9816760112840370796851725407513194221600740620949265455770360934
0.0071523549917490895858339930916941755712732816670284150417031692    0.9901167452325170509655316856999165016287567811764973134962243274
0.0045609240060124171845389325797427882708130433783153315119863842    0.9959745998151202342680127607122882762868488647891317254356288676
0.0019614533616702826717730644619268480941492940618714977619951789    0.9992355976313634717318622595691308628534420485030008313876371803
