0.0027968071710898955755442168818090482242176996340115421697607131    -0.9989099908489034951689958772733856370842499218881887896686032074
0.0065003377832526002921093751985375288330949430054258387850069991    -0.9942612604367525746210848979492631282317843902790149973005832565
0.0101851912978217299392375917866067283858116360842121004211150852    -0.9859159917359029965838857075583096326521157780871969167468006812
0.0138326340064778222966884530218564159560185520765720385486874359    -0.9739033680193238672317554863941866390131065063157128667020744910
0.0174287147234010522595036464332924355683567782936189402863542162    -0.9582678486139081945577070383163237276124440185558688471203094571
0.0209599884017032105797926184015141720730404851884300960964606339    -0.9390675440029623834353678063909051441651638221501684406025652052
0.0244133005737814342731415654168982087436831704720281841474299994    -0.9163738623097802308235712942514758793660426717313756529040010644
0.0277757985941624771959956656322089163683512486485378395769676402    -0.8902712180295273032777953707367268935577997988705888313646598790
0.0310349712901600084544255029565473772961089781662175128977492546    -0.8608567111822923714734957437161113235773449255109626282062262239
0.0341786932041883362362093385947675290488258635830977047451469033    -0.8282397638230648328548184240165623642623877815863252600984460749
0.0371952689232602928429082758118710251341127103737373100261308050    -0.7925417120993812052344108783758757301573224637483677137042476176
0.0400734762854964531868091159213959112011643310287352420510592252    -0.7538953544853755257639600254524739876306373638146765145657207950
0.0428026079978800866536095142442857008371752740218520776151365206    -0.7124444575770366445805248554001456430369447902172481468161519950
0.0453725114076500687481668149884378513138299567195096435870456119    -0.6683432211753700868644604194039888759296085117733759958478816529
0.0477736262406231019999953537073536173405392804756578876773901084    -0.6217557046007232737550427454033159500543875668701628356766162069
0.0499970201500574097795488553620057855687367493859867074913135058    -0.5728552163513038365223947025901909074209431207237994570736253357
0.0520344219366970875641364474686623732154839747143822029870997938    -0.5218236693661858425140877848268180245693502458693580490981269291
0.0538782523130455614340993016969719837600599677404453316807257860    -0.4688509042860410636104572588116224688067226354300875795025623242
0.0555216520957386930167370590936241607808637054155963884130412100    -0.4141339832263038779368718097446579079239771704693945627973271932
0.0569585077202586621000777267342771648784094503250927944654563427    -0.3578764566884095097752010885196663568963839220959683340391555035
0.0581834739825921405984378776617759326678012576445445826042212449    -0.3002876063353319395302456496444203333313383805130499160171927491
0.0591919939229615437835390077491546088709300460360711794818473709    -0.2415816664477987038467331148692624237387932464724135777981937258
0.0599803157775032520900639879965171161730620955454330035703393031    -0.1819770269570775453239987011692144499239201165340033131904149697
0.0605455069347377951381252514677541627536849343772409733878280910    -0.1216954210188887669638204209631811087453032874844698443747111371
0.0608854648448563438811986142226962197280760102802736523800265029    -0.0609611001505787247341947068432054046970304642695197844329704235
0.0609989248412058801597976430983560505571218015265784498133193936    0.0000000000000000000000000000000000000000000000000000000000000000
0.0608854648448563438811986142226962197280760102802736523800265029    0.0609611001505787247341947068432054046970304642695197844329704235
0.0605455069347377951381252514677541627536849343772409733878280910    0.1216954210188887669638204209631811087453032874844698443747111371
0.0599803157775032520900639879965171161730620955454330035703393031    0.1819770269570775453239987011692144499239201165340033131904149697
0.0591919939229615437835390077491546088709300460360711794818473709    0.2415816664477987038467331148692624237387932464724135777981937258
0.0581834739825921405984378776617759326678012576445445826042212449    0.3002876063353319395302456496444203333313383805130499160171927491
0.0569585077202586621000777267342771648784094503250927944654563427    0.3578764566884095097752010885196663568963839220959683340391555035
0.0555216520957386930167370590936241607808637054155963884130412100    0.4141339832263038779368718097446579079239771704693945627973271932
0.0538782523130455614340993016969719837600599677404453316807257860    0.4688509042860410636104572588116224688067226354300875795025623242
0.0520344219366970875641364474686623732154839747143822029870997938    0.5218236693661858425140877848268180245693502458693580490981269291
0.0499970201500574097795488553620057855687367493859867074913135058    0.5728552163513038365223947025901909074209431207237994570736253357
0.0477736262406231019999953537073536173405392804756578876773901084    0.6217557046007232737550427454033159500543875668701628356766162069
0.0453725114076500687481668149884378513138299567195096435870456119    0.6683432211753700868644604194039888759296085117733759958478816529
0.0428026079978800866536095142442857008371752740218520776151365206    0.7124444575770366445805248554001456430369447902172481468161519950
0.0400734762854964531868091159213959112011643310287352420510592252    0.7538953544853755257639600254524739876306373638146765145657207950
0.0371952689232602928429082758118710251341127103737373100261308050    0.7925417120993812052344108783758757301573224637483677137042476176
0.0341786932041883362362093385947675290488258635830977047451469033    0.8282397638230648328548184240165623642623877815863252600984460749
0.0310349712901600084544255029565473772961089781662175128977492546    0.8608567111822923714734957437161113235773449255109626282062262239
0.0277757985941624771959956656322089163683512486485378395769676402    0.8902712180295273032777953707367268935577997988705888313646598790
0.0244133005737814342731415654168982087436831704720281841474299994    0.9163738623097802308235712942514758793660426717313756529040010644
0.0209599884017032105797926184015141720730404851884300960964606339    0.9390675440029623834353678063909051441651638221501684406025652052
0.0174287147234010522595036464332924355683567782936189402863542162    0.9582678486139081945577070383163237276124440185558688471203094571
0.0138326340064778222966884530218564159560185520765720385486874359    0.9739033680193238672317554863941866390131065063157128667020744910
0.0101851912978217299392375917866067283858116360842121004211150852    0.9859159917359029965838857075583096326521157780871969167468006812
0.0065003377832526002921093751985375288330949430054258387850069991    0.9942612604367525746210848979492631282317843902790149973005832565
0.0027968071710898955755442168818090482242176996340115421697607131    0.9989099908489034951689958772733856370842499218881887896686032074
