0.0010641682196665677563807524826021172960694803734613747327528905    -0.9995853048070493438126044798117048359445727998566135507720608967
0.0024757193225459397433287651096397537913940178946898418848644357    -0.9978156404034299617562662736377455244275078162548820288426929075
0.0038858594353532021920025024700414095051021472440715818344159092    -0.9946345076317803234079664788260555590370710234338384347541467582
0.0052906814458598655552384994503699749334765815760554328573577462    -0.9900457012972652227723280572255124390888310273906904256758163223
0.0066880516352436857413567529257203215397369142404412317576298305    -0.9840556295966814715370668516992307295880998730626542720659766975
0.0080759665931234522835930513436350677272231944285249301950195977    -0.9766727500728429342321878702111907412128060539657583115048122798
0.0094524550924796998882430165211686645627261972047950716155887163    -0.9679075054501287295470148518938001337685087851463046574036859280
0.0108155665580371587203612613902796011551650438676702222481710906    -0.9577722991227671059615117401530880490857724635506613468858929703
0.0121633707277986120630332637268732614214490781123748591587740454    -0.9462814750117908744422952563719803273038293463301538134429316066
0.0134939595123752349806995496246982237393842858674789814519348255    -0.9334512964018386192356797735728397786595172931335887287941459543
0.0148054494007178776808494292592399014569915134078369975064798929    -0.9192999225872079437809962191756255753825097396150717484881025281
0.0160959840119353709154380712946657750597133739817869245287559036    -0.9038473830228995080817206803594230517829229274399142105345333707
0.0173637366738246223501656114994715615224791494515541893764226027    -0.8871155489050633407405194117975882169420257253820582735046551561
0.0186069129854784728416677485982258460031268629342628470651932902    -0.8691281021787169834991160490399343322257911056326609575980254742
0.0198237533456549390493120494584803233142515206948427081095939039    -0.8499105019989337973384293632778482990218159296265336515813921751
0.0210125354372699178740093449998655498545339435257680431565332575    -0.8294899486849842764017554161714706364298212830705760404597298518
0.0221715766618036226219904411517353459116347118901456440619998685    -0.8078953452145896322978648862040471756299299952433333847414269127
0.0232992365189005493701609636074738728061582189059150580011193061    -0.7851572563108158402876361636019694814039262984205475404072521242
0.0243939189271585574974342076865916368960913548181968758048158957    -0.7613078651784587407192552838265841595777847125484785508521409358
0.0254540744824894967508181690470537561832735747423484126438794536    -0.7363809279505642674073823174242840034063347991953145929509476560
0.0264782026506737624851086121390072963657180150296493888232588616    -0.7104117259092174644804576491459988645873178558789303803797199995
0.0274648538909032612389280346271643288245565870505677808727561103    -0.6834370155480217802558407895653245480630124866484641728696235688
0.0284126317072476415637507397322082140234465215396688163176377102    -0.6554949765468237174830863365685174712162272112229362268700506461
0.0293201946251045279180413927763185390705130913618218371717052509    -0.6266251577322393584949229322067616119501850511579957717639369352
0.0301862580898144170541017419359576646588328050945917230188909534    -0.5968684211004183123918305767892608876953604863249077003463785343
0.0310095962847391948430670456171858902683955377946720731088499156    -0.5662668839812408030076838515989429519319530288520081966755196814
0.0317890438662221506435487555603910051844412479270258453271298447    -0.5348638594257853105802428475268975754829668810182135227021129138
0.0325234976129680659912911552479751944348198010398745613751518322    -0.5027037949014261320211111935208378394418649769298696336843482982
0.0332119179875050151811732516261181956258775584191181951505400497    -0.4698322093813203287174502070749536981126676499072628618177026820
0.0338533306075151986993099423119281179416331719096995833463785739    -0.4362956289173192754854974723101879256313291928342455640469143197
0.0344468276249505168325219137675345409215114773437427278485419165    -0.4021415207874887355640288358041128419757656840332205952526658471
0.0349915690109796547315246152933513772543692288197404611843741360    -0.3674182263114403674015928043941608843903337736909309741460761113
0.0354867837449471026458432432420452134915369451606852842520628946    -0.3321748924285641823151619957358827188252072015882480658010003137
0.0359317709056606473473307456940882442742492014110550478051841795    -0.2964614021360031911107132606879419435044756859709018966993719387
0.0363259006634622888998958092482453775670724758971489873154113429    -0.2603283038848259179124957824853823838560827935532165944097354327
0.0366686151716780900439006442072459261395191222386436387036489012    -0.2238267400343273991931918726081881686937875221485022458356592436
0.0369594293561849710797579864020557181008981814051101236876497024    -0.1870083744657226807895533687934133143510817042438318741618830531
0.0371979316019767305440012707401922465074625132540635312432259140    -0.1499253194576868177961090617781427024209390862588072315813460785
0.0373837843357574044109175955963427815227573719687044886002869934    -0.1126300619272403078079784651437605076175527447927029548240113017
0.0375167245037372727150576433374922347692567213708364901080774400    -0.0751753891403772823268138564887436404969647277075448179108218969
0.0375965639439551775919693443091918821201300799110273379264504575    -0.0376143139975843826675787046693321052168803287691042024964956456
0.0376231896526001233257501298802560925060423577806616976429691141    0.0000000000000000000000000000000000000000000000000000000000000000
0.0375965639439551775919693443091918821201300799110273379264504575    0.0376143139975843826675787046693321052168803287691042024964956456
0.0375167245037372727150576433374922347692567213708364901080774400    0.0751753891403772823268138564887436404969647277075448179108218969
0.0373837843357574044109175955963427815227573719687044886002869934    0.1126300619272403078079784651437605076175527447927029548240113017
0.0371979316019767305440012707401922465074625132540635312432259140    0.1499253194576868177961090617781427024209390862588072315813460785
0.0369594293561849710797579864020557181008981814051101236876497024    0.1870083744657226807895533687934133143510817042438318741618830531
0.0366686151716780900439006442072459261395191222386436387036489012    0.2238267400343273991931918726081881686937875221485022458356592436
0.0363259006634622888998958092482453775670724758971489873154113429    0.2603283038848259179124957824853823838560827935532165944097354327
0.0359317709056606473473307456940882442742492014110550478051841795    0.2964614021360031911107132606879419435044756859709018966993719387
0.0354867837449471026458432432420452134915369451606852842520628946    0.3321748924285641823151619957358827188252072015882480658010003137
0.0349915690109796547315246152933513772543692288197404611843741360    0.3674182263114403674015928043941608843903337736909309741460761113
0.0344468276249505168325219137675345409215114773437427278485419165    0.4021415207874887355640288358041128419757656840332205952526658471
0.0338533306075151986993099423119281179416331719096995833463785739    0.4362956289173192754854974723101879256313291928342455640469143197
0.0332119179875050151811732516261181956258775584191181951505400497    0.4698322093813203287174502070749536981126676499072628618177026820
0.0325234976129680659912911552479751944348198010398745613751518322    0.5027037949014261320211111935208378394418649769298696336843482982
0.0317890438662221506435487555603910051844412479270258453271298447    0.5348638594257853105802428475268975754829668810182135227021129138
0.0310095962847391948430670456171858902683955377946720731088499156    0.5662668839812408030076838515989429519319530288520081966755196814
0.0301862580898144170541017419359576646588328050945917230188909534    0.5968684211004183123918305767892608876953604863249077003463785343
0.0293201946251045279180413927763185390705130913618218371717052509    0.6266251577322393584949229322067616119501850511579957717639369352
0.0284126317072476415637507397322082140234465215396688163176377102    0.6554949765468237174830863365685174712162272112229362268700506461
0.0274648538909032612389280346271643288245565870505677808727561103    0.6834370155480217802558407895653245480630124866484641728696235688
0.0264782026506737624851086121390072963657180150296493888232588616    0.7104117259092174644804576491459988645873178558789303803797199995
0.0254540744824894967508181690470537561832735747423484126438794536    0.7363809279505642674073823174242840034063347991953145929509476560
0.0243939189271585574974342076865916368960913548181968758048158957    0.7613078651784587407192552838265841595777847125484785508521409358
0.0232992365189005493701609636074738728061582189059150580011193061    0.7851572563108158402876361636019694814039262984205475404072521242
0.0221715766618036226219904411517353459116347118901456440619998685    0.8078953452145896322978648862040471756299299952433333847414269127
0.0210125354372699178740093449998655498545339435257680431565332575    0.8294899486849842764017554161714706364298212830705760404597298518
0.0198237533456549390493120494584803233142515206948427081095939039    0.8499105019989337973384293632778482990218159296265336515813921751
0.0186069129854784728416677485982258460031268629342628470651932902    0.8691281021787169834991160490399343322257911056326609575980254742
0.0173637366738246223501656114994715615224791494515541893764226027    0.8871155489050633407405194117975882169420257253820582735046551561
0.0160959840119353709154380712946657750597133739817869245287559036    0.9038473830228995080817206803594230517829229274399142105345333707
0.0148054494007178776808494292592399014569915134078369975064798929    0.9192999225872079437809962191756255753825097396150717484881025281
0.0134939595123752349806995496246982237393842858674789814519348255    0.9334512964018386192356797735728397786595172931335887287941459543
0.0121633707277986120630332637268732614214490781123748591587740454    0.9462814750117908744422952563719803273038293463301538134429316066
0.0108155665580371587203612613902796011551650438676702222481710906    0.9577722991227671059615117401530880490857724635506613468858929703
0.0094524550924796998882430165211686645627261972047950716155887163    0.9679075054501287295470148518938001337685087851463046574036859280
0.0080759665931234522835930513436350677272231944285249301950195977    0.9766727500728429342321878702111907412128060539657583115048122798
0.0066880516352436857413567529257203215397369142404412317576298305    0.9840556295966814715370668516992307295880998730626542720659766975
0.0052906814458598655552384994503699749334765815760554328573577462    0.9900457012972652227723280572255124390888310273906904256758163223
0.0038858594353532021920025024700414095051021472440715818344159092    0.9946345076317803234079664788260555590370710234338384347541467582
0.0024757193225459397433287651096397537913940178946898418848644357    0.9978156404034299617562662736377455244275078162548820288426929075
0.0010641682196665677563807524826021172960694803734613747327528905    0.9995853048070493438126044798117048359445727998566135507720608967
