0.0011449500031869415345441719413156361186993924055759028683262411    -0.9995538226516306298800804990945671849916935576858518178163712199
0.0026635335895126816692935358316684554657445542423871485630735679    -0.9976498643982376888994942081831229853310748343965636214818840296
0.0041803131246948952367393042016813513235494973731064395220588024    -0.9942275409656882778920635036649116980888086049547120358199432636
0.0056909224514031986492691071171620184769252638346771325219679012    -0.9892913024997555310265031671366313852821517778309016145374338777
0.0071929047681173127526755708679565074765070381923653000446317640    -0.9828485727386290704182880277091164735686940588148798372075398580
0.0086839452692608584264094522040342813524060429550654097076827798    -0.9749091405857277933856452300691362762449597160363044768537015675
0.0101617660411030645208318503524069436640457818796405252940686847    -0.9654850890437992514522731556714549985029034858486113044732894914
0.0116241141207978269164667699954326348595131815029621329650900428    -0.9545907663436349054934815170210295087836468147040992005193411883
0.0130687615924013392937868258970563403104186343824144335443478939    -0.9422427613098726747522660045000017350708339662419793634840392265
0.0144935080405090761169620745834605500559568721551155130564469311    -0.9284598771724457959530459590754531337922349888395820120548030095
0.0158961835837256880449029092291785257709720926057219327268573435    -0.9132631025717576541647336561509474781114524683107747343141036046
0.0172746520562693063585842071312909998003110293040103410071757822    -0.8966755794387706831943240719673959863072997020519869851960595644
0.0186268142082990314287354141521572090084477663361644234503592945    -0.8787225676782138287037733436391244079358517766767662673926232782
0.0199506108781419989288919287151135633605010642850159306667472585    -0.8594314066631110969771921234916564928399314896146442554455629765
0.0212440261157820063887107372506131285464689242433079805083093769    -0.8388314735802552756166230439028670647936234126118077149567045256
0.0225050902463324619262215896861687390205795883718370629845184243    -0.8169541386814634703711249940122957077428412006714662493054467891
0.0237318828659301012931925246135684162923425291083218957715919110    -0.7938327175046054499486393117384543586106037507527673875981190244
0.0249225357641154911051178470032198023571024898755616955145923679    -0.7695024201350413738656160687490260839854059453352839385472760518
0.0260752357675651179029687436002692871256974758292393099513492980    -0.7440002975835972723165405279309136738086790846689182146889487042
0.0271882275004863806744187066805442598298771757001070704000844180    -0.7173651853620998802540682582938152785668305529258110990706983257
0.0282598160572768623967531979650145302942654983731397918002868897    -0.6896376443420276007712076124389352660897229454702128053375650941
0.0292883695832678476927675860195791396612074311446307951898857499    -0.6608598989861198017359671228443172348050601187155191948750267699
0.0302723217595579806612200100909011747473420675596892780757810277    -0.6310757730468719662479283872893368630890634700733391889383609884
0.0312101741881147016424428667206035518659997208202827660095478091    -0.6003306228297517431547462991640068484300550948137867416856520283
0.0321004986734877731480564902872506960895167638325936498267644385    -0.5686712681227097847254857866248271587419935736596128614573809442
0.0329419393976454013828361809019595361280270376927286176641995428    -0.5361459208971319320198572531254009049116931250791569227267452825
0.0337332149846115228166751630642387284458265038481667027997322632    -0.5028041118887849875936727503675680035649406724995981598826704174
0.0344731204517539287943642267310298320767807967429529799032924854    -0.4686966151705444770360783649358086572939560064882668023174175679
0.0351605290447475934955265923886968812291624523105134984697631924    -0.4338753708317560930623867003631819583021083043451947453365081287
0.0357943939534160546028615888161544542402361352305752707938001346    -0.3983934058819692270243796425175337571172491247135726587486976882
0.0363737499058359780439649910465228136600628217876101719456229618    -0.3623047534994873156190432863589635880171096251236133718254876943
0.0368977146382760088391509965734052192685681011318286258413003227    -0.3256643707477019146191129436273586950369847551090803967613178098
0.0373654902387304900267053770578386691648069079494273797047848138    -0.2885280548845118531091393014347138984964052890137659364210464293
0.0377763643620013974897749764263210547707019240195695147612908475    -0.2509523583922721204931588160350047973630489275637992130648353661
0.0381297113144776383442067915657362019141439239065590340528878270    -0.2129945028576661325723885386663218230947887508347737021485967058
0.0384249930069594231852124363294901384310218762709102463881019825    -0.1747122918326468125593390480112861957188107749770625795040091195
0.0386617597740764633270771102671566912609009278398644200174836220    -0.1361640228091438865592410780007170679331362496348831105290294121
0.0388396510590519689317741826687871658908802293404858542910336179    -0.0974083984415845990632784501049369020170661844367660925908476352
0.0389583959627695311986255247722608223149320115862695615984714924    -0.0585044371524206686289933218834177944253986747019143982087955396
0.0390178136563066548112804392527540483295504740296042597966888956    -0.0195113832567939976543512341074545479335513016469978151345704476
0.0390178136563066548112804392527540483295504740296042597966888956    0.0195113832567939976543512341074545479335513016469978151345704476
0.0389583959627695311986255247722608223149320115862695615984714924    0.0585044371524206686289933218834177944253986747019143982087955396
0.0388396510590519689317741826687871658908802293404858542910336179    0.0974083984415845990632784501049369020170661844367660925908476352
0.0386617597740764633270771102671566912609009278398644200174836220    0.1361640228091438865592410780007170679331362496348831105290294121
0.0384249930069594231852124363294901384310218762709102463881019825    0.1747122918326468125593390480112861957188107749770625795040091195
0.0381297113144776383442067915657362019141439239065590340528878270    0.2129945028576661325723885386663218230947887508347737021485967058
0.0377763643620013974897749764263210547707019240195695147612908475    0.2509523583922721204931588160350047973630489275637992130648353661
0.0373654902387304900267053770578386691648069079494273797047848138    0.2885280548845118531091393014347138984964052890137659364210464293
0.0368977146382760088391509965734052192685681011318286258413003227    0.3256643707477019146191129436273586950369847551090803967613178098
0.0363737499058359780439649910465228136600628217876101719456229618    0.3623047534994873156190432863589635880171096251236133718254876943
0.0357943939534160546028615888161544542402361352305752707938001346    0.3983934058819692270243796425175337571172491247135726587486976882
0.0351605290447475934955265923886968812291624523105134984697631924    0.4338753708317560930623867003631819583021083043451947453365081287
0.0344731204517539287943642267310298320767807967429529799032924854    0.4686966151705444770360783649358086572939560064882668023174175679
0.0337332149846115228166751630642387284458265038481667027997322632    0.5028041118887849875936727503675680035649406724995981598826704174
0.0329419393976454013828361809019595361280270376927286176641995428    0.5361459208971319320198572531254009049116931250791569227267452825
0.0321004986734877731480564902872506960895167638325936498267644385    0.5686712681227097847254857866248271587419935736596128614573809442
0.0312101741881147016424428667206035518659997208202827660095478091    0.6003306228297517431547462991640068484300550948137867416856520283
0.0302723217595579806612200100909011747473420675596892780757810277    0.6310757730468719662479283872893368630890634700733391889383609884
0.0292883695832678476927675860195791396612074311446307951898857499    0.6608598989861198017359671228443172348050601187155191948750267699
0.0282598160572768623967531979650145302942654983731397918002868897    0.6896376443420276007712076124389352660897229454702128053375650941
0.0271882275004863806744187066805442598298771757001070704000844180    0.7173651853620998802540682582938152785668305529258110990706983257
0.0260752357675651179029687436002692871256974758292393099513492980    0.7440002975835972723165405279309136738086790846689182146889487042
0.0249225357641154911051178470032198023571024898755616955145923679    0.7695024201350413738656160687490260839854059453352839385472760518
0.0237318828659301012931925246135684162923425291083218957715919110    0.7938327175046054499486393117384543586106037507527673875981190244
0.0225050902463324619262215896861687390205795883718370629845184243    0.8169541386814634703711249940122957077428412006714662493054467891
0.0212440261157820063887107372506131285464689242433079805083093769    0.8388314735802552756166230439028670647936234126118077149567045256
0.0199506108781419989288919287151135633605010642850159306667472585    0.8594314066631110969771921234916564928399314896146442554455629765
0.0186268142082990314287354141521572090084477663361644234503592945    0.8787225676782138287037733436391244079358517766767662673926232782
0.0172746520562693063585842071312909998003110293040103410071757822    0.8966755794387706831943240719673959863072997020519869851960595644
0.0158961835837256880449029092291785257709720926057219327268573435    0.9132631025717576541647336561509474781114524683107747343141036046
0.0144935080405090761169620745834605500559568721551155130564469311    0.9284598771724457959530459590754531337922349888395820120548030095
0.0130687615924013392937868258970563403104186343824144335443478939    0.9422427613098726747522660045000017350708339662419793634840392265
0.0116241141207978269164667699954326348595131815029621329650900428    0.9545907663436349054934815170210295087836468147040992005193411883
0.0101617660411030645208318503524069436640457818796405252940686847    0.9654850890437992514522731556714549985029034858486113044732894914
0.0086839452692608584264094522040342813524060429550654097076827798    0.9749091405857277933856452300691362762449597160363044768537015675
0.0071929047681173127526755708679565074765070381923653000446317640    0.9828485727386290704182880277091164735686940588148798372075398580
0.0056909224514031986492691071171620184769252638346771325219679012    0.9892913024997555310265031671366313852821517778309016145374338777
0.0041803131246948952367393042016813513235494973731064395220588024    0.9942275409656882778920635036649116980888086049547120358199432636
0.0026635335895126816692935358316684554657445542423871485630735679    0.9976498643982376888994942081831229853310748343965636214818840296
0.0011449500031869415345441719413156361186993924055759028683262411    0.9995538226516306298800804990945671849916935576858518178163712199
