0.0024083236199797888191701934891252787041696275417057055223107771    -0.9990614195648185414794318395193844231555412789294201573324016847
0.0055986322665607673540834168718598572451512952416667599970618743    -0.9950579778474118750431891165062023715941007464053922499863500604
0.0087757461070585281773896006833178381644564407606959351961719913    -0.9878689411988891985223856844734735306486015550564864299258287963
0.0119251607198486121707525531575898882926403474479889492144174227    -0.9775157355039892088592166063407302115421354627555698008876918894
0.0150364583335117882131508989019372817118222494995358175821577026    -0.9640313285931351987785366313773692226374896741641266560702952722
0.0180996145207290624079682026434122304027784945375529721322248968    -0.9474588680412107418599798476452918371751863262972407871637260855
0.0211048016680164541202093056236983344809343740619170514181726426    -0.9278514247207916968162712692325863791944992805696011839667099369
0.0240423880097256220077915729286034584992461505618308090927745505    -0.9052718007440000257819114246296243922276085884702905931355179583
0.0269029614563962706671200286537790971433766611326800207354251175    -0.8797923224198955060675909068240863952999136216257344765999722530
0.0296773577651610412212965061868853602298586405943297350743064075    -0.8514946066171544714602453209670070278164639894027324015444896470
0.0323566892261858316847055918757768657576683950311935041247953658    -0.8204692985593209124542412850347223653929674801051306062293170224
0.0349323728735898874072682268027064879742874612896627620136753705    -0.7868157811276223658976362509380413835090911462722505294885644696
0.0373961578679655452829155985824575495151034015039209909740266248    -0.7506418563480219086749876827073109179220634644622575353692353455
0.0397401518743371796094638319033998358680268513816859788079298903    -0.7120633999866378389093501921211675151726537231451735136737216342
0.0419568463177187623952073166921441225765663582207783522927342479    -0.6712039903198263957963267280060156005739272774366106069142640658
0.0440391404216065898951680856532928731346290449452904751289395371    -0.6281945122499281400906362150329754329110103090067579684242335957
0.0459803639462838381039048608720746681221111540908620405019382190    -0.5831727380260321029743048155876864862218611362547856739050821800
0.0477742985512006955500367147160559256338183071442882367978224811    -0.5362828859083432967205995728435975535382756088387439150145907602
0.0494151977115517394807585390160392756818815553283152874441056329    -0.4876751581874740972082636735393556115075540195693488642462518354
0.0508978051244939792247752742880834388216855409146710737766929447    -0.4375052600371745918084810242974665842425162892205925446585941701
0.0522173715456320845643935632812950099667420858053508794803154927    -0.3859339007409794297558485439125899754504070865157430556710266722
0.0533696700016054727235705156360978537270000631466828583536402175    -0.3331262788900238851894714902329619630473982619227128744361999113
0.0543510093299111020703221181537721488058133091086900951281147575    -0.2792515532008065385498624511756710255581859462829726346075454401
0.0551582460025086875966511395606667214325306373972057271087192880    -0.2244823006478454834001890624029264544081170047089520603376641925
0.0557887941952840871029360071099197146724675353885833223564795450    -0.1689939636468732082828424935117022293458935295738761107649758389
0.0562406340710843680282790880901978272760612597138630146735162085    -0.1129642880593292665884379238887121840120388930093330071488275343
0.0565123182497720014006583676351890541396881831582519156240435958    -0.0565727538183367763273376108931084341626757424523121836631944679
0.0566029764445604254401057619812440040389691501015994588949743954    0.0000000000000000000000000000000000000000000000000000000000000000
0.0565123182497720014006583676351890541396881831582519156240435958    0.0565727538183367763273376108931084341626757424523121836631944679
0.0562406340710843680282790880901978272760612597138630146735162085    0.1129642880593292665884379238887121840120388930093330071488275343
0.0557887941952840871029360071099197146724675353885833223564795450    0.1689939636468732082828424935117022293458935295738761107649758389
0.0551582460025086875966511395606667214325306373972057271087192880    0.2244823006478454834001890624029264544081170047089520603376641925
0.0543510093299111020703221181537721488058133091086900951281147575    0.2792515532008065385498624511756710255581859462829726346075454401
0.0533696700016054727235705156360978537270000631466828583536402175    0.3331262788900238851894714902329619630473982619227128744361999113
0.0522173715456320845643935632812950099667420858053508794803154927    0.3859339007409794297558485439125899754504070865157430556710266722
0.0508978051244939792247752742880834388216855409146710737766929447    0.4375052600371745918084810242974665842425162892205925446585941701
0.0494151977115517394807585390160392756818815553283152874441056329    0.4876751581874740972082636735393556115075540195693488642462518354
0.0477742985512006955500367147160559256338183071442882367978224811    0.5362828859083432967205995728435975535382756088387439150145907602
0.0459803639462838381039048608720746681221111540908620405019382190    0.5831727380260321029743048155876864862218611362547856739050821800
0.0440391404216065898951680856532928731346290449452904751289395371    0.6281945122499281400906362150329754329110103090067579684242335957
0.0419568463177187623952073166921441225765663582207783522927342479    0.6712039903198263957963267280060156005739272774366106069142640658
0.0397401518743371796094638319033998358680268513816859788079298903    0.7120633999866378389093501921211675151726537231451735136737216342
0.0373961578679655452829155985824575495151034015039209909740266248    0.7506418563480219086749876827073109179220634644622575353692353455
0.0349323728735898874072682268027064879742874612896627620136753705    0.7868157811276223658976362509380413835090911462722505294885644696
0.0323566892261858316847055918757768657576683950311935041247953658    0.8204692985593209124542412850347223653929674801051306062293170224
0.0296773577651610412212965061868853602298586405943297350743064075    0.8514946066171544714602453209670070278164639894027324015444896470
0.0269029614563962706671200286537790971433766611326800207354251175    0.8797923224198955060675909068240863952999136216257344765999722530
0.0240423880097256220077915729286034584992461505618308090927745505    0.9052718007440000257819114246296243922276085884702905931355179583
0.0211048016680164541202093056236983344809343740619170514181726426    0.9278514247207916968162712692325863791944992805696011839667099369
0.0180996145207290624079682026434122304027784945375529721322248968    0.9474588680412107418599798476452918371751863262972407871637260855
0.0150364583335117882131508989019372817118222494995358175821577026    0.9640313285931351987785366313773692226374896741641266560702952722
0.0119251607198486121707525531575898882926403474479889492144174227    0.9775157355039892088592166063407302115421354627555698008876918894
0.0087757461070585281773896006833178381644564407606959351961719913    0.9878689411988891985223856844734735306486015550564864299258287963
0.0055986322665607673540834168718598572451512952416667599970618743    0.9950579778474118750431891165062023715941007464053922499863500604
0.0024083236199797888191701934891252787041696275417057055223107771    0.9990614195648185414794318395193844231555412789294201573324016847
