0.0011739301299566130212022144710750942353709251247393546583523667    -0.9995425284795698443241515759569368340367559176367299094192595029
0.0027309070657548559185333900490212622404926883977551175160924674    -0.9975903943369414351768541790032819463693390486808471218733576312
0.0042859291131265312182188368322850554477434479207363240735837241    -0.9940815547855426224111549892817502537783971989538132618241312124
0.0058344598687634655892134861516754528391365176392650576456180298    -0.9890207076877843378747580375573411517491319422354727988154287569
0.0073739211313301768303911836099614663908989955571818656310949732    -0.9824156592512789300985813776239637048561682670868439987501551279
0.0089018809826524862537397928054810055821248079035331861554943471    -0.9742766995978071181788341895544941856889982466195401957257068358
0.0104159462045133825791834693103913526356653127882795743962889507    -0.9646165291148647861074495908648281485691651459843510877019829078
0.0119137502151169986995998732226717993514472939069096176048267520    -0.9534502278892691359632761544234093424842924353983612963081563744
0.0133929533448256761973089424655372914169582981233775731804257155    -0.9407952293065772503000167367836879704417281544737593390561335106
0.0148512455263500693185789509930927691994192230026040931389253174    -0.9266712918809038736645227840067980925826991321201210783123347996
0.0162863495761916820918372562137234120815802130993978354216238034    -0.9111004680345808002450061889683327807074650704359160193043486184
0.0176960246243104178646630250667509019003052097074481820708129274    -0.8941070695042351013104297879543318099166315612800578780238930511
0.0190780695589374885847839693710803110014099800768940623557329226    -0.8757176293035294766595174349813491997429043004913227093879838592
0.0204303264381408598784433795107956291858501110179558030145220778    -0.8559608602552193764732708468003011371303059827837602235085097254
0.0217506838466080797686419697945810072467302238457528335186506151    -0.8348676101377778820673133998689645734569804412864447171869878547
0.0230370801857190262769791931930972310876829213523266563064877441    -0.8124708135078067737648079074638129443828376337322872341080818350
0.0242875068887994926394222753756428831724185226099922615394337370    -0.7888054402691977655650286343813727120102121617197154620289775555
0.0255000115551287739473395075121561875909525756542420691996930166    -0.7639084410671701084583257616986975893979866940852212869545000359
0.0266727009971055565378834253756368000278665398559491219032442538    -0.7378186895912782095253216467789917655013315624624952374692923987
0.0278037441954470589444356398327402632768535300239598510346386529    -0.7105769218768241637582052198624391427971518976656421221746161867
0.0288913751576072667816365241266766508947305565124978216965086549    -0.6822256726990710592776203317600215015951949263736534964624969905
0.0299338956748383628956487333596106697905824841132115686554960508    -0.6528092091593439985248931281472479571165826098520615618898194945
0.0309296779735248352882938968193055503146604082156631677139517615    -0.6223734615665772388829097022405716521807061410586550145477281763
0.0318771672566111703605189632937317454010296156408557967263917077    -0.5909659517221399828532816119886866703163343160230746719230410909
0.0327748841311308178534215033030628899083555286945624680015523168    -0.5586357187198589066558531052923897332140261012849353655568346710
0.0336214269180309300499226835366750840468166269341614401786291095    -0.5254332423770545478962676387353549676944690878906607074197017088
0.0344154738406766008825915035919727365859856524504289744821373986    -0.4914103644161198210958608541966479251795182695959544681067527017
0.0351557850886111311282506986715428737934780854321102098944165784    -0.4566202075196891311487097342319486077977050535304079223223957167
0.0358412047533457522892069253408778732831231993053742032543162107    -0.4211170923857719287321457600263091023295799730623191420284897735
0.0364706626331534275292564856465736649122276458032780981091560197    -0.3849564529123508839222468378474712298340897749716997355287955013
0.0370431759040467841598378556217328534002113424428589387265849831    -0.3481947496438678672391373721317128246590151346904889269938439174
0.0375578506543297704779069925703500829258590571215817286077692921    -0.3108893816147364372088749572513124825717521215076413238075358473
0.0380138832803260495455175068056943762873746953251462410989793143    -0.2730985967275235437425360678887246437903754693680565607539857297
0.0384105617411041774054165937614703207167120561247804561166608685    -0.2348814008057319158772493589190737614660814976632286611378663959
0.0387472666702399670681853306601330188452642184617409951761993010    -0.1962974654631846416591939287605424062826539951571304315032464642
0.0390234723428797960265050198093407041718104317453539025564018252    -0.1574070349338616050282256133805419227545581919537393931050262750
0.0392387474965946435549188629907870602438080201467363143650577130    -0.1182708320076608811669120572335229137230939347734226653539447140
0.0393927560047430039342642021006702884708122577691127774093211913    -0.0789499632189544054480852529555278206822454799277153852181056883
0.0394852574012911647537216672689312074151418397911176918203516774    -0.0395058234359740640589947962427936947449383726853869385082732427
0.0395161072562713117091565391269263453622178807222535300891512619    0.0000000000000000000000000000000000000000000000000000000000000000
0.0394852574012911647537216672689312074151418397911176918203516774    0.0395058234359740640589947962427936947449383726853869385082732427
0.0393927560047430039342642021006702884708122577691127774093211913    0.0789499632189544054480852529555278206822454799277153852181056883
0.0392387474965946435549188629907870602438080201467363143650577130    0.1182708320076608811669120572335229137230939347734226653539447140
0.0390234723428797960265050198093407041718104317453539025564018252    0.1574070349338616050282256133805419227545581919537393931050262750
0.0387472666702399670681853306601330188452642184617409951761993010    0.1962974654631846416591939287605424062826539951571304315032464642
0.0384105617411041774054165937614703207167120561247804561166608685    0.2348814008057319158772493589190737614660814976632286611378663959
0.0380138832803260495455175068056943762873746953251462410989793143    0.2730985967275235437425360678887246437903754693680565607539857297
0.0375578506543297704779069925703500829258590571215817286077692921    0.3108893816147364372088749572513124825717521215076413238075358473
0.0370431759040467841598378556217328534002113424428589387265849831    0.3481947496438678672391373721317128246590151346904889269938439174
0.0364706626331534275292564856465736649122276458032780981091560197    0.3849564529123508839222468378474712298340897749716997355287955013
0.0358412047533457522892069253408778732831231993053742032543162107    0.4211170923857719287321457600263091023295799730623191420284897735
0.0351557850886111311282506986715428737934780854321102098944165784    0.4566202075196891311487097342319486077977050535304079223223957167
0.0344154738406766008825915035919727365859856524504289744821373986    0.4914103644161198210958608541966479251795182695959544681067527017
0.0336214269180309300499226835366750840468166269341614401786291095    0.5254332423770545478962676387353549676944690878906607074197017088
0.0327748841311308178534215033030628899083555286945624680015523168    0.5586357187198589066558531052923897332140261012849353655568346710
0.0318771672566111703605189632937317454010296156408557967263917077    0.5909659517221399828532816119886866703163343160230746719230410909
0.0309296779735248352882938968193055503146604082156631677139517615    0.6223734615665772388829097022405716521807061410586550145477281763
0.0299338956748383628956487333596106697905824841132115686554960508    0.6528092091593439985248931281472479571165826098520615618898194945
0.0288913751576072667816365241266766508947305565124978216965086549    0.6822256726990710592776203317600215015951949263736534964624969905
0.0278037441954470589444356398327402632768535300239598510346386529    0.7105769218768241637582052198624391427971518976656421221746161867
0.0266727009971055565378834253756368000278665398559491219032442538    0.7378186895912782095253216467789917655013315624624952374692923987
0.0255000115551287739473395075121561875909525756542420691996930166    0.7639084410671701084583257616986975893979866940852212869545000359
0.0242875068887994926394222753756428831724185226099922615394337370    0.7888054402691977655650286343813727120102121617197154620289775555
0.0230370801857190262769791931930972310876829213523266563064877441    0.8124708135078067737648079074638129443828376337322872341080818350
0.0217506838466080797686419697945810072467302238457528335186506151    0.8348676101377778820673133998689645734569804412864447171869878547
0.0204303264381408598784433795107956291858501110179558030145220778    0.8559608602552193764732708468003011371303059827837602235085097254
0.0190780695589374885847839693710803110014099800768940623557329226    0.8757176293035294766595174349813491997429043004913227093879838592
0.0176960246243104178646630250667509019003052097074481820708129274    0.8941070695042351013104297879543318099166315612800578780238930511
0.0162863495761916820918372562137234120815802130993978354216238034    0.9111004680345808002450061889683327807074650704359160193043486184
0.0148512455263500693185789509930927691994192230026040931389253174    0.9266712918809038736645227840067980925826991321201210783123347996
0.0133929533448256761973089424655372914169582981233775731804257155    0.9407952293065772503000167367836879704417281544737593390561335106
0.0119137502151169986995998732226717993514472939069096176048267520    0.9534502278892691359632761544234093424842924353983612963081563744
0.0104159462045133825791834693103913526356653127882795743962889507    0.9646165291148647861074495908648281485691651459843510877019829078
0.0089018809826524862537397928054810055821248079035331861554943471    0.9742766995978071181788341895544941856889982466195401957257068358
0.0073739211313301768303911836099614663908989955571818656310949732    0.9824156592512789300985813776239637048561682670868439987501551279
0.0058344598687634655892134861516754528391365176392650576456180298    0.9890207076877843378747580375573411517491319422354727988154287569
0.0042859291131265312182188368322850554477434479207363240735837241    0.9940815547855426224111549892817502537783971989538132618241312124
0.0027309070657548559185333900490212622404926883977551175160924674    0.9975903943369414351768541790032819463693390486808471218733576312
0.0011739301299566130212022144710750942353709251247393546583523667    0.9995425284795698443241515759569368340367559176367299094192595029
