0.0016283250352400128664629462218998401635333906114406592491622819    -0.9993654355529767979704163174607178486943496264939862334107880998
0.0037870083018255084459639168904917828772952495514854381995257034    -0.9966580272061137353643707436039682262930979804426102344805998745
0.0059406931775822352165133624984801209909289782157629396424080093    -0.9917933470823096094616977744586263209970864583432260609346809342
0.0080817902990231362153462846924804676737374396179203113008800548    -0.9847808477559511134425927998444731652347076507402747309222292876
0.0102054400341024409866618690046801834277869047830844078704337562    -0.9756355839229080523942544117720126103247628116592687758349074026
0.0123070038492881505219541475509542699524789727277993392908524750    -0.9643773304277126116956471499307162875842703494291766057002942042
0.0143819198272005509309773844232621123987554588768335186896537713    -0.9510304595401453732123481389808383618135263971191585611218651274
0.0164256906225308792047268102764306925185379225442126459112987290    -0.9356238732707508768666529047888678000463807783109346186667657540
0.0184338884568045738721659990305259470949373902245231805450714084    -0.9181909368127385812472472890031362575751771827427014945906591966
0.0204021633713435404492572826207279382578363097510037809418472804    -0.8987694049613203758184890068382395510900424831884890540942117422
0.0223262521964520769227973111513586620963965540514354047550606286    -0.8774013398316587204002981813703405809846442640394293418457755134
0.0242019876096731647206918230391879289771963988863499195812403797    -0.8541330195370506507907434016600101989102561010779120225742967950
0.0260253070862132388037050422861120268445740002467791202007816426    -0.8290148378533011976890739483188301357081643361089993834545603286
0.0277922616624367699871998305351297626679029611573191281023430403    -0.8021011950216944344172535645928099763271443938217186445670851526
0.0294990244709456696958472643758798840406153607805168407128085708    -0.7734503798999803275415489097683410298338545773663223449336228865
0.0311418990194728239374260083446965454035929925695974120788216217    -0.7431244437043662066959614780274697727446097033371195405425503866
0.0327173271915312054271223079525905290916410120405591830703312512    -0.7111890656100403278548359442677508696218521555965521425130095295
0.0342218969495366467398387642616566030805192812140912627950321758    -0.6777134104982808287805251571844143311012475682860934921401124026
0.0356523497227450066613326227872368893814207131612715801936183414    -0.6427699791566153542781341869262444634473142644636745754845195975
0.0370055874634925820231350271785553418555995581874485570318713121    -0.6064344512555573862002978311737441343770469870158467275760090826
0.0382786793561794806476370583362313017161917295746388486028779893    -0.5687855214414710212575716871699668980109065655557693183537597114
0.0394688681643088826428868290900495527363518245999003879130171723    -0.5299047289002360161698007756977169452528749865061343786655175675
0.0405735762017445252272515569386058131899475359724905900139377703    -0.4898762807606466260955929719402394598266481493904617298267360346
0.0415904109151992430985482641594300775145598532903499534853148152    -0.4487868697198908839951327633711181356313201333633050682789666256
0.0425171700658304914715477554095609078415358649294644783115569701    -0.4067254862860139159852993162353104476603286742455958494002965437
0.0433518464986995173591557637224285196593369011877415345136765596    -0.3637832260439541708260444671746134468343735979534265776643480637
0.0440926324897510183078315808822554874879260185392576822124736565    -0.3200530923625363310668751878221483924981504873146888889713364561
0.0447379236608898254721417672594502685273978020688793494502263982    -0.2756297949696895877155552709517325514478588379758723566311387645
0.0452863224546695315680500008761662924718834800747675451188150871    -0.2306095448321157379252298674196082112387182688496187022475748056
0.0457366411610636909368941785693893948130510878083740067950757394    -0.1850898457836401688162314474232637056185678084530465570490720711
0.0460879044897615761972173892883475749161556766904834857461364289    -0.1391692833535237135638906944085040108669546641737523482682156193
0.0463393516824156211084470486408646228418745976363828357118786302    -0.0929473112520798766317206559511767396844461371313871406479713257
0.0464904381602646282083146570531278805449690036749094777385823885    -0.0465240359760172195646391284638115499589296944167082530633454385
0.0465408367035635082499002893035095538870635495058503884467759218    0.0000000000000000000000000000000000000000000000000000000000000000
0.0464904381602646282083146570531278805449690036749094777385823885    0.0465240359760172195646391284638115499589296944167082530633454385
0.0463393516824156211084470486408646228418745976363828357118786302    0.0929473112520798766317206559511767396844461371313871406479713257
0.0460879044897615761972173892883475749161556766904834857461364289    0.1391692833535237135638906944085040108669546641737523482682156193
0.0457366411610636909368941785693893948130510878083740067950757394    0.1850898457836401688162314474232637056185678084530465570490720711
0.0452863224546695315680500008761662924718834800747675451188150871    0.2306095448321157379252298674196082112387182688496187022475748056
0.0447379236608898254721417672594502685273978020688793494502263982    0.2756297949696895877155552709517325514478588379758723566311387645
0.0440926324897510183078315808822554874879260185392576822124736565    0.3200530923625363310668751878221483924981504873146888889713364561
0.0433518464986995173591557637224285196593369011877415345136765596    0.3637832260439541708260444671746134468343735979534265776643480637
0.0425171700658304914715477554095609078415358649294644783115569701    0.4067254862860139159852993162353104476603286742455958494002965437
0.0415904109151992430985482641594300775145598532903499534853148152    0.4487868697198908839951327633711181356313201333633050682789666256
0.0405735762017445252272515569386058131899475359724905900139377703    0.4898762807606466260955929719402394598266481493904617298267360346
0.0394688681643088826428868290900495527363518245999003879130171723    0.5299047289002360161698007756977169452528749865061343786655175675
0.0382786793561794806476370583362313017161917295746388486028779893    0.5687855214414710212575716871699668980109065655557693183537597114
0.0370055874634925820231350271785553418555995581874485570318713121    0.6064344512555573862002978311737441343770469870158467275760090826
0.0356523497227450066613326227872368893814207131612715801936183414    0.6427699791566153542781341869262444634473142644636745754845195975
0.0342218969495366467398387642616566030805192812140912627950321758    0.6777134104982808287805251571844143311012475682860934921401124026
0.0327173271915312054271223079525905290916410120405591830703312512    0.7111890656100403278548359442677508696218521555965521425130095295
0.0311418990194728239374260083446965454035929925695974120788216217    0.7431244437043662066959614780274697727446097033371195405425503866
0.0294990244709456696958472643758798840406153607805168407128085708    0.7734503798999803275415489097683410298338545773663223449336228865
0.0277922616624367699871998305351297626679029611573191281023430403    0.8021011950216944344172535645928099763271443938217186445670851526
0.0260253070862132388037050422861120268445740002467791202007816426    0.8290148378533011976890739483188301357081643361089993834545603286
0.0242019876096731647206918230391879289771963988863499195812403797    0.8541330195370506507907434016600101989102561010779120225742967950
0.0223262521964520769227973111513586620963965540514354047550606286    0.8774013398316587204002981813703405809846442640394293418457755134
0.0204021633713435404492572826207279382578363097510037809418472804    0.8987694049613203758184890068382395510900424831884890540942117422
0.0184338884568045738721659990305259470949373902245231805450714084    0.9181909368127385812472472890031362575751771827427014945906591966
0.0164256906225308792047268102764306925185379225442126459112987290    0.9356238732707508768666529047888678000463807783109346186667657540
0.0143819198272005509309773844232621123987554588768335186896537713    0.9510304595401453732123481389808383618135263971191585611218651274
0.0123070038492881505219541475509542699524789727277993392908524750    0.9643773304277126116956471499307162875842703494291766057002942042
0.0102054400341024409866618690046801834277869047830844078704337562    0.9756355839229080523942544117720126103247628116592687758349074026
0.0080817902990231362153462846924804676737374396179203113008800548    0.9847808477559511134425927998444731652347076507402747309222292876
0.0059406931775822352165133624984801209909289782157629396424080093    0.9917933470823096094616977744586263209970864583432260609346809342
0.0037870083018255084459639168904917828772952495514854381995257034    0.9966580272061137353643707436039682262930979804426102344805998745
0.0016283250352400128664629462218998401635333906114406592491622819    0.9993654355529767979704163174607178486943496264939862334107880998
