0.0012040245660673532803298734514724547354741828170798494724448222    -0.9995307999924237595186899668921467555208299273331631864848405343
0.0028008688118386304116129563286264768557907662662413179441559333    -0.9975286383787243615022980400343789917612241947539428057918454483
0.0043955960394603467427381851807474639258283908256452746018098181    -0.9939299616944887431821898054238062020364768773554531593604441553
0.0059834899444404079896487378350981954023643466491495242118001659    -0.9887397320937174343845634970293377080779397005992683807476204086
0.0075618431894397188269781460128243044516714648096299783321173652    -0.9819661630995504977845178254897861164293303916544372113280183046
0.0091280992272550872769423553615880674721539844168104786473984519    -0.9736200785062364420599104635455107431909855394700223711392518506
0.0106797421574811133535159131082225703262343560138119186096869609    -0.9637148359867559015598398656381466957402393072236431017993601216
0.0122142845497898863976828362930638274824399371315921863496919912    -0.9522662946898633637172116169189541445641460060754515724516431922
0.0137292679201441483937267274710523928467454125999486963375363719    -0.9392927869149465930706471453686810905153244571035384726859406977
0.0152222656801784516933155697645156962223566814739783677260293381    -0.9248150877800637763603274781093217866961765119913850486809969375
0.0166908866893438918662123608508706621536166070325034961870165231    -0.9088563815731882582073262580510213480894250874012897179203398789
0.0181327789549823286444063678072723388604310540999213807074118205    -0.8914422244588185788085548617617235676673818452080612970522939566
0.0195456333433999233779178724489143594194536474206274686673361512    -0.8726005034727245049313918992717691369546893739457261015138071464
0.0209271872518777267853780976430459606579276268786120928240324090    -0.8523613918225577032860015940669954937848316339048649530997467745
0.0222752282191138867630504747081217233227542713015923159453706924    -0.8307573005459112727372678172283205087206581854718458901135864406
0.0235875974614574720964513735150647092999436702146966059326704863    -0.8078228265942016867686519904368057843491819576186171737029189294
0.0248621933262224507614434434368462294655676760097824622511819821    -0.7835946974211427870713177471029044679657732889051118790771895167
0.0260969746551088350298336961801127725239346660030226103057566402    -0.7581117121623153150704006655413912114120281843478314337072197420
0.0272899640516243648645642375433232592022018368621066545029224588    -0.7314146794988303974984453886945326815124335320198201103965130425
0.0284392510468975162623904961862687848225889923854473973629335685    -0.7035463523039237721205647044214714300374728286580190717817350419
0.0295429951586069464116200712056021360539832865795945261712410139    -0.6745513591767507903238943608934338786217480665360125011096201883
0.0305994288380130452894332041449159082056870491514342264440806837    -0.6444761329727928545930976813567304831674224018597487537040990262
0.0316068603003047977388827561916763920360385525158479184906290203    -0.6133688364451847767994091628032442890314661511719587612455367629
0.0325636762336890444080555599027974425902355970815539762282412850    -0.5812792851159517552215296181443557992526071184058870799004729281
0.0334683443828589779729814410384145285356292730748805032046418497    -0.5482588675006126087467692811802107250333519964808773880912993388
0.0343194160026890902902917996263079509865261160218528759796248412    -0.5143604628138640580218904365920889195414722295872592714821985719
0.0351155281782171894748800556622834607733186012713120571585855719    -0.4796383562881072396851503901646356694615792514621022108074908057
0.0358554060071916954450057267833688969142867797822130208422599773    -0.4441481522404086030672643069471876069193585171516409016048184283
0.0365378646416847006481923507563176171475984859301814003606543790    -0.4079466850270983916468490520989907237724803057633528073967370068
0.0371618111854983868506709980378933162373427217042078583088579156    -0.3710919280285962743257268629353707482223214473907548348177481927
0.0377262464443242478642901478018203747571658106140581338948204710    -0.3336429008102105607827189027297224928945206863492542061422932929
0.0382302665258509876496202526172822796352034973834222676537893491    -0.2956595746075801452229582518817252453914377534153477518822164760
0.0386730642872576740038955581269952993678524855832242994003340363    -0.2572027762881124429885231468906743801746129217589565891087809579
0.0390539306277734131473113654912042673245125096260087602683947722    -0.2183340909422119788136893067195616995455686703242843079620409226
0.0393722556242331219372202643373100269874194927341104877100696152    -0.1791157632602891515624229353736259335077338675172869009647444470
0.0396275295078105429563934932196904736263052637378435163474837932    -0.1396105978534835949092758178834556097616539498026030290848489141
0.0398193434803640892250317557792179468511576138152116445904934803    -0.0998818586777284105284946538386503503744867683360967445920716524
0.0399473903690880248793048895754534265313747690319246952649727913    -0.0599931677222176936358748999112728053633872215329386419884490683
0.0400114651184204829887785885743960059888825231489177547615212029    -0.0200084031245179229520674314415575465206882568348010672087799889
0.0400114651184204829887785885743960059888825231489177547615212029    0.0200084031245179229520674314415575465206882568348010672087799889
0.0399473903690880248793048895754534265313747690319246952649727913    0.0599931677222176936358748999112728053633872215329386419884490683
0.0398193434803640892250317557792179468511576138152116445904934803    0.0998818586777284105284946538386503503744867683360967445920716524
0.0396275295078105429563934932196904736263052637378435163474837932    0.1396105978534835949092758178834556097616539498026030290848489141
0.0393722556242331219372202643373100269874194927341104877100696152    0.1791157632602891515624229353736259335077338675172869009647444470
0.0390539306277734131473113654912042673245125096260087602683947722    0.2183340909422119788136893067195616995455686703242843079620409226
0.0386730642872576740038955581269952993678524855832242994003340363    0.2572027762881124429885231468906743801746129217589565891087809579
0.0382302665258509876496202526172822796352034973834222676537893491    0.2956595746075801452229582518817252453914377534153477518822164760
0.0377262464443242478642901478018203747571658106140581338948204710    0.3336429008102105607827189027297224928945206863492542061422932929
0.0371618111854983868506709980378933162373427217042078583088579156    0.3710919280285962743257268629353707482223214473907548348177481927
0.0365378646416847006481923507563176171475984859301814003606543790    0.4079466850270983916468490520989907237724803057633528073967370068
0.0358554060071916954450057267833688969142867797822130208422599773    0.4441481522404086030672643069471876069193585171516409016048184283
0.0351155281782171894748800556622834607733186012713120571585855719    0.4796383562881072396851503901646356694615792514621022108074908057
0.0343194160026890902902917996263079509865261160218528759796248412    0.5143604628138640580218904365920889195414722295872592714821985719
0.0334683443828589779729814410384145285356292730748805032046418497    0.5482588675006126087467692811802107250333519964808773880912993388
0.0325636762336890444080555599027974425902355970815539762282412850    0.5812792851159517552215296181443557992526071184058870799004729281
0.0316068603003047977388827561916763920360385525158479184906290203    0.6133688364451847767994091628032442890314661511719587612455367629
0.0305994288380130452894332041449159082056870491514342264440806837    0.6444761329727928545930976813567304831674224018597487537040990262
0.0295429951586069464116200712056021360539832865795945261712410139    0.6745513591767507903238943608934338786217480665360125011096201883
0.0284392510468975162623904961862687848225889923854473973629335685    0.7035463523039237721205647044214714300374728286580190717817350419
0.0272899640516243648645642375433232592022018368621066545029224588    0.7314146794988303974984453886945326815124335320198201103965130425
0.0260969746551088350298336961801127725239346660030226103057566402    0.7581117121623153150704006655413912114120281843478314337072197420
0.0248621933262224507614434434368462294655676760097824622511819821    0.7835946974211427870713177471029044679657732889051118790771895167
0.0235875974614574720964513735150647092999436702146966059326704863    0.8078228265942016867686519904368057843491819576186171737029189294
0.0222752282191138867630504747081217233227542713015923159453706924    0.8307573005459112727372678172283205087206581854718458901135864406
0.0209271872518777267853780976430459606579276268786120928240324090    0.8523613918225577032860015940669954937848316339048649530997467745
0.0195456333433999233779178724489143594194536474206274686673361512    0.8726005034727245049313918992717691369546893739457261015138071464
0.0181327789549823286444063678072723388604310540999213807074118205    0.8914422244588185788085548617617235676673818452080612970522939566
0.0166908866893438918662123608508706621536166070325034961870165231    0.9088563815731882582073262580510213480894250874012897179203398789
0.0152222656801784516933155697645156962223566814739783677260293381    0.9248150877800637763603274781093217866961765119913850486809969375
0.0137292679201441483937267274710523928467454125999486963375363719    0.9392927869149465930706471453686810905153244571035384726859406977
0.0122142845497898863976828362930638274824399371315921863496919912    0.9522662946898633637172116169189541445641460060754515724516431922
0.0106797421574811133535159131082225703262343560138119186096869609    0.9637148359867559015598398656381466957402393072236431017993601216
0.0091280992272550872769423553615880674721539844168104786473984519    0.9736200785062364420599104635455107431909855394700223711392518506
0.0075618431894397188269781460128243044516714648096299783321173652    0.9819661630995504977845178254897861164293303916544372113280183046
0.0059834899444404079896487378350981954023643466491495242118001659    0.9887397320937174343845634970293377080779397005992683807476204086
0.0043955960394603467427381851807474639258283908256452746018098181    0.9939299616944887431821898054238062020364768773554531593604441553
0.0028008688118386304116129563286264768557907662662413179441559333    0.9975286383787243615022980400343789917612241947539428057918454483
0.0012040245660673532803298734514724547354741828170798494724448222    0.9995307999924237595186899668921467555208299273331631864848405343
