0.0025916837205670318115992394385109309847629976930227696753765004    -0.9989899477763282271210542670321995225873095156517325443483174931
0.0060242762269486732812417068162998591009541520744844175589171064    -0.9946819193080070786360358934839939041828265943879751608307344316
0.0094412022849403443866621788203251432837078149140468109273373372    -0.9869470350233715217203730813105781884121995101792962578063223799
0.0128260261442403791791501829692037317681640087345531042466183427    -0.9758102337149845816329838581063620935127980035739118968508737402
0.0161667252566874639280608284040399014377347313970191804731391482    -0.9613096946231363323698581936826397470504226719721380003957063571
0.0194517211076368953880469222274969404194473647164936671079734622    -0.9434953534644418790210706676961927756818575001480156647723390519
0.0226696730570702083987892752398278094682488078051167844963820609    -0.9224286030428121282678191000825165513499425424123147074840457947
0.0258094825107575177139618881666294409037504184422655036229187737    -0.8981820578754266259255200299730811955670457390017506816825039720
0.0288603236178237362627995530435832618626692062898485273158109813    -0.8708392975582413516017000868885940898212801679811740410928678879
0.0318116784590193230632358620310809202606800700870432844461905821    -0.8404945765458013754301275098299467968999624937350981685495229614
0.0346533725835342379583877205130107135713179354305809360337412883    -0.8072524984168954782204856380259072101776325606555302259662246041
0.0373756098034829156741719727853942222098480943725185585514527689    -0.7712276549255323078660358756260397412613544136199467716488841877
0.0399690058435403821270935457878636259190084633749648654703088345    -0.7325442308075102537821355867217502315656332737606693101281699563
0.0424246206345200135922816375684503988065642079754230072684971653    -0.6913355756013667235407488231389445654154953764041839507247091409
0.0447339891036728102127656459185636061376018837171479008418565229    -0.6477437439165100687511061899386334218135600448364022416876972979
0.0468891503407503140218726395651049478658255358333036261504506156    -0.6019190057137693274642943719646236130929533657317463754439340966
0.0488826750326991404204484075835840834065845146462682928755594635    -0.5540193282770678810147349908100492872557608378243215939660714935
0.0507076910692927152964854826345305375999903733365938147407047607    -0.5042098316571334370391169728879580333954622277037747258332240287
0.0523579072298727181997015209893607044544197086972156836375538137    -0.4526622194618457913831447607533158836204795884993725607253794697
0.0538276348687310290420814416354026743128101996789120202572659400    -0.3995541869539529773925631362383975718945116567069462571885075041
0.0551118075239335990023497047658673875514124884898266220667313565    -0.3450688084957223566943106460695009148560933458329354509107836548
0.0562059983817397098086550620914449937514572251748036418121531961    -0.2893939064516262064265470065940127677960574014664502314497868663
0.0571064355362671917733833392984188413388344954246130617295875874    -0.2327214037242725936433636421999162185262093115216383290639492686
0.0578100149917131963196830760972520628600290112384758649593213847    -0.1752466621553257507297910091328952458289161499421891145300186049
0.0583143113622560075562757563376972560520799512442547356725989508    -0.1171678090719551501402568087793237679233210523444318789625895913
0.0586175862327202633180719370499889415345994806622769869303281968    -0.0586850543002594650227119458332315377355912839026442382577781804
0.0587187941511643645254869444421341262749937170978526622624477181    0.0000000000000000000000000000000000000000000000000000000000000000
0.0586175862327202633180719370499889415345994806622769869303281968    0.0586850543002594650227119458332315377355912839026442382577781804
0.0583143113622560075562757563376972560520799512442547356725989508    0.1171678090719551501402568087793237679233210523444318789625895913
0.0578100149917131963196830760972520628600290112384758649593213847    0.1752466621553257507297910091328952458289161499421891145300186049
0.0571064355362671917733833392984188413388344954246130617295875874    0.2327214037242725936433636421999162185262093115216383290639492686
0.0562059983817397098086550620914449937514572251748036418121531961    0.2893939064516262064265470065940127677960574014664502314497868663
0.0551118075239335990023497047658673875514124884898266220667313565    0.3450688084957223566943106460695009148560933458329354509107836548
0.0538276348687310290420814416354026743128101996789120202572659400    0.3995541869539529773925631362383975718945116567069462571885075041
0.0523579072298727181997015209893607044544197086972156836375538137    0.4526622194618457913831447607533158836204795884993725607253794697
0.0507076910692927152964854826345305375999903733365938147407047607    0.5042098316571334370391169728879580333954622277037747258332240287
0.0488826750326991404204484075835840834065845146462682928755594635    0.5540193282770678810147349908100492872557608378243215939660714935
0.0468891503407503140218726395651049478658255358333036261504506156    0.6019190057137693274642943719646236130929533657317463754439340966
0.0447339891036728102127656459185636061376018837171479008418565229    0.6477437439165100687511061899386334218135600448364022416876972979
0.0424246206345200135922816375684503988065642079754230072684971653    0.6913355756013667235407488231389445654154953764041839507247091409
0.0399690058435403821270935457878636259190084633749648654703088345    0.7325442308075102537821355867217502315656332737606693101281699563
0.0373756098034829156741719727853942222098480943725185585514527689    0.7712276549255323078660358756260397412613544136199467716488841877
0.0346533725835342379583877205130107135713179354305809360337412883    0.8072524984168954782204856380259072101776325606555302259662246041
0.0318116784590193230632358620310809202606800700870432844461905821    0.8404945765458013754301275098299467968999624937350981685495229614
0.0288603236178237362627995530435832618626692062898485273158109813    0.8708392975582413516017000868885940898212801679811740410928678879
0.0258094825107575177139618881666294409037504184422655036229187737    0.8981820578754266259255200299730811955670457390017506816825039720
0.0226696730570702083987892752398278094682488078051167844963820609    0.9224286030428121282678191000825165513499425424123147074840457947
0.0194517211076368953880469222274969404194473647164936671079734622    0.9434953534644418790210706676961927756818575001480156647723390519
0.0161667252566874639280608284040399014377347313970191804731391482    0.9613096946231363323698581936826397470504226719721380003957063571
0.0128260261442403791791501829692037317681640087345531042466183427    0.9758102337149845816329838581063620935127980035739118968508737402
0.0094412022849403443866621788203251432837078149140468109273373372    0.9869470350233715217203730813105781884121995101792962578063223799
0.0060242762269486732812417068162998591009541520744844175589171064    0.9946819193080070786360358934839939041828265943879751608307344316
0.0025916837205670318115992394385109309847629976930227696753765004    0.9989899477763282271210542670321995225873095156517325443483174931
