0.0009916432666203635255775823829322175405773942513442392768872153    -0.9996135688413258570173519429691898056621564316073115049175733052
0.0023070874888099029259678226741022732957951982032641192247246199    -0.9979644770352439447851982470376937179898414670339601241431070445
0.0036214392496109014375557203935929244283254219438301438552264260    -0.9949999174853378962240278296865267787306869720488917761511558143
0.0049311840969601036964215639608900658548714885682042256387817068    -0.9907231407455187052199461595757324564046189186686027020070426043
0.0062344591391401234638869459198818513621884534839803414540353237    -0.9851397067325024136111349321296922296908723106426002251620709583
0.0075295216121945626068448950478869839879557249182068016476437975    -0.9782569602536847166224817100896794145493647361044731883034178671
0.0088146571019548157037820072424015783601667081605316943057332332    -0.9700839726857401313585667856753238405567452436016278659110667107
0.0100881684603861056546730282172430413489417563873061859073656963    -0.9606315209428984486294146088916300818379335633122612721110658372
0.0113483751561777039771665897513133594372480468314072366373815401    -0.9499120708522102557120084622193688346422593266947151451888877985
0.0125936146780696978104092545424971057894429190199890995073353935    -0.9379397599098926144330431829465401969796010631660688434546511196
0.0138222444527666708666481916995773101825878752060200951619254498    -0.9247303783228619497770458638548486962129970227196434221671225354
0.0150326439050813786849451862612062385712188342586905399463907246    -0.9103013480461658302105530970155806563071556157078077239604285022
0.0162232165497290225880836076053843190641988403283081192022355556    -0.8946716997394463343790389643275687605985442182524952843913141995
0.0173923920756905423867196462384649403536089190044800483390917703    -0.8778620476333659373399156587901798401423976614907759217594160534
0.0185386284067098592063147228260076567552595435141728905078231555    -0.8598945623226849553002086896753100615014963870006059063401104332
0.0196604137295621798074019960079526988933924366884644978761607101    -0.8407929415144330516997106887266890254648957594071547566526143135
0.0207562684849091427905816947459433612234544371049016095815452998    -0.8205823787661602215370503170490064975532746854444530471076400283
0.0218247473169276278006842188158903135604484469430891030445209997    -0.7992895302536617881362527014335912018263297115878009579466169958
0.0228644409785480064457728459328347326615083224987145672926638959    -0.7769424796110233710544697127414876352708575343028354178863429723
0.0238739781894790049732174117578445359700002482780705928795720924    -0.7535707008888089034979407617061626572308793641416245339752989413
0.0248520274443998359183258284984757181605454698521834407119226661    -0.7292050196789283228987179651661863229243244967519159448085978309
0.0257972987688395354077711033170694206226818425830984696120093228    -0.7038775724572676947964273069893382235243159493322204857349500694
0.0267085454203722095753067430520971149586396158682636186948092913    -0.6776217641975885106559521375229726138338435110105240510083556042
0.0275845655328512483873842027913599447461150042856283341042497129    -0.6504722243125262328509947158978388120961385288334366546510515373
0.0284242037014934947573124312298211188320881793443512899071897753    -0.6224647609797508119132536998474042708059650061207002399857045852
0.0292263525067099445836614968452255989582412864753473201622226063    -0.5936363139134980336720874915614293535994011905352800497762508618
0.0299899539746649324913384897796552099917880914247616214976137182    -0.5640249056437413290151050216793393461259592844309376623949081074
0.0307140009726320531830400490733605485542773360163445547946239157    -0.5336695913672486833038491302385010281463106283793037209322002031
0.0313975385373028655585332241447571566398198510152229168314476778    -0.5026104074366572745019126771495499227785308983455670189645173310
0.0320396651342940161102283489694564891501812646141269415682586956    -0.4708883185554977835779452564771083966804213724079933069290758937
0.0326395338471899219560986782670532170323091040227089687102236244    -0.4385451637488090940117830986821958649078791603339183295522906365
0.0331963534945515971200903413374642017737755387426929704170100152    -0.4056236011806003961511741999218720545574574787631510159009157094
0.0337093896734175548649715361110166737414081514421014106491708016    -0.3721670518909396103241353878481478505450384878256182394086847135
0.0341779657279199046342381194826236549739805914956132281285071805    -0.3382196425268726664119642136799803116287436783684283250589199029
0.0346014636417376922599344091372423474580623290271581995254706147    -0.3038261471427057350627717031754771320866760434225786521933704424
0.0349793248532100993714131750870537665536692908007992730428976437    -0.2690319281464103051004095001120384472270134762228218464381882241
0.0353110509920342050805847119454982728408803904478828853486635387    -0.2338828764700374637401161408354035434241671891839114684486702196
0.0355962045365754955906911483839783802434271099822066092650978951    -0.1984253510430514028145314744172311339773557739995733137296559346
0.0358344093909240557897794220892032494486863691465998231451404046    -0.1627061176484117143375324071172689306391714020384047613613131082
0.0360253513809352577100895612002752565557873680126060258381969089    -0.1267722872420482529861987856746141031932200993587612103221064977
0.0361687786686006375827449538310791186386589106886723842322984914    -0.0906712538170801670313767656081154115432657898629839800761552760
0.0362645020842023874314919525199681982990445863634839659782342669    -0.0544506318947312060299349172716317683343996509916633964000094717
0.0363123953758133382823151408824178331847413027551695965476966260    -0.0181581937243858159334428947157603639317037294693078433976084963
0.0363123953758133382823151408824178331847413027551695965476966260    0.0181581937243858159334428947157603639317037294693078433976084963
0.0362645020842023874314919525199681982990445863634839659782342669    0.0544506318947312060299349172716317683343996509916633964000094717
0.0361687786686006375827449538310791186386589106886723842322984914    0.0906712538170801670313767656081154115432657898629839800761552760
0.0360253513809352577100895612002752565557873680126060258381969089    0.1267722872420482529861987856746141031932200993587612103221064977
0.0358344093909240557897794220892032494486863691465998231451404046    0.1627061176484117143375324071172689306391714020384047613613131082
0.0355962045365754955906911483839783802434271099822066092650978951    0.1984253510430514028145314744172311339773557739995733137296559346
0.0353110509920342050805847119454982728408803904478828853486635387    0.2338828764700374637401161408354035434241671891839114684486702196
0.0349793248532100993714131750870537665536692908007992730428976437    0.2690319281464103051004095001120384472270134762228218464381882241
0.0346014636417376922599344091372423474580623290271581995254706147    0.3038261471427057350627717031754771320866760434225786521933704424
0.0341779657279199046342381194826236549739805914956132281285071805    0.3382196425268726664119642136799803116287436783684283250589199029
0.0337093896734175548649715361110166737414081514421014106491708016    0.3721670518909396103241353878481478505450384878256182394086847135
0.0331963534945515971200903413374642017737755387426929704170100152    0.4056236011806003961511741999218720545574574787631510159009157094
0.0326395338471899219560986782670532170323091040227089687102236244    0.4385451637488090940117830986821958649078791603339183295522906365
0.0320396651342940161102283489694564891501812646141269415682586956    0.4708883185554977835779452564771083966804213724079933069290758937
0.0313975385373028655585332241447571566398198510152229168314476778    0.5026104074366572745019126771495499227785308983455670189645173310
0.0307140009726320531830400490733605485542773360163445547946239157    0.5336695913672486833038491302385010281463106283793037209322002031
0.0299899539746649324913384897796552099917880914247616214976137182    0.5640249056437413290151050216793393461259592844309376623949081074
0.0292263525067099445836614968452255989582412864753473201622226063    0.5936363139134980336720874915614293535994011905352800497762508618
0.0284242037014934947573124312298211188320881793443512899071897753    0.6224647609797508119132536998474042708059650061207002399857045852
0.0275845655328512483873842027913599447461150042856283341042497129    0.6504722243125262328509947158978388120961385288334366546510515373
0.0267085454203722095753067430520971149586396158682636186948092913    0.6776217641975885106559521375229726138338435110105240510083556042
0.0257972987688395354077711033170694206226818425830984696120093228    0.7038775724572676947964273069893382235243159493322204857349500694
0.0248520274443998359183258284984757181605454698521834407119226661    0.7292050196789283228987179651661863229243244967519159448085978309
0.0238739781894790049732174117578445359700002482780705928795720924    0.7535707008888089034979407617061626572308793641416245339752989413
0.0228644409785480064457728459328347326615083224987145672926638959    0.7769424796110233710544697127414876352708575343028354178863429723
0.0218247473169276278006842188158903135604484469430891030445209997    0.7992895302536617881362527014335912018263297115878009579466169958
0.0207562684849091427905816947459433612234544371049016095815452998    0.8205823787661602215370503170490064975532746854444530471076400283
0.0196604137295621798074019960079526988933924366884644978761607101    0.8407929415144330516997106887266890254648957594071547566526143135
0.0185386284067098592063147228260076567552595435141728905078231555    0.8598945623226849553002086896753100615014963870006059063401104332
0.0173923920756905423867196462384649403536089190044800483390917703    0.8778620476333659373399156587901798401423976614907759217594160534
0.0162232165497290225880836076053843190641988403283081192022355556    0.8946716997394463343790389643275687605985442182524952843913141995
0.0150326439050813786849451862612062385712188342586905399463907246    0.9103013480461658302105530970155806563071556157078077239604285022
0.0138222444527666708666481916995773101825878752060200951619254498    0.9247303783228619497770458638548486962129970227196434221671225354
0.0125936146780696978104092545424971057894429190199890995073353935    0.9379397599098926144330431829465401969796010631660688434546511196
0.0113483751561777039771665897513133594372480468314072366373815401    0.9499120708522102557120084622193688346422593266947151451888877985
0.0100881684603861056546730282172430413489417563873061859073656963    0.9606315209428984486294146088916300818379335633122612721110658372
0.0088146571019548157037820072424015783601667081605316943057332332    0.9700839726857401313585667856753238405567452436016278659110667107
0.0075295216121945626068448950478869839879557249182068016476437975    0.9782569602536847166224817100896794145493647361044731883034178671
0.0062344591391401234638869459198818513621884534839803414540353237    0.9851397067325024136111349321296922296908723106426002251620709583
0.0049311840969601036964215639608900658548714885682042256387817068    0.9907231407455187052199461595757324564046189186686027020070426043
0.0036214392496109014375557203935929244283254219438301438552264260    0.9949999174853378962240278296865267787306869720488917761511558143
0.0023070874888099029259678226741022732957951982032641192247246199    0.9979644770352439447851982470376937179898414670339601241431070445
0.0009916432666203635255775823829322175405773942513442392768872153    0.9996135688413258570173519429691898056621564316073115049175733052
