0.0012352911771394096141718693577701684885574711446022608451833245    -0.9995186146334100097485810403432028222048464558927606633309161496
0.0028735530836526916572784103259190069634161396110677928855675544    -0.9974644778692140998748697363342815096950587762896062982998289156
0.0045095236002058353332382600617225201352145078878940814673177019    -0.9937724709498782483089111922671833587405760927682280195226149875
0.0061382961597563418392698976419496857142395451908600026030438905    -0.9884478382225613073250190296677679952152393217379336496450324241
0.0077570259500830707318423715015086894757402526021292315303682707    -0.9814992273311384623883448371922601987591097823016816581597381880
0.0093630236923864307692619401092122690830187699638765309796819039    -0.9729380307491083903463061436722289755723112727417229950383435077
0.0109536428539113542385909906564311012688402729562491386357550978    -0.9627783064677343119401618677345752708754638042046337519714691592
0.0125262673692273651873599360609261815653350960338751527412107241    -0.9510367436005918715234288281807248431427382022610265077429439804
0.0140783123400270040501679745469481757596435542442793014924537309    -0.9377326319590610441901421458019462344361793013667550093452892547
0.0156072272687491312950812528273540552539541773179912688503066796    -0.9228878293594021999280454352556866065377968617965660313520674464
0.0171104999065311041762396265422816306268623578233327049011973115    -0.9065267253212578180210908076914642169129460665589228810201259307
0.0185856602483414855091797455372899461996496569499498975613787783    -0.8886762008255640698948349041829902765986852446831309831203204689
0.0200302845343161763962462341421682348538273255678658763111379469    -0.8693655840677340598786543794134985025727025100605890363188496347
0.0214419992054561355051249609455896009850809350572560494997061735    -0.8486266022296240364695778333013144490991644212974724061154103853
0.0228184847901295205129096684242380455145461311131252662297158194    -0.8264933293290021194355867108823116839071845495610173884690088728
0.0241574797079558449405938786766026000793409194960833186358789424    -0.8030021302229252273836377991808326256601329897967091791819337558
0.0254567839816944037526377611042545806827778773582593408527630043    -0.7781916008525431418728679438951005547733731762301396612760380339
0.0267142628495578908320027903339693578628644639853649937545435497    -0.7521025048252159413843866204589218098646983042124398879954351091
0.0279278502712769685415072458385393547670099728188498270487948830    -0.7247777064369117287807855145179319785117463049407442187679771136
0.0290955523217687613487024909925899428883833118545845882151814639    -0.6962621002442422247910199676552126493346891979077632761827381737
0.0302154504666229986913986896026689186938004272571748889072383213    -0.6666025373014514935909160584929973432171214493029843941074959364
0.0312857047139054333939564688248023297020139879358841028593673835    -0.6358477481833123670136512115082557337866623385733997807357350132
0.0323045566370309755935720248770189554290382213261538264100068864    -0.6040482629202573849701483860654635304251013129622550708196177727
0.0332703322636985453028394501889424389873258533198666247649673653    -0.5712563279771982508069831601772933015823600621450759114797160355
0.0341814448261156792653179293666783037308213464727480549194228349    -0.5375258204123777390244248275502675410860107022765669832239351106
0.0350363973679782784548775341768602636405129216152780398376509199    -0.5029121593572515178077263094374551610780194607114129775957924391
0.0358337852039119626026426354988714582411472252435756789334132371    -0.4674722149628117946446436599267334432576354838915164990163528015
0.0365722982273274545334583301884417383226985976441348135722879061    -0.4312642149619356820725241693154391951260284054112903895916867138
0.0372507230628937188787602752773923820733634087143461605758465140    -0.3943476490012635604684674653204907819860106791320328414881689993
0.0378679450600893202616668263698825532974203917189201450611920780    -0.3567831708997810705785553176052931973341295618458022849393765632
0.0384229501245545236736811673950157737264386366565747559427387209    -0.3186324989946873087775230811947078745498612750592115661612318827
0.0389148263842337856210328195269465615259641522783789781069945674    -0.2799583147382761220647047515122734117632435097906351824828131091
0.0393427656875701519371323060021403579199550804882202882022842136    -0.2408241597124321976096817997111663692479995686642232827131498510
0.0397060649312893106810375441064459939795315586951280004476544469    -0.2012943312299443566381476572584353335469093145107407100455693792
0.0400041272155912374103515108756024938206032414255387913367248969    -0.1614337766941609316071840997179130285151805782277637280200506482
0.0402364628248510841952652526450911891715909731471765261586049692    -0.1213079868905525866418068202497563098376793882087993235881254279
0.0404026900322177561703261942869865760713835898719948729428528412    -0.0809828883855031312064977868345239030210771101396969967566709715
0.0405025357267880319552496042711691702201782295924423334346610515    -0.0405247352091159259300698128567524732082909142341761193418886126
0.0405358358623256502920522617835547865558188352379329850898081896    0.0000000000000000000000000000000000000000000000000000000000000000
0.0405025357267880319552496042711691702201782295924423334346610515    0.0405247352091159259300698128567524732082909142341761193418886126
0.0404026900322177561703261942869865760713835898719948729428528412    0.0809828883855031312064977868345239030210771101396969967566709715
0.0402364628248510841952652526450911891715909731471765261586049692    0.1213079868905525866418068202497563098376793882087993235881254279
0.0400041272155912374103515108756024938206032414255387913367248969    0.1614337766941609316071840997179130285151805782277637280200506482
0.0397060649312893106810375441064459939795315586951280004476544469    0.2012943312299443566381476572584353335469093145107407100455693792
0.0393427656875701519371323060021403579199550804882202882022842136    0.2408241597124321976096817997111663692479995686642232827131498510
0.0389148263842337856210328195269465615259641522783789781069945674    0.2799583147382761220647047515122734117632435097906351824828131091
0.0384229501245545236736811673950157737264386366565747559427387209    0.3186324989946873087775230811947078745498612750592115661612318827
0.0378679450600893202616668263698825532974203917189201450611920780    0.3567831708997810705785553176052931973341295618458022849393765632
0.0372507230628937188787602752773923820733634087143461605758465140    0.3943476490012635604684674653204907819860106791320328414881689993
0.0365722982273274545334583301884417383226985976441348135722879061    0.4312642149619356820725241693154391951260284054112903895916867138
0.0358337852039119626026426354988714582411472252435756789334132371    0.4674722149628117946446436599267334432576354838915164990163528015
0.0350363973679782784548775341768602636405129216152780398376509199    0.5029121593572515178077263094374551610780194607114129775957924391
0.0341814448261156792653179293666783037308213464727480549194228349    0.5375258204123777390244248275502675410860107022765669832239351106
0.0332703322636985453028394501889424389873258533198666247649673653    0.5712563279771982508069831601772933015823600621450759114797160355
0.0323045566370309755935720248770189554290382213261538264100068864    0.6040482629202573849701483860654635304251013129622550708196177727
0.0312857047139054333939564688248023297020139879358841028593673835    0.6358477481833123670136512115082557337866623385733997807357350132
0.0302154504666229986913986896026689186938004272571748889072383213    0.6666025373014514935909160584929973432171214493029843941074959364
0.0290955523217687613487024909925899428883833118545845882151814639    0.6962621002442422247910199676552126493346891979077632761827381737
0.0279278502712769685415072458385393547670099728188498270487948830    0.7247777064369117287807855145179319785117463049407442187679771136
0.0267142628495578908320027903339693578628644639853649937545435497    0.7521025048252159413843866204589218098646983042124398879954351091
0.0254567839816944037526377611042545806827778773582593408527630043    0.7781916008525431418728679438951005547733731762301396612760380339
0.0241574797079558449405938786766026000793409194960833186358789424    0.8030021302229252273836377991808326256601329897967091791819337558
0.0228184847901295205129096684242380455145461311131252662297158194    0.8264933293290021194355867108823116839071845495610173884690088728
0.0214419992054561355051249609455896009850809350572560494997061735    0.8486266022296240364695778333013144490991644212974724061154103853
0.0200302845343161763962462341421682348538273255678658763111379469    0.8693655840677340598786543794134985025727025100605890363188496347
0.0185856602483414855091797455372899461996496569499498975613787783    0.8886762008255640698948349041829902765986852446831309831203204689
0.0171104999065311041762396265422816306268623578233327049011973115    0.9065267253212578180210908076914642169129460665589228810201259307
0.0156072272687491312950812528273540552539541773179912688503066796    0.9228878293594021999280454352556866065377968617965660313520674464
0.0140783123400270040501679745469481757596435542442793014924537309    0.9377326319590610441901421458019462344361793013667550093452892547
0.0125262673692273651873599360609261815653350960338751527412107241    0.9510367436005918715234288281807248431427382022610265077429439804
0.0109536428539113542385909906564311012688402729562491386357550978    0.9627783064677343119401618677345752708754638042046337519714691592
0.0093630236923864307692619401092122690830187699638765309796819039    0.9729380307491083903463061436722289755723112727417229950383435077
0.0077570259500830707318423715015086894757402526021292315303682707    0.9814992273311384623883448371922601987591097823016816581597381880
0.0061382961597563418392698976419496857142395451908600026030438905    0.9884478382225613073250190296677679952152393217379336496450324241
0.0045095236002058353332382600617225201352145078878940814673177019    0.9937724709498782483089111922671833587405760927682280195226149875
0.0028735530836526916572784103259190069634161396110677928855675544    0.9974644778692140998748697363342815096950587762896062982998289156
0.0012352911771394096141718693577701684885574711446022608451833245    0.9995186146334100097485810403432028222048464558927606633309161496
