0.0022437538722506629097347868226350138862675186051545391915377904    -0.9991255656252628505720098495542498849991275860070135753660525243
0.0052165334747187793905066298714200853230314153904276446206733187    -0.9953955236784303111351250273624190059750688689134139640034917565
0.0081781600678212326262109981303794018647094260911870515559495803    -0.9886965776502220488497583983838554385100840866989440058860316582
0.0111157637323359901456754487681900391395904333631786220806115776    -0.9790472267094687137988208753665077573609312237677806846967871891
0.0140202707907535561702471513381502513228268482238128456108604515    -0.9664760851718866791148585839423331889684900945023856203362025363
0.0168829590234415490350008215668332764463059650200004404078492446    -0.9510206264478767419119041106051903286377993396626904280981616851
0.0196952706994885203824224522735148584246970405778395012144411494    -0.9327269610671016961007541542973566380674886351166348492373846591
0.0224488078907764380796892388450908804387962019606627317289097774    -0.9116496785213912127284305616196703109182484103974133022970471120
0.0251353509909181226472737881409554879758809126073346052919155870    -0.8878516788822213295130001476418617161342757872670352822760912065
0.0277468814021801923212579500383637591696208463159952617880462866    -0.8614039832620469447222418818052147542219330056132396182916014852
0.0302756048426939994584905988331372111851184545053376681526180509    -0.8323855211504391208290108958652032182522656500966394547734354794
0.0327139743663715685424901099103934982845747686389306710663346805    -0.8008828945472182420760087187949485677018036201554216024435741353
0.0350547127823126175057509705965500644569012556759409018250422540    -0.7669901193594501954917161440181323552366484158223982425166478409
0.0372908343244173173547352639956989655539698724087680563771271135    -0.7308083447445233228273446707367783162631221195096122032476158583
0.0394156654754801140899527208010555042508151727322945731030003457    -0.6924455511995177390404836884440104456566766346141428900039831836
0.0414228648708011103631969052736104309601351140912015419202709837    -0.6520162282809768912493618407957082836706605569721548103771976109
0.0433064422162151965964321083284261257043646513427258084183919790    -0.6096410329087153654238489019247406243240005729239646135257225395
0.0450607761613811577972135295258329703541113366416026741948529821    -0.5654464292692367590189855528052404293700220742215797294432383300
0.0466806310736415037838408927788335708830549965242929778581841367    -0.5195643113911876063151538198062143510806311082695118064785018538
0.0481611726616877512688510517568167367162428543195299777509336772    -0.4721316095179757095880600820492347498222379256993266854906190362
0.0494979824020196789938379444993879262646728960762586853508843699    -0.4232898814515639509600243534715243790140509521345882898514696665
0.0506870707249274086566404255636365795531047987116499536486610677    -0.3731848900865944585521343961448890105564601460926335337662504002
0.0517248889205178247206239086651469806258692764894542553030585145    -0.3219661683953786405902079158053972393727394676628063159353145336
0.0526083397291774324402313816408841896252559164289825927685703977    -0.2697865731618387657633456097996433442990579943514747594710278746
0.0533347865848191584265769779914406250959470462378439372822499743    -0.2168018287961240364136139759795592742565832955044724383501131806
0.0539020614832985746428094817306014534866276745873407168095654990    -0.1631700625912642510432803783215120621859099893031057137792369338
0.0543084714524986431387467729547915602633775761284777723625766549    -0.1090513328087878009785265213109790494550451375016710268890848852
0.0545528036047618864801389953641965144760153482295025390859438500    -0.0546071510016468242198305597373324454104423343597207807718099846
0.0546343287565840240628413879880520765362287641485429064618774097    0.0000000000000000000000000000000000000000000000000000000000000000
0.0545528036047618864801389953641965144760153482295025390859438500    0.0546071510016468242198305597373324454104423343597207807718099846
0.0543084714524986431387467729547915602633775761284777723625766549    0.1090513328087878009785265213109790494550451375016710268890848852
0.0539020614832985746428094817306014534866276745873407168095654990    0.1631700625912642510432803783215120621859099893031057137792369338
0.0533347865848191584265769779914406250959470462378439372822499743    0.2168018287961240364136139759795592742565832955044724383501131806
0.0526083397291774324402313816408841896252559164289825927685703977    0.2697865731618387657633456097996433442990579943514747594710278746
0.0517248889205178247206239086651469806258692764894542553030585145    0.3219661683953786405902079158053972393727394676628063159353145336
0.0506870707249274086566404255636365795531047987116499536486610677    0.3731848900865944585521343961448890105564601460926335337662504002
0.0494979824020196789938379444993879262646728960762586853508843699    0.4232898814515639509600243534715243790140509521345882898514696665
0.0481611726616877512688510517568167367162428543195299777509336772    0.4721316095179757095880600820492347498222379256993266854906190362
0.0466806310736415037838408927788335708830549965242929778581841367    0.5195643113911876063151538198062143510806311082695118064785018538
0.0450607761613811577972135295258329703541113366416026741948529821    0.5654464292692367590189855528052404293700220742215797294432383300
0.0433064422162151965964321083284261257043646513427258084183919790    0.6096410329087153654238489019247406243240005729239646135257225395
0.0414228648708011103631969052736104309601351140912015419202709837    0.6520162282809768912493618407957082836706605569721548103771976109
0.0394156654754801140899527208010555042508151727322945731030003457    0.6924455511995177390404836884440104456566766346141428900039831836
0.0372908343244173173547352639956989655539698724087680563771271135    0.7308083447445233228273446707367783162631221195096122032476158583
0.0350547127823126175057509705965500644569012556759409018250422540    0.7669901193594501954917161440181323552366484158223982425166478409
0.0327139743663715685424901099103934982845747686389306710663346805    0.8008828945472182420760087187949485677018036201554216024435741353
0.0302756048426939994584905988331372111851184545053376681526180509    0.8323855211504391208290108958652032182522656500966394547734354794
0.0277468814021801923212579500383637591696208463159952617880462866    0.8614039832620469447222418818052147542219330056132396182916014852
0.0251353509909181226472737881409554879758809126073346052919155870    0.8878516788822213295130001476418617161342757872670352822760912065
0.0224488078907764380796892388450908804387962019606627317289097774    0.9116496785213912127284305616196703109182484103974133022970471120
0.0196952706994885203824224522735148584246970405778395012144411494    0.9327269610671016961007541542973566380674886351166348492373846591
0.0168829590234415490350008215668332764463059650200004404078492446    0.9510206264478767419119041106051903286377993396626904280981616851
0.0140202707907535561702471513381502513228268482238128456108604515    0.9664760851718866791148585839423331889684900945023856203362025363
0.0111157637323359901456754487681900391395904333631786220806115776    0.9790472267094687137988208753665077573609312237677806846967871891
0.0081781600678212326262109981303794018647094260911870515559495803    0.9886965776502220488497583983838554385100840866989440058860316582
0.0052165334747187793905066298714200853230314153904276446206733187    0.9953955236784303111351250273624190059750688689134139640034917565
0.0022437538722506629097347868226350138862675186051545391915377904    0.9991255656252628505720098495542498849991275860070135753660525243
