0.0043061403581648876840044779046544861863622039953017048216709247    -0.9983215885747714415191885080883775679315043515136701664305189995
0.0099999387739059453384962966296988395502249357711502059516612122    -0.9911671096990163082501588945731696576927560135700030473139233759
0.0156449384078185885308268444795336774408178893696463563519720430    -0.9783386735610833844691707066739671983756367819186542823908638519
0.0212010633687795530756970334933766265717170543273583081858365208    -0.9599068917303462260994416960686865820669510908294663506572741746
0.0266358992071104454675485752587132770446904920052481380290601501    -0.9359769874978538256823182752847662662712371180873447745571943001
0.0319182117316992817870669468571455437011877532975110125655752761    -0.9066859447581011729583404132307229733543071853222848544174178338
0.0370177167035079884352612515801606686062715463218675427792274356    -0.8722015116924414088336705742343294602820426555395330018475216718
0.0419051951959096894293402743110488379362663774320223832525503171    -0.8327212004013613312442727790485437999769759929785821333041755709
0.0465526483690143420607565868646114231309901985805901850205491107    -0.7884711450474093727362217814667702889947120790987272103776864621
0.0509334542946174947811703571156886314208034467868703287758154743    -0.7397048030699261810601687444685590003952544390525689654764463583
0.0550225192425787418801468101714222699737753366053695905020579079    -0.6867015020349512895846038565291348120664384601496731287869442692
0.0587964209498719449911858533807342740008812386027269408652317127    -0.6297648390721963204886490916951035010785147807394708738765675463
0.0622335425809663164715734170833464854301598699449434293731727651    -0.5692209416102158696547472152829802516104569239795452438355170453
0.0653141964535274104361637126537963404198592367210681263413716104    -0.5054165991994060327083360702026947649510755460151802456683240900
0.0680207367608767667355332397262489282566991201385941654493922471    -0.4387172770514070885171198567280392484217857587594686433615714276
0.0703376606208174974816589899698814560012333801678102797243340230    -0.3695050226404814414283669132999352056240869713318760787512048883
0.0722516968610230733963463983487873548852947705248725488984283803    -0.2981762773418248659229828804789243041399558684461485260745457412
0.0737518820272234699392808183248486794779162804283396427380141798    -0.2251396056334227756057862566554723302999124206442432223501878545
0.0748296231762215518913050726335053229456830673780307175780692442    -0.1508133548639921635743779678845823757756309453294978309651694420
0.0754787470927158240272470626746167490736063609030627762297347380    -0.0756232589891629969237661936512002674810506356066569487501038171
0.0756955356472983723187799610763602558911188813952312331325494537    0.0000000000000000000000000000000000000000000000000000000000000000
0.0754787470927158240272470626746167490736063609030627762297347380    0.0756232589891629969237661936512002674810506356066569487501038171
0.0748296231762215518913050726335053229456830673780307175780692442    0.1508133548639921635743779678845823757756309453294978309651694420
0.0737518820272234699392808183248486794779162804283396427380141798    0.2251396056334227756057862566554723302999124206442432223501878545
0.0722516968610230733963463983487873548852947705248725488984283803    0.2981762773418248659229828804789243041399558684461485260745457412
0.0703376606208174974816589899698814560012333801678102797243340230    0.3695050226404814414283669132999352056240869713318760787512048883
0.0680207367608767667355332397262489282566991201385941654493922471    0.4387172770514070885171198567280392484217857587594686433615714276
0.0653141964535274104361637126537963404198592367210681263413716104    0.5054165991994060327083360702026947649510755460151802456683240900
0.0622335425809663164715734170833464854301598699449434293731727651    0.5692209416102158696547472152829802516104569239795452438355170453
0.0587964209498719449911858533807342740008812386027269408652317127    0.6297648390721963204886490916951035010785147807394708738765675463
0.0550225192425787418801468101714222699737753366053695905020579079    0.6867015020349512895846038565291348120664384601496731287869442692
0.0509334542946174947811703571156886314208034467868703287758154743    0.7397048030699261810601687444685590003952544390525689654764463583
0.0465526483690143420607565868646114231309901985805901850205491107    0.7884711450474093727362217814667702889947120790987272103776864621
0.0419051951959096894293402743110488379362663774320223832525503171    0.8327212004013613312442727790485437999769759929785821333041755709
0.0370177167035079884352612515801606686062715463218675427792274356    0.8722015116924414088336705742343294602820426555395330018475216718
0.0319182117316992817870669468571455437011877532975110125655752761    0.9066859447581011729583404132307229733543071853222848544174178338
0.0266358992071104454675485752587132770446904920052481380290601501    0.9359769874978538256823182752847662662712371180873447745571943001
0.0212010633687795530756970334933766265717170543273583081858365208    0.9599068917303462260994416960686865820669510908294663506572741746
0.0156449384078185885308268444795336774408178893696463563519720430    0.9783386735610833844691707066739671983756367819186542823908638519
0.0099999387739059453384962966296988395502249357711502059516612122    0.9911671096990163082501588945731696576927560135700030473139233759
0.0043061403581648876840044779046544861863622039953017048216709247    0.9983215885747714415191885080883775679315043515136701664305189995
