0.0017832807216964329472960791449719331799593472719279556695308064    -0.9993050417357721394569056243456363119697121916756087760628072955
0.0041470332605624676352875357285514153133028192536848024628763661    -0.9963401167719552793469245006763991232098575063402266121352522200
0.0065044579689783628561173603999812667711317610549523400952448793    -0.9910133714767443207393823834433031136413494453907904852225427459
0.0088467598263639477230309146597306476951762660792204997984715769    -0.9833362538846259569312993021568311169452475066237403837464872131
0.0111681394601311288185904930192081350727787978168272872152513623    -0.9733268277899109637418535073522726680261452944551741758819139782
0.0134630478967186425980607666859556841084257719773496708184682785    -0.9610087996520537189186141218971572067621146110378459494461586159
0.0157260304760247193219659952975397944260290098431565121528943932    -0.9464113748584028160624814913472647952793949717952331902317789713
0.0179517157756973430850453020011193688971673570364158572977184274    -0.9295691721319395758214901545592256073474270144297154975928116834
0.0201348231535302093723403167285438970895266801007919519220072343    -0.9105221370785028057563806680083298610134880848883640292531723714
0.0222701738083832541592983303841550024229592905997594051455205430    -0.8893154459951141058534040382728516224291944615104521893194744566
0.0243527025687108733381775504090689876499784155133784119819985686    -0.8659993981540928197607833850701575024125019187582496425664279512
0.0263774697150546586716917926252251856755993308422457184496156737    -0.8406292962525803627516915446958733029824898238017553539282026831
0.0283396726142594832275113052002373519812075841257543359907955185    -0.8132653151227975597419233380863033406981418225655972166956485149
0.0302346570724024788679740598195486591582813977684812416360265420    -0.7839723589433414076102205252137682840564141249898259334132759617
0.0320579283548515535854675043478987169662215738813980622501694079    -0.7528199072605318966118637748856939855517142713220871932461987761
0.0338051618371416093915654821107254310210499263140045346675500650    -0.7198818501716108268489402178319472447581380033149019526220473151
0.0354722132568823838106931467152459479480946310024100946926514848    -0.6852363130542332425635583710313763019356410785396718681324042750
0.0370551285402400460404151018095833750834649453056563021747536272    -0.6489654712546573398577612319934048855296904334732011728792502624
0.0385501531786156291289624969468089910127871122017180319662378854    -0.6111553551723932502488529710185489186961245593079718443367976667
0.0399537411327203413866569261283360739186769506703336301114037027    -0.5718956462026340342838781166591886431831910060912509932273284719
0.0412625632426235286101562974736380477399306355305474105429034779    -0.5312794640198945456580139035444552474085255887341802380532680472
0.0424735151236535890073397679088173661655466481806496697314607722    -0.4894031457070529574785263070219213908493732974637398373316540793
0.0435837245293234533768278609737374809227888974971180150532193926    -0.4463660172534640879849477147589151892067507578262501763082606820
0.0445905581637565630601347100309448432940237999912217256432193287    -0.4022701579639916036957667712601588487132652056150208082760431843
0.0454916279274181444797709969712690588873234618023998968168834082    -0.3572201583376681159504426150462025316262644646409091120212370193
0.0462847965813144172959532492322611849696503075324468007778340818    -0.3113228719902109561575126985601568835577153578680501269954571710
0.0469681828162100173253262857545810751998975284738125649829240887    -0.2646871622087674163739641725100201179804131362950932439559895448
0.0475401657148303086622822069442231716408252512625387521584740319    -0.2174236437400070841496487489888226175784858311412223486303804019
0.0479993885964583077281261798713460699543167134714936209446323931    -0.1696444204239928180373136297482698441999902667343778505894178747
0.0483447622348029571697695271580178097036925506095010806294422014    -0.1214628192961205544703764634922478782186836383371912940423495826
0.0485754674415034269347990667839781136875565447049294857111516761    -0.0729931217877990394495429419403374932441261816687788533563163323
0.0486909570091397203833653907347499124426286922838743305086688042    -0.0243502926634244325089558428537156614268871093149758091634531664
0.0486909570091397203833653907347499124426286922838743305086688042    0.0243502926634244325089558428537156614268871093149758091634531664
0.0485754674415034269347990667839781136875565447049294857111516761    0.0729931217877990394495429419403374932441261816687788533563163323
0.0483447622348029571697695271580178097036925506095010806294422014    0.1214628192961205544703764634922478782186836383371912940423495826
0.0479993885964583077281261798713460699543167134714936209446323931    0.1696444204239928180373136297482698441999902667343778505894178747
0.0475401657148303086622822069442231716408252512625387521584740319    0.2174236437400070841496487489888226175784858311412223486303804019
0.0469681828162100173253262857545810751998975284738125649829240887    0.2646871622087674163739641725100201179804131362950932439559895448
0.0462847965813144172959532492322611849696503075324468007778340818    0.3113228719902109561575126985601568835577153578680501269954571710
0.0454916279274181444797709969712690588873234618023998968168834082    0.3572201583376681159504426150462025316262644646409091120212370193
0.0445905581637565630601347100309448432940237999912217256432193287    0.4022701579639916036957667712601588487132652056150208082760431843
0.0435837245293234533768278609737374809227888974971180150532193926    0.4463660172534640879849477147589151892067507578262501763082606820
0.0424735151236535890073397679088173661655466481806496697314607722    0.4894031457070529574785263070219213908493732974637398373316540793
0.0412625632426235286101562974736380477399306355305474105429034779    0.5312794640198945456580139035444552474085255887341802380532680472
0.0399537411327203413866569261283360739186769506703336301114037027    0.5718956462026340342838781166591886431831910060912509932273284719
0.0385501531786156291289624969468089910127871122017180319662378854    0.6111553551723932502488529710185489186961245593079718443367976667
0.0370551285402400460404151018095833750834649453056563021747536272    0.6489654712546573398577612319934048855296904334732011728792502624
0.0354722132568823838106931467152459479480946310024100946926514848    0.6852363130542332425635583710313763019356410785396718681324042750
0.0338051618371416093915654821107254310210499263140045346675500650    0.7198818501716108268489402178319472447581380033149019526220473151
0.0320579283548515535854675043478987169662215738813980622501694079    0.7528199072605318966118637748856939855517142713220871932461987761
0.0302346570724024788679740598195486591582813977684812416360265420    0.7839723589433414076102205252137682840564141249898259334132759617
0.0283396726142594832275113052002373519812075841257543359907955185    0.8132653151227975597419233380863033406981418225655972166956485149
0.0263774697150546586716917926252251856755993308422457184496156737    0.8406292962525803627516915446958733029824898238017553539282026831
0.0243527025687108733381775504090689876499784155133784119819985686    0.8659993981540928197607833850701575024125019187582496425664279512
0.0222701738083832541592983303841550024229592905997594051455205430    0.8893154459951141058534040382728516224291944615104521893194744566
0.0201348231535302093723403167285438970895266801007919519220072343    0.9105221370785028057563806680083298610134880848883640292531723714
0.0179517157756973430850453020011193688971673570364158572977184274    0.9295691721319395758214901545592256073474270144297154975928116834
0.0157260304760247193219659952975397944260290098431565121528943932    0.9464113748584028160624814913472647952793949717952331902317789713
0.0134630478967186425980607666859556841084257719773496708184682785    0.9610087996520537189186141218971572067621146110378459494461586159
0.0111681394601311288185904930192081350727787978168272872152513623    0.9733268277899109637418535073522726680261452944551741758819139782
0.0088467598263639477230309146597306476951762660792204997984715769    0.9833362538846259569312993021568311169452475066237403837464872131
0.0065044579689783628561173603999812667711317610549523400952448793    0.9910133714767443207393823834433031136413494453907904852225427459
0.0041470332605624676352875357285514153133028192536848024628763661    0.9963401167719552793469245006763991232098575063402266121352522200
0.0017832807216964329472960791449719331799593472719279556695308064    0.9993050417357721394569056243456363119697121916756087760628072955
