0.0016776537440072385993315729395768000912701718961846671837349522    -0.9993462098721778820728169844897534038489798177612455223391491184
0.0039016256417442482592284604022347425657962813364451894044625972    -0.9965568210895526911221682936271655231474226098609549380060548798
0.0061201920184479363655679267599325534733064415795535612481872867    -0.9915450303833757455317626874915024652379640450278907855709916043
0.0083253887659909014167255456738388969693587825804785883972500587    -0.9843209049351401328905531133497304519546416063288518906564737302
0.0105120659877057546573769278249091721081347052297638458309390442    -0.9749004277462859518558981597955785100904841869102142050041754355
0.0126753039812616818764451890490543752381388949550813740155619496    -0.9633045868592573709648611641215876023221431585481549829966246814
0.0148102650027339601736425397826051036863065555219911124963323305    -0.9495592462062353390924667777530840725636266694047217954535608908
0.0169121814722452171803502951016955502926760434503884132583551146    -0.9336950725447924943726316546645442491015755403424558078821799708
0.0189763617227713259348670383819130757861983495926243213767552859    -0.9157474629452070159504292321856501326757364627289375404879556614
0.0209981990918646257773310444331174416065477902625105406518843229    -0.8957564644465639384608363421159679186745205639537670398874697295
0.0229731817353266559180986454391924792162326571951321387371038935    -0.8737666841669447304010052252388476140708178150724787014449281629
0.0248969025147573726377309318503257938091117005982664636472164181    -0.8498271895360162194620982827662729927534642533347367652899558918
0.0267650687542500019087929683072975443072302868403642211226191396    -0.8239913986955876113470819604562802076162176874032359010813203345
0.0285735117829318711828222973919594511439316321028019622157614380    -0.7963169612458245705327297529839427137059046897749549661737976029
0.0303181962188685191936407585817467320061137981796811734352147721    -0.7668656295753196258695429615721640019070626674089068527652665750
0.0319952289640468872712817209497004935905944977073205994885403706    -0.7357031210495127995792369988536080891813580396924659542782126782
0.0336008678861122326703489271970391461054615942172646310858190354    -0.7028989713588741858362592491863327738333248597596479076321336565
0.0351315301654725559006410962600436013726504752913634275996598660    -0.6685263793509675926042871595158391277515568660785318184332543394
0.0365838002881390944136899614906125735117125404444528872230858925    -0.6326620436909631694038946297909632119300013987238574273949346887
0.0379544376659416209491300993985636595296878140811692358868655801    -0.5953859917141384583279343619739175116297776834157221273917459880
0.0392403838668283301878128594897690446939494249665888242855018134    -0.5567814008517230642349478144146972673060505652700268805863655977
0.0404387694389549791258683759329467465993781398673277356049818115    -0.5169344130282315135725754021721462708748931049169995387137714584
0.0415469203132418813177345366874209908558263933349199698294414513    -0.4759339424442368429619300144632184150352879951582279515386363047
0.0425623637700557163189067387701321603740804474325544207239559385    -0.4338714771733706683576956361593473660223149370834375812936198784
0.0434828339566674786475753900171389317346151979363735976174621133    -0.3908408750161829497551221449748399724962752721305176961855241767
0.0443062769431531619046033551088787193340258854538747776209335142    -0.3469381540663375488997547343268092115606576522800805916163827064
0.0450308553054415002151928068372887902361572512064144932655968195    -0.3022612784564361000161289151372929739422461631919350529129400471
0.0456549522252730561204388422105844803377556116308568692595332653    -0.2569099397615302229941995791186477983574959068918421556697143558
0.0461771750979159754716664715730462420485391845245097895256828275    -0.2109853345480789934745411489466846997034632192766538179345429936
0.0465963586395841036258241378222941614751547415695961679828065778    -0.1645899385647146072536505187587442498333723722153043340551729413
0.0469115674876208277462540409522384425988782346902238934464779827    -0.1178272780786759971147143026330654472564542826884117907722878079
0.0471220982876447321854451696446542350705537445376078906981880086    -0.0708016988681415912893636751363687998249144872476126015420323112
0.0472274812629985548456333277382478682306247297863132158340885279    -0.0236181333859245705362233216019617321949581503302017118510332241
0.0472274812629985548456333277382478682306247297863132158340885279    0.0236181333859245705362233216019617321949581503302017118510332241
0.0471220982876447321854451696446542350705537445376078906981880086    0.0708016988681415912893636751363687998249144872476126015420323112
0.0469115674876208277462540409522384425988782346902238934464779827    0.1178272780786759971147143026330654472564542826884117907722878079
0.0465963586395841036258241378222941614751547415695961679828065778    0.1645899385647146072536505187587442498333723722153043340551729413
0.0461771750979159754716664715730462420485391845245097895256828275    0.2109853345480789934745411489466846997034632192766538179345429936
0.0456549522252730561204388422105844803377556116308568692595332653    0.2569099397615302229941995791186477983574959068918421556697143558
0.0450308553054415002151928068372887902361572512064144932655968195    0.3022612784564361000161289151372929739422461631919350529129400471
0.0443062769431531619046033551088787193340258854538747776209335142    0.3469381540663375488997547343268092115606576522800805916163827064
0.0434828339566674786475753900171389317346151979363735976174621133    0.3908408750161829497551221449748399724962752721305176961855241767
0.0425623637700557163189067387701321603740804474325544207239559385    0.4338714771733706683576956361593473660223149370834375812936198784
0.0415469203132418813177345366874209908558263933349199698294414513    0.4759339424442368429619300144632184150352879951582279515386363047
0.0404387694389549791258683759329467465993781398673277356049818115    0.5169344130282315135725754021721462708748931049169995387137714584
0.0392403838668283301878128594897690446939494249665888242855018134    0.5567814008517230642349478144146972673060505652700268805863655977
0.0379544376659416209491300993985636595296878140811692358868655801    0.5953859917141384583279343619739175116297776834157221273917459880
0.0365838002881390944136899614906125735117125404444528872230858925    0.6326620436909631694038946297909632119300013987238574273949346887
0.0351315301654725559006410962600436013726504752913634275996598660    0.6685263793509675926042871595158391277515568660785318184332543394
0.0336008678861122326703489271970391461054615942172646310858190354    0.7028989713588741858362592491863327738333248597596479076321336565
0.0319952289640468872712817209497004935905944977073205994885403706    0.7357031210495127995792369988536080891813580396924659542782126782
0.0303181962188685191936407585817467320061137981796811734352147721    0.7668656295753196258695429615721640019070626674089068527652665750
0.0285735117829318711828222973919594511439316321028019622157614380    0.7963169612458245705327297529839427137059046897749549661737976029
0.0267650687542500019087929683072975443072302868403642211226191396    0.8239913986955876113470819604562802076162176874032359010813203345
0.0248969025147573726377309318503257938091117005982664636472164181    0.8498271895360162194620982827662729927534642533347367652899558918
0.0229731817353266559180986454391924792162326571951321387371038935    0.8737666841669447304010052252388476140708178150724787014449281629
0.0209981990918646257773310444331174416065477902625105406518843229    0.8957564644465639384608363421159679186745205639537670398874697295
0.0189763617227713259348670383819130757861983495926243213767552859    0.9157474629452070159504292321856501326757364627289375404879556614
0.0169121814722452171803502951016955502926760434503884132583551146    0.9336950725447924943726316546645442491015755403424558078821799708
0.0148102650027339601736425397826051036863065555219911124963323305    0.9495592462062353390924667777530840725636266694047217954535608908
0.0126753039812616818764451890490543752381388949550813740155619496    0.9633045868592573709648611641215876023221431585481549829966246814
0.0105120659877057546573769278249091721081347052297638458309390442    0.9749004277462859518558981597955785100904841869102142050041754355
0.0083253887659909014167255456738388969693587825804785883972500587    0.9843209049351401328905531133497304519546416063288518906564737302
0.0061201920184479363655679267599325534733064415795535612481872867    0.9915450303833757455317626874915024652379640450278907855709916043
0.0039016256417442482592284604022347425657962813364451894044625972    0.9965568210895526911221682936271655231474226098609549380060548798
0.0016776537440072385993315729395768000912701718961846671837349522    0.9993462098721778820728169844897534038489798177612455223391491184
