0.0018992056795136904803973438609351401708788497723689766323043390    -0.9992598593087770296984084650357989380196344605102218530613955142
0.0044163334569309048132741242554906407297119821304948961652056465    -0.9961022963162671328851484304761714926321402172798419577342691571
0.0069260419018309608717028240992570671195472130984561218156398231    -0.9904299711892903524280710618606806450023153136771405800321586167
0.0094185794284203876379375634065664281554336429515669993478583407    -0.9822559490972366494911031280097924715630012030539508450159822171
0.0118873901170105019448189389667979365274285962699907243634128468    -0.9716007233716518064471794825403058351541605539292646774580019389
0.0143261918238065177674028823094145960770999460756654785786103799    -0.9584911729739270920295604751659709433171066477828472111581257748
0.0167288117901773162885504717840924583631319372334291324375545184    -0.9429604013923285038263648116233515872414181587402121748881098396
0.0190891766585731987325037124822838057744426750473217115064419779    -0.9250476356362037552273001307570486194486305240426581245971985609
0.0214013222776699688411790899649052776408375205805733303934374078    -0.9047981225210934657584856024283756243984498926103230517482465854
0.0236594072086827925745168006505345647014315294308404535427661834    -0.8822630128318973630726866243558297560171257919193862399191307456
0.0258577269540246980270955665535105155948598700257474232906704635    -0.8574992315120709228184033205446755068915089375116217464180942771
0.0279907281633146375412382927540413048736838088959792963682892295    -0.8305693336040048513459311094772082229198112394952065156329913273
0.0300530225739898700770094692270623794862287815545353735424510093    -0.8015413461039763715385055144953863473061894831078503939175564875
0.0320394005816246781063392372781563731304930348629342626317560631    -0.7704885960554193189909446949950481884538092655054239861505444658
0.0339448443794105450911174772542360577864065417327114703325481292    -0.7374895252831567498607842765014394602801034356311800857351341826
0.0357645406227681412855873783617220425845980677311738019079845603    -0.7026274922222970551209727650599867231440312852895796549448059635
0.0374938925822800299856185635187930282343318531675349904357560728    -0.6659905613354794469975460340823880799332085844756958684344667497
0.0391285317519630841233108018226088606261799149434694791358010055    -0.6276712806468851807269547649161627885872084383036925026182067954
0.0406643288824174409682850175166634173129867186716685744742521098    -0.5877664479530873380021495501219877638581974968476430175898743597
0.0420974044103850966430226269038388460100870864191350467292943370    -0.5463768663002510958161003845236337072321710915783856754287876210
0.0434241382580474195800692304339443041957713299146806060582753134    -0.5036070893447559559170208059316162769658419672960537442107068594
0.0446411789771244142936446918091377844103487557080767163400970285    -0.4595651572401133952071439780757526514186020870136465975265312784
0.0457454522145701807772322722976961876704039463776258646421509380    -0.4143623237171260481295887506576113451358892995718422476367032246
0.0467341684784155248022070550794847787621597834290144551226695909    -0.3681127750465645296630218309525079220172354555351647446607593969
0.0476048301841012322704500882678663730607374180494971446308552813    -0.3209333415941940040741016010034563850858587021593629647898694825
0.0483552379634776728348031814784589867622005024623890561810127264    -0.2729432026967263431886836279734809808548616203435099361683459868
0.0489834962205178371048511270262173725653489027963997494051747331    -0.2242635856041655316689913933448827006089652567174946926548055577
0.0494880179196992925278658109047740184636337882109571078096503888    -0.1750174592490156285556874239042360317005077094464470396665434370
0.0498675285949523942447613106348428168881959590452746142090264068    -0.1253292236158968086196489994997262577967554007894758046345508905
0.0501210695690432880748041001015309680048953199339213610412642653    -0.0753243954962343327638269391178708775768458123144207998372459878
0.0502480003752562816884029489951356683165047234765657809277888839    -0.0251292914218206147270882759991469623145049180248149489791202711
0.0502480003752562816884029489951356683165047234765657809277888839    0.0251292914218206147270882759991469623145049180248149489791202711
0.0501210695690432880748041001015309680048953199339213610412642653    0.0753243954962343327638269391178708775768458123144207998372459878
0.0498675285949523942447613106348428168881959590452746142090264068    0.1253292236158968086196489994997262577967554007894758046345508905
0.0494880179196992925278658109047740184636337882109571078096503888    0.1750174592490156285556874239042360317005077094464470396665434370
0.0489834962205178371048511270262173725653489027963997494051747331    0.2242635856041655316689913933448827006089652567174946926548055577
0.0483552379634776728348031814784589867622005024623890561810127264    0.2729432026967263431886836279734809808548616203435099361683459868
0.0476048301841012322704500882678663730607374180494971446308552813    0.3209333415941940040741016010034563850858587021593629647898694825
0.0467341684784155248022070550794847787621597834290144551226695909    0.3681127750465645296630218309525079220172354555351647446607593969
0.0457454522145701807772322722976961876704039463776258646421509380    0.4143623237171260481295887506576113451358892995718422476367032246
0.0446411789771244142936446918091377844103487557080767163400970285    0.4595651572401133952071439780757526514186020870136465975265312784
0.0434241382580474195800692304339443041957713299146806060582753134    0.5036070893447559559170208059316162769658419672960537442107068594
0.0420974044103850966430226269038388460100870864191350467292943370    0.5463768663002510958161003845236337072321710915783856754287876210
0.0406643288824174409682850175166634173129867186716685744742521098    0.5877664479530873380021495501219877638581974968476430175898743597
0.0391285317519630841233108018226088606261799149434694791358010055    0.6276712806468851807269547649161627885872084383036925026182067954
0.0374938925822800299856185635187930282343318531675349904357560728    0.6659905613354794469975460340823880799332085844756958684344667497
0.0357645406227681412855873783617220425845980677311738019079845603    0.7026274922222970551209727650599867231440312852895796549448059635
0.0339448443794105450911174772542360577864065417327114703325481292    0.7374895252831567498607842765014394602801034356311800857351341826
0.0320394005816246781063392372781563731304930348629342626317560631    0.7704885960554193189909446949950481884538092655054239861505444658
0.0300530225739898700770094692270623794862287815545353735424510093    0.8015413461039763715385055144953863473061894831078503939175564875
0.0279907281633146375412382927540413048736838088959792963682892295    0.8305693336040048513459311094772082229198112394952065156329913273
0.0258577269540246980270955665535105155948598700257474232906704635    0.8574992315120709228184033205446755068915089375116217464180942771
0.0236594072086827925745168006505345647014315294308404535427661834    0.8822630128318973630726866243558297560171257919193862399191307456
0.0214013222776699688411790899649052776408375205805733303934374078    0.9047981225210934657584856024283756243984498926103230517482465854
0.0190891766585731987325037124822838057744426750473217115064419779    0.9250476356362037552273001307570486194486305240426581245971985609
0.0167288117901773162885504717840924583631319372334291324375545184    0.9429604013923285038263648116233515872414181587402121748881098396
0.0143261918238065177674028823094145960770999460756654785786103799    0.9584911729739270920295604751659709433171066477828472111581257748
0.0118873901170105019448189389667979365274285962699907243634128468    0.9716007233716518064471794825403058351541605539292646774580019389
0.0094185794284203876379375634065664281554336429515669993478583407    0.9822559490972366494911031280097924715630012030539508450159822171
0.0069260419018309608717028240992570671195472130984561218156398231    0.9904299711892903524280710618606806450023153136771405800321586167
0.0044163334569309048132741242554906407297119821304948961652056465    0.9961022963162671328851484304761714926321402172798419577342691571
0.0018992056795136904803973438609351401708788497723689766323043390    0.9992598593087770296984084650357989380196344605102218530613955142
