0.0012677916340853596632824593968665654447037453670499548345398302    -0.9995059483621530781062017495337633658203499113867397843878118670
0.0029491029536424749003933689517089833244610194135017245086475676    -0.9973977863553554366914343808342012804079239354682929631505641616
0.0046279352280374213261286143763917117505289944369867673514095509    -0.9936087727235269846161914319288025046146552948785045689628746683
0.0062991804973284458665734202403158653317895196449734472178907335    -0.9881444533598374384986447582242286309079225090360906426046107716
0.0079598474772397346211188086293473806107190978541944261360531632    -0.9810139389756558952518381138329650290846398629569752020119530753
0.0096071054147137540824043426600492757993402080848916601553223373    -0.9722292285203769044780801895946755973529404768611139068420604768
0.0112381685696676872396749095312965106048416923974066905876227961    -0.9618051267587678271680321161523457663396514904471052237173482710
0.0128502838475101449449253668158210595101917998064548763407627865    -0.9497592077108963850848954369686913654587906336465276387910361252
0.0144407317482766799398897817242536688730342995335463862204102827    -0.9361117819348107962632229989211782270502239452440106845423297813
0.0160068299122485708885102273112943802099220693484813197857093815    -0.9208858612521501184915814250709978101542226853195386624516705762
0.0175459372914742309541996904827437862954389147851647198179135187    -0.9041071195455668285444259307042853157172500541850226418032862399
0.0190554584671905828068022611703513015153222655943950861928519459    -0.8858038492920827872149102025363509881464959259723190014202448910
0.0205328479679080210929750518202067218002042356996553823984512683    -0.8660069137719819552278677360591685424353324258452883781393873620
0.0219756145344162491680130548022530279660278846225831549304072492    -0.8447496949833423940108902855418639520581620255686594959797504755
0.0233813253070111866224797045206482399256530219787108646768664207    -0.8220680373289746134777707102612314717914984756841278417451796358
0.0247476099206596716432644633445918054218996739464063414989429981    -0.7980001871612001697528104675023821705406809359966601339826799920
0.0260721644979859835242745409639064788668970042815852497159191751    -0.7725867282818097612976734679869030078568681430530373235299014388
0.0273527555318275216741524478615613452199577800960445380763693873    -0.7458705135036104431486387620535994503297154404027358185330141630
0.0285872236500540037739750531785686993149482155836772934372997257    -0.7178965923877036393730055090899846417874047128588341611076430610
0.0297734872559050409567073546644355294330262069652330742017160892    -0.6887121352776405969965246752758442809015845003316102114848931892
0.0309095460374915953899369152555472832430740190851736894923929954    -0.6583663537581426302752326602080937504818195631591224206094734623
0.0319934843404216000685351788614136407925668316281453411921427137    -0.6269104176722665591454521158960929395269524869245315959312310240
0.0330234743977917410065415326955970304738119743107038295532579490    -0.5943973688367929181515062903490790752497290581410257731104743621
0.0339977794120563808467424747582566214288484954933381730039061595    -0.5608820316012374789991616656305577683992892403563809858129501489
0.0349147564835507674441254021073976142469803092482502045926352320    -0.5264209204012425909553074689410361376192250306235474794381598370
0.0357728593807139475277793793588240289649039559440597077466769195    -0.4910721444621938648617452450666292545115954574240880850893307185
0.0365706411473296170072440495990840508149143616700578763881752101    -0.4548953098137263394338407017803050282931860657034029056316210565
0.0373067565423816098275671633617123257529472464552741324743198589    -0.4179514187803272987956595036788974521616402836757481891552354330
0.0379799643084052831952353322096981090267544912096844133274668421    -0.3803027671175044434675044758047145868314284454477036562078204797
0.0385891292645067383429211983364555312533144117872695958136851721    -0.3420128389669620239312012089742281262425912567170438427710062381
0.0391332242205184407675074994579122224899896642862802507660654233    -0.3031461998079077780994151775810902728601839895259310920935011653
0.0396113317090620584231467148482992630473626597807149709546004744    -0.2637683875849942764794054833193661510524798974209396757295603794
0.0400226455325968261164617317211444482459424880149200923163024029    -0.2239458021964741337626375973270811937991201545195262521624515833
0.0403664721228440231540956228470661888417253131130032295763995605    -0.1837455935289144774192444311351805342118781489231243224832961470
0.0406422317102947387774549688589795489675538877307426367590114778    -0.1432355482272675214455080919423401039416669575205863725195494132
0.0408494593018284922803917962422068007475918270413382570737591008    -0.1024839753912270183000509372538079282754850735917448264068361639
0.0409878054647939515413084031546282236115438956678401529630257228    -0.0615595913906112084286677453088285953319423245747257278192273584
0.0410570369162294225932597138791647308312665180922604879210705775    -0.0205314039939986355017467582099578617246574476034919184949495335
0.0410570369162294225932597138791647308312665180922604879210705775    0.0205314039939986355017467582099578617246574476034919184949495335
0.0409878054647939515413084031546282236115438956678401529630257228    0.0615595913906112084286677453088285953319423245747257278192273584
0.0408494593018284922803917962422068007475918270413382570737591008    0.1024839753912270183000509372538079282754850735917448264068361639
0.0406422317102947387774549688589795489675538877307426367590114778    0.1432355482272675214455080919423401039416669575205863725195494132
0.0403664721228440231540956228470661888417253131130032295763995605    0.1837455935289144774192444311351805342118781489231243224832961470
0.0400226455325968261164617317211444482459424880149200923163024029    0.2239458021964741337626375973270811937991201545195262521624515833
0.0396113317090620584231467148482992630473626597807149709546004744    0.2637683875849942764794054833193661510524798974209396757295603794
0.0391332242205184407675074994579122224899896642862802507660654233    0.3031461998079077780994151775810902728601839895259310920935011653
0.0385891292645067383429211983364555312533144117872695958136851721    0.3420128389669620239312012089742281262425912567170438427710062381
0.0379799643084052831952353322096981090267544912096844133274668421    0.3803027671175044434675044758047145868314284454477036562078204797
0.0373067565423816098275671633617123257529472464552741324743198589    0.4179514187803272987956595036788974521616402836757481891552354330
0.0365706411473296170072440495990840508149143616700578763881752101    0.4548953098137263394338407017803050282931860657034029056316210565
0.0357728593807139475277793793588240289649039559440597077466769195    0.4910721444621938648617452450666292545115954574240880850893307185
0.0349147564835507674441254021073976142469803092482502045926352320    0.5264209204012425909553074689410361376192250306235474794381598370
0.0339977794120563808467424747582566214288484954933381730039061595    0.5608820316012374789991616656305577683992892403563809858129501489
0.0330234743977917410065415326955970304738119743107038295532579490    0.5943973688367929181515062903490790752497290581410257731104743621
0.0319934843404216000685351788614136407925668316281453411921427137    0.6269104176722665591454521158960929395269524869245315959312310240
0.0309095460374915953899369152555472832430740190851736894923929954    0.6583663537581426302752326602080937504818195631591224206094734623
0.0297734872559050409567073546644355294330262069652330742017160892    0.6887121352776405969965246752758442809015845003316102114848931892
0.0285872236500540037739750531785686993149482155836772934372997257    0.7178965923877036393730055090899846417874047128588341611076430610
0.0273527555318275216741524478615613452199577800960445380763693873    0.7458705135036104431486387620535994503297154404027358185330141630
0.0260721644979859835242745409639064788668970042815852497159191751    0.7725867282818097612976734679869030078568681430530373235299014388
0.0247476099206596716432644633445918054218996739464063414989429981    0.7980001871612001697528104675023821705406809359966601339826799920
0.0233813253070111866224797045206482399256530219787108646768664207    0.8220680373289746134777707102612314717914984756841278417451796358
0.0219756145344162491680130548022530279660278846225831549304072492    0.8447496949833423940108902855418639520581620255686594959797504755
0.0205328479679080210929750518202067218002042356996553823984512683    0.8660069137719819552278677360591685424353324258452883781393873620
0.0190554584671905828068022611703513015153222655943950861928519459    0.8858038492920827872149102025363509881464959259723190014202448910
0.0175459372914742309541996904827437862954389147851647198179135187    0.9041071195455668285444259307042853157172500541850226418032862399
0.0160068299122485708885102273112943802099220693484813197857093815    0.9208858612521501184915814250709978101542226853195386624516705762
0.0144407317482766799398897817242536688730342995335463862204102827    0.9361117819348107962632229989211782270502239452440106845423297813
0.0128502838475101449449253668158210595101917998064548763407627865    0.9497592077108963850848954369686913654587906336465276387910361252
0.0112381685696676872396749095312965106048416923974066905876227961    0.9618051267587678271680321161523457663396514904471052237173482710
0.0096071054147137540824043426600492757993402080848916601553223373    0.9722292285203769044780801895946755973529404768611139068420604768
0.0079598474772397346211188086293473806107190978541944261360531632    0.9810139389756558952518381138329650290846398629569752020119530753
0.0062991804973284458665734202403158653317895196449734472178907335    0.9881444533598374384986447582242286309079225090360906426046107716
0.0046279352280374213261286143763917117505289944369867673514095509    0.9936087727235269846161914319288025046146552948785045689628746683
0.0029491029536424749003933689517089833244610194135017245086475676    0.9973977863553554366914343808342012804079239354682929631505641616
0.0012677916340853596632824593968665654447037453670499548345398302    0.9995059483621530781062017495337633658203499113867397843878118670
