0.0031533460523058386326773115438914875782839388316936222952094933    -0.9987710072524261186005414915631136400889376502767210386129404814
0.0073275539012762621023839796217865500587079025592013532748818295    -0.9935301722663507575479287508490741183566147495946719296171518381
0.0114772345792345394895926676090916280864205063087476406537668167    -0.9841245837228268577445836000265988305892392234173847299576501680
0.0155793157229438487281769558344603139763762689915524695130934311    -0.9705915925462472504614119838006600573024339116308837060283723522
0.0196161604573555278144607196522127096958130377341322391811208305    -0.9529877031604308607229606660257183432085413318239187368639476035
0.0235707608393243791405193013784492302217297385221885987342390649    -0.9313866907065543331141743801016012677199970856189504298706048643
0.0274265097083569482000738362625058204511841551616509759972809375    -0.9058791367155696728220748356710117883122621998274108453524854255
0.0311672278327980889020657568463544194542853414835695355095437189    -0.8765720202742478859056935548050967545616485337299619927478757519
0.0347772225647704388925485859638024105972813969070680987180066362    -0.8435882616243935307110898445196560498708870117375524015149131999
0.0382413510658307063172172565237156178638239683549822889292581910    -0.8070662040294426270825530430245384459730130294604153865758629418
0.0415450829434647492140588223610647977534728260340380630827348212    -0.7671590325157403392538554375229690536226423308482073722351285887
0.0446745608566942804194485871258503949884627868625020084329214463    -0.7240341309238146546744822334936652465850928122807223627293663026
0.0476166584924904748259066234789298301579980667434496853967698963    -0.6778723796326639052118512806759090588499546790260486130710406430
0.0503590355538544749578076190878656060329940930259063306937920572    -0.6288673967765136239951649330699946520249089997901617709817329945
0.0528901894851936670955050562646989146617264856331091863864912338    -0.5772247260839727038178092385404787728539972861401955280523973994
0.0551995036999841628682034951916354390044509256075610005480562579    -0.5231609747222330336782258691375085262891876218118841075802295472
0.0572772921004032157051502346847005762415271230041120775388499375    -0.4669029047509584045449288616507985092368121042585169441818691951
0.0591148396983956357464748174335199106596556025570549985562911335    -0.4086864819907167299162254958146332864599228429948880647711509833
0.0607044391658938800529692320278204778852608642564777551115114447    -0.3487558862921607381598179372704079161343096499683925760321229678
0.0620394231598926639041977841375985183063833996650914615690378145    -0.2873624873554555767358864613167976878515583058010397789085000322
0.0631141922862540256571260227502333181274136433711007912111472479    -0.2247637903946890612248654401746922774385618040416548061647426410
0.0639242385846481866239062018255154089189740849826429998908742075    -0.1612223560688917180564373907834976947743743797418951177032426376
0.0644661644359500822065041936577050657256919244555303087605584565    -0.0970046992094626989300539558536245201527362293009369864305807659
0.0647376968126839225030249387365915535520819189466365100145630955    -0.0323801709628693620333222431521344420459628023615180924250032200
0.0647376968126839225030249387365915535520819189466365100145630955    0.0323801709628693620333222431521344420459628023615180924250032200
0.0644661644359500822065041936577050657256919244555303087605584565    0.0970046992094626989300539558536245201527362293009369864305807659
0.0639242385846481866239062018255154089189740849826429998908742075    0.1612223560688917180564373907834976947743743797418951177032426376
0.0631141922862540256571260227502333181274136433711007912111472479    0.2247637903946890612248654401746922774385618040416548061647426410
0.0620394231598926639041977841375985183063833996650914615690378145    0.2873624873554555767358864613167976878515583058010397789085000322
0.0607044391658938800529692320278204778852608642564777551115114447    0.3487558862921607381598179372704079161343096499683925760321229678
0.0591148396983956357464748174335199106596556025570549985562911335    0.4086864819907167299162254958146332864599228429948880647711509833
0.0572772921004032157051502346847005762415271230041120775388499375    0.4669029047509584045449288616507985092368121042585169441818691951
0.0551995036999841628682034951916354390044509256075610005480562579    0.5231609747222330336782258691375085262891876218118841075802295472
0.0528901894851936670955050562646989146617264856331091863864912338    0.5772247260839727038178092385404787728539972861401955280523973994
0.0503590355538544749578076190878656060329940930259063306937920572    0.6288673967765136239951649330699946520249089997901617709817329945
0.0476166584924904748259066234789298301579980667434496853967698963    0.6778723796326639052118512806759090588499546790260486130710406430
0.0446745608566942804194485871258503949884627868625020084329214463    0.7240341309238146546744822334936652465850928122807223627293663026
0.0415450829434647492140588223610647977534728260340380630827348212    0.7671590325157403392538554375229690536226423308482073722351285887
0.0382413510658307063172172565237156178638239683549822889292581910    0.8070662040294426270825530430245384459730130294604153865758629418
0.0347772225647704388925485859638024105972813969070680987180066362    0.8435882616243935307110898445196560498708870117375524015149131999
0.0311672278327980889020657568463544194542853414835695355095437189    0.8765720202742478859056935548050967545616485337299619927478757519
0.0274265097083569482000738362625058204511841551616509759972809375    0.9058791367155696728220748356710117883122621998274108453524854255
0.0235707608393243791405193013784492302217297385221885987342390649    0.9313866907065543331141743801016012677199970856189504298706048643
0.0196161604573555278144607196522127096958130377341322391811208305    0.9529877031604308607229606660257183432085413318239187368639476035
0.0155793157229438487281769558344603139763762689915524695130934311    0.9705915925462472504614119838006600573024339116308837060283723522
0.0114772345792345394895926676090916280864205063087476406537668167    0.9841245837228268577445836000265988305892392234173847299576501680
0.0073275539012762621023839796217865500587079025592013532748818295    0.9935301722663507575479287508490741183566147495946719296171518381
0.0031533460523058386326773115438914875782839388316936222952094933    0.9987710072524261186005414915631136400889376502767210386129404814
