0.0010149719089677436953730225467820449304112780254466332733136232    -0.9996044773574784543263035949901570909429900073641037238616901929
0.0023613317042850208967673787978627184267555687481191183926650889    -0.9979166011981169331503088359690629242557300308548740026942057364
0.0037065001257593167068709987434738838722373943922468683877585491    -0.9948823742956162784533671440839873707212904631327345786384302141
0.0050468384269244427254517718527758776872142100919819030855428563    -0.9905052177164159637871243299213254051974544381093282983114059350
0.0063803985878975150986859252334542670112679314679511777657582228    -0.9847909576855804973271640948744088632464696146241629444163895961
0.0077053559603827570798971704036137323149988917568522385967049474    -0.9777472884122433919333338729391031236984747190059273424883003782
0.0090199154399936312789671936533570496884840951487220286642574998    -0.9693837119236783280051362036142529440735266681720892710799228207
0.0103223002305242458938162097228536045210267854377125345008220370    -0.9597115159571883623963468528564228807288655109689394968841446756
0.0116107512867038980096243119023725195021919819684771238110490718    -0.9487437562545789534046485767619489832730981851257690913198574097
0.0128835288564980842905062823114726749678556144904164890410036558    -0.9364952381164306996866976016504618867035319822515892772125948891
0.0141389145484008329305554204793362441526929459658609298246590323    -0.9229824960960900455887694558857380753242866144356338222269269541
0.0153752135423896268744083905318223899100393359267737278666632003    -0.9082237715390918848968250810425926258119040103353479958985616184
0.0165907568311546700752050496204174347267183151554580937882652491    -0.8922389878913559015817137426467186802801044916774398032288751795
0.0177839034513981709077436934791412653587006767506111139516188282    -0.8750497237690970876386529493602237103326908466382213627235339760
0.0189530426881828404468051959934882242843210642258866109187704215    -0.8566791838099561890958113225444592375340077061119938603824650562
0.0200965962435754217417945413855980098685225994692699677950131363    -0.8371521673370826501985418487093333977756841735528407515415140646
0.0212130203640893796724167094099740775915079786558973440938238051    -0.8164950348747916147205732479991962494742587092313004489705327611
0.0223008079228393741894575401537016050632124875460276330651536819    -0.7947356725591165054471493215142105788848818958783706759614411665
0.0233584904529898918976984331521214888157540398758504121418630894    -0.7719034544902930786603110611113895544189164243653187148757098131
0.0243846401294356831424158213218527724815481254272392322288518506    -0.7480292030774340739562699028118131496199041080118522320813668963
0.0253778716958660884773696752179383137519975654917898840406457246    -0.7231451474286010213845833932145579078365580438176646378158984065
0.0263368443345143598217315378122494222804484425417006876034987875    -0.6972848798422495476509639898960967702857533584063806604506182197
0.0272602634760111647857699512380349793622660022157304121259974312    -0.6704833104586626607026720745453078856275071359646733789529437836
0.0281468825468650758463830934009779104254038733849119713608390677    -0.6427766201325147148433994316089965766051702125201583276765354655
0.0289955046521901520898662724900177986592564395093198297494828529    -0.6142022115901369930712969348604490058375637097270374579348372792
0.0298049841913958873756123674554846431690709851294565197863228235    -0.5847986589373880857102920564226975541002570901425875050149403379
0.0305742284046499957239241118161391068683974018909795713084662903    -0.5546056555862694331589907512103381142277084292415304083630469315
0.0313021988480208704483969703043519495559167502313019581135322221    -0.5236639606705678747880453361709299282965077682386124945997427980
0.0319879127953046744597700005754962989666275490189846158646718287    -0.4920153440228513104771421254470989829507732537516559524855707942
0.0326304445646421781890377122562590533177998566857916499368713188    -0.4597025297870887207614694212825177479624241173944065711100381929
0.0332289267681327697625285749638690333308878465214180270949285322    -0.4267691387430097017219944133321300210124176249600874692659600567
0.0337825514827575303313117325538792694765108553598659198597096673    -0.3932596294200591906502147529600968774842579392168152088740808459
0.0342905713410298467082222575899932937681990970959774145485761122    -0.3592192380804380487566448062329149680673042610089159878156320138
0.0347523005399006375292473538143687217344072864625574091555407596    -0.3246939176522475574540165553369527634036953893176049089364660620
0.0351671157665557882498128509669489167429107059329623119842038722    -0.2897302756951737035387096274063607286315825478678989686501385674
0.0355344570398556990819915135007879559970354234212172814809483018    -0.2543755114824535224977306603739879914783058786232965801370784426
0.0358538284662808125569151982664331905008381076721435276128180068    -0.2186773522840590157102432911882402682644471890251460437333925945
0.0361247989093624603747518806650170906002713111716841777015593641    -0.1826839889371126738762810895370865939198293020508033307038669915
0.0363470025716952037667567744435830894598158539605570888281253752    -0.1464440107905109892109015216972150688698806390371415768913409519
0.0365201394887448848574766127853175464233565047608209354482373246    -0.1100063401115772373526800169142040064525071076944123669753921211
0.0366439759337857024864069266032386355418181719235210522934862718    -0.0734201660432911256195077272351553999356636623078544738829629451
0.0367183447334196162221522545678728991319507545230083764672335005    -0.0367348782012496635204687686412114736089252374458312538949079335
0.0367431454932521066002066320325379915187037891349963928814934352    0.0000000000000000000000000000000000000000000000000000000000000000
0.0367183447334196162221522545678728991319507545230083764672335005    0.0367348782012496635204687686412114736089252374458312538949079335
0.0366439759337857024864069266032386355418181719235210522934862718    0.0734201660432911256195077272351553999356636623078544738829629451
0.0365201394887448848574766127853175464233565047608209354482373246    0.1100063401115772373526800169142040064525071076944123669753921211
0.0363470025716952037667567744435830894598158539605570888281253752    0.1464440107905109892109015216972150688698806390371415768913409519
0.0361247989093624603747518806650170906002713111716841777015593641    0.1826839889371126738762810895370865939198293020508033307038669915
0.0358538284662808125569151982664331905008381076721435276128180068    0.2186773522840590157102432911882402682644471890251460437333925945
0.0355344570398556990819915135007879559970354234212172814809483018    0.2543755114824535224977306603739879914783058786232965801370784426
0.0351671157665557882498128509669489167429107059329623119842038722    0.2897302756951737035387096274063607286315825478678989686501385674
0.0347523005399006375292473538143687217344072864625574091555407596    0.3246939176522475574540165553369527634036953893176049089364660620
0.0342905713410298467082222575899932937681990970959774145485761122    0.3592192380804380487566448062329149680673042610089159878156320138
0.0337825514827575303313117325538792694765108553598659198597096673    0.3932596294200591906502147529600968774842579392168152088740808459
0.0332289267681327697625285749638690333308878465214180270949285322    0.4267691387430097017219944133321300210124176249600874692659600567
0.0326304445646421781890377122562590533177998566857916499368713188    0.4597025297870887207614694212825177479624241173944065711100381929
0.0319879127953046744597700005754962989666275490189846158646718287    0.4920153440228513104771421254470989829507732537516559524855707942
0.0313021988480208704483969703043519495559167502313019581135322221    0.5236639606705678747880453361709299282965077682386124945997427980
0.0305742284046499957239241118161391068683974018909795713084662903    0.5546056555862694331589907512103381142277084292415304083630469315
0.0298049841913958873756123674554846431690709851294565197863228235    0.5847986589373880857102920564226975541002570901425875050149403379
0.0289955046521901520898662724900177986592564395093198297494828529    0.6142022115901369930712969348604490058375637097270374579348372792
0.0281468825468650758463830934009779104254038733849119713608390677    0.6427766201325147148433994316089965766051702125201583276765354655
0.0272602634760111647857699512380349793622660022157304121259974312    0.6704833104586626607026720745453078856275071359646733789529437836
0.0263368443345143598217315378122494222804484425417006876034987875    0.6972848798422495476509639898960967702857533584063806604506182197
0.0253778716958660884773696752179383137519975654917898840406457246    0.7231451474286010213845833932145579078365580438176646378158984065
0.0243846401294356831424158213218527724815481254272392322288518506    0.7480292030774340739562699028118131496199041080118522320813668963
0.0233584904529898918976984331521214888157540398758504121418630894    0.7719034544902930786603110611113895544189164243653187148757098131
0.0223008079228393741894575401537016050632124875460276330651536819    0.7947356725591165054471493215142105788848818958783706759614411665
0.0212130203640893796724167094099740775915079786558973440938238051    0.8164950348747916147205732479991962494742587092313004489705327611
0.0200965962435754217417945413855980098685225994692699677950131363    0.8371521673370826501985418487093333977756841735528407515415140646
0.0189530426881828404468051959934882242843210642258866109187704215    0.8566791838099561890958113225444592375340077061119938603824650562
0.0177839034513981709077436934791412653587006767506111139516188282    0.8750497237690970876386529493602237103326908466382213627235339760
0.0165907568311546700752050496204174347267183151554580937882652491    0.8922389878913559015817137426467186802801044916774398032288751795
0.0153752135423896268744083905318223899100393359267737278666632003    0.9082237715390918848968250810425926258119040103353479958985616184
0.0141389145484008329305554204793362441526929459658609298246590323    0.9229824960960900455887694558857380753242866144356338222269269541
0.0128835288564980842905062823114726749678556144904164890410036558    0.9364952381164306996866976016504618867035319822515892772125948891
0.0116107512867038980096243119023725195021919819684771238110490718    0.9487437562545789534046485767619489832730981851257690913198574097
0.0103223002305242458938162097228536045210267854377125345008220370    0.9597115159571883623963468528564228807288655109689394968841446756
0.0090199154399936312789671936533570496884840951487220286642574998    0.9693837119236783280051362036142529440735266681720892710799228207
0.0077053559603827570798971704036137323149988917568522385967049474    0.9777472884122433919333338729391031236984747190059273424883003782
0.0063803985878975150986859252334542670112679314679511777657582228    0.9847909576855804973271640948744088632464696146241629444163895961
0.0050468384269244427254517718527758776872142100919819030855428563    0.9905052177164159637871243299213254051974544381093282983114059350
0.0037065001257593167068709987434738838722373943922468683877585491    0.9948823742956162784533671440839873707212904631327345786384302141
0.0023613317042850208967673787978627184267555687481191183926650889    0.9979166011981169331503088359690629242557300308548740026942057364
0.0010149719089677436953730225467820449304112780254466332733136232    0.9996044773574784543263035949901570909429900073641037238616901929
