0.0010901185952758308661071915382399943192336068879330838037891562    -0.9995751915016526488741291905352509830810369171808630752334421196
0.0025360546968561061098217538509810281220338999993322831720062802    -0.9977623858263858625623583852614174361582552182608495571678507651
0.0039804579378560746190288467341341437514166177341244293247253801    -0.9945037683780756289339997752361894655489191520517205871554882331
0.0054192762324467650907045797337047345896059908872982593985067415    -0.9898033388399089499326253172613966089831221609253426998731785518
0.0068502745341835261843262645100470967423134027799303810636626890    -0.9836678235220076033678881268572440846322019408755340279551821407
0.0082713518183836856044303827066560514320319828651277122062561872    -0.9761060970944988286914197677066415424358760332226637768351580042
0.0096804407043710737369654943141086325659398276766320524071841612    -0.9671291162525906959960770166816013613010454132979201870343725035
0.0110754957817598963202250549646583254314081016302030152414489231    -0.9567498938616109031217993425595775931349690598894086716133875281
0.0124544934011421046797336165010059687610817304951596730524928110    -0.9449834774389604891822460242376927540786739068161054299318097429
0.0138154337141264593877276836865589227729547654500005344224430206    -0.9318469264546228878547326175745465406526028038990209528990123206
0.0151563432707625617884689528120764324610473584376475674227381065    -0.9173592872532801071457615328918430543333686594005572542934559147
0.0164752777639837088910122366082057038079616306747691303323875274    -0.9015415652888412581962850052542202581743508457904663707667090280
0.0177703247984984071469819681257935127863830610600643163569893628    -0.8844166945967247082279907690855594509234044964578817267550732566
0.0190396066401789250730393645914118791617888847439611517851424284    -0.8660095045047654485706842639361161029249515297394274217971954877
0.0202812829269121589015706796706799725547575206633584161905502258    -0.8463466836129137017957243352602178936487796647036542935245757096
0.0214935533307748440434896638081206215542710808228577059981855765    -0.8254567410857676560286347088752908455343223231093330327780848491
0.0226746601649141031024419830178022352344910812409552531069826009    -0.8033699653101082993018824990834626101465390589012993119638658553
0.0238228909300478263422270849747114695614948273049929425560422748    -0.7801183799753582451939667397737765149208518574901431600020258967
0.0249365807962407551557722282855578957908967239542453839985764282    -0.7557356976395604172975540912201760206289583965539353113132220086
0.0260141150160170237538685231099498223310720673895295577405615034    -0.7302572708475962450516932165104150227579916575569666989597453574
0.0270539312651247715197867966623128210646580138543035255581312432    -0.7037200408721666784938356282416719302858796985055715181209451674
0.0280545219074542304717139753327372167831395899050286291460837136    -0.6761624841516470245659510995404416840450414414451684323015711397
0.0290144361807644039614530300613370847175292553805220390574238530    -0.6476245565023465985663115038607929833510821515950614489646966465
0.0299322823000127246350859619826187512902048713075355169216659805    -0.6181476351859786820410299991712344296383069800665779440722854580
0.0308067294752156298136678827883139310594721677203428029831127868    -0.5877744589162848671537088704682128887499316015534758843675295092
0.0316365098409002455376233243220748522877292071071711550531896382    -0.5565490658917638123473217563071515002250319247687160048828139111
0.0324204202943406050778364078264249687298695060308868303229036983    -0.5245167299443277679750794647977000348118080783585910208432414916
0.0331573242399072113277583844033247814787709504668201627595032804    -0.4917238948964493224634590731489516215283745111946256368490596751
0.0338461532369968587446365621322667183636043624173830743812235675    -0.4582181072219631978228632224853247594272285644800617175402958807
0.0344859085491507055073788069655919769659472697458593311257425497    -0.4240479471081507221635592773394534092844582973654582242401823385
0.0350756625921126903847803057747133558315780668107624886579718811    -0.3892629580190548159210471625555835056427591603374301149460776181
0.0356145602787274726804959152594490211974036692669733912786043901    -0.3539135748621479364053946775247929843045123844334211978707290269
0.0361018202587270230756955225213376756703200135783449957745328986    -0.3180510508625015050100843386511411806934242026598327774517442085
0.0365367360516076528421977328252687511401480881133258473292998319    -0.2817273832504801023682640580329586787143947691661016132012201776
0.0369186770709544569985316728321329461793810273865084787293818250    -0.2449952378707045378391765280282213528958942213804021847875807693
0.0372470895387276641878400360702367115600056836726997632890704543    -0.2079078728215923509662291778776403814564599143115650174060851841
0.0375214972881850208715740719807007412142276558075945697193530499    -0.1705190612361901597670993669204334137162640815370194734510514485
0.0377415024542758696715370386310274864968513629397145195553575062    -0.1328830133162575257648135621364291485217141498227815894989847826
0.0379067860505057847794642260219639305618309762176857076826721677    -0.0950542977326448739528867409203856737102453877522802817632859190
0.0380171084314352699053027742360904481048756814057811027615844550    -0.0570877625059269319029596792206648517273489687828694075863911093
0.0380723096401418712076960178256713855702684181666332183325198442    -0.0190384554820068137614546786131953746877775557327497191016538071
0.0380723096401418712076960178256713855702684181666332183325198442    0.0190384554820068137614546786131953746877775557327497191016538071
0.0380171084314352699053027742360904481048756814057811027615844550    0.0570877625059269319029596792206648517273489687828694075863911093
0.0379067860505057847794642260219639305618309762176857076826721677    0.0950542977326448739528867409203856737102453877522802817632859190
0.0377415024542758696715370386310274864968513629397145195553575062    0.1328830133162575257648135621364291485217141498227815894989847826
0.0375214972881850208715740719807007412142276558075945697193530499    0.1705190612361901597670993669204334137162640815370194734510514485
0.0372470895387276641878400360702367115600056836726997632890704543    0.2079078728215923509662291778776403814564599143115650174060851841
0.0369186770709544569985316728321329461793810273865084787293818250    0.2449952378707045378391765280282213528958942213804021847875807693
0.0365367360516076528421977328252687511401480881133258473292998319    0.2817273832504801023682640580329586787143947691661016132012201776
0.0361018202587270230756955225213376756703200135783449957745328986    0.3180510508625015050100843386511411806934242026598327774517442085
0.0356145602787274726804959152594490211974036692669733912786043901    0.3539135748621479364053946775247929843045123844334211978707290269
0.0350756625921126903847803057747133558315780668107624886579718811    0.3892629580190548159210471625555835056427591603374301149460776181
0.0344859085491507055073788069655919769659472697458593311257425497    0.4240479471081507221635592773394534092844582973654582242401823385
0.0338461532369968587446365621322667183636043624173830743812235675    0.4582181072219631978228632224853247594272285644800617175402958807
0.0331573242399072113277583844033247814787709504668201627595032804    0.4917238948964493224634590731489516215283745111946256368490596751
0.0324204202943406050778364078264249687298695060308868303229036983    0.5245167299443277679750794647977000348118080783585910208432414916
0.0316365098409002455376233243220748522877292071071711550531896382    0.5565490658917638123473217563071515002250319247687160048828139111
0.0308067294752156298136678827883139310594721677203428029831127868    0.5877744589162848671537088704682128887499316015534758843675295092
0.0299322823000127246350859619826187512902048713075355169216659805    0.6181476351859786820410299991712344296383069800665779440722854580
0.0290144361807644039614530300613370847175292553805220390574238530    0.6476245565023465985663115038607929833510821515950614489646966465
0.0280545219074542304717139753327372167831395899050286291460837136    0.6761624841516470245659510995404416840450414414451684323015711397
0.0270539312651247715197867966623128210646580138543035255581312432    0.7037200408721666784938356282416719302858796985055715181209451674
0.0260141150160170237538685231099498223310720673895295577405615034    0.7302572708475962450516932165104150227579916575569666989597453574
0.0249365807962407551557722282855578957908967239542453839985764282    0.7557356976395604172975540912201760206289583965539353113132220086
0.0238228909300478263422270849747114695614948273049929425560422748    0.7801183799753582451939667397737765149208518574901431600020258967
0.0226746601649141031024419830178022352344910812409552531069826009    0.8033699653101082993018824990834626101465390589012993119638658553
0.0214935533307748440434896638081206215542710808228577059981855765    0.8254567410857676560286347088752908455343223231093330327780848491
0.0202812829269121589015706796706799725547575206633584161905502258    0.8463466836129137017957243352602178936487796647036542935245757096
0.0190396066401789250730393645914118791617888847439611517851424284    0.8660095045047654485706842639361161029249515297394274217971954877
0.0177703247984984071469819681257935127863830610600643163569893628    0.8844166945967247082279907690855594509234044964578817267550732566
0.0164752777639837088910122366082057038079616306747691303323875274    0.9015415652888412581962850052542202581743508457904663707667090280
0.0151563432707625617884689528120764324610473584376475674227381065    0.9173592872532801071457615328918430543333686594005572542934559147
0.0138154337141264593877276836865589227729547654500005344224430206    0.9318469264546228878547326175745465406526028038990209528990123206
0.0124544934011421046797336165010059687610817304951596730524928110    0.9449834774389604891822460242376927540786739068161054299318097429
0.0110754957817598963202250549646583254314081016302030152414489231    0.9567498938616109031217993425595775931349690598894086716133875281
0.0096804407043710737369654943141086325659398276766320524071841612    0.9671291162525906959960770166816013613010454132979201870343725035
0.0082713518183836856044303827066560514320319828651277122062561872    0.9761060970944988286914197677066415424358760332226637768351580042
0.0068502745341835261843262645100470967423134027799303810636626890    0.9836678235220076033678881268572440846322019408755340279551821407
0.0054192762324467650907045797337047345896059908872982593985067415    0.9898033388399089499326253172613966089831221609253426998731785518
0.0039804579378560746190288467341341437514166177341244293247253801    0.9945037683780756289339997752361894655489191520517205871554882331
0.0025360546968561061098217538509810281220338999993322831720062802    0.9977623858263858625623583852614174361582552182608495571678507651
0.0010901185952758308661071915382399943192336068879330838037891562    0.9995751915016526488741291905352509830810369171808630752334421196
