0.0018398745955770841170924455540439238526384723388402424806442689    -0.9992829840291237803789361409289444610727967181862428131517561527
0.0042785083468637618660784110826227855171274726708752114023382156    -0.9962240127779701086021933611463113532930769718575232978763216664
0.0067102917659601362519069307297288039734360285557161102437971762    -0.9907285468921894668108946672047034530542622653503277797668315664
0.0091259686763266563540586454217599548496924177883753496696743853    -0.9828088105937272348625114056916117392025991619562073419953057338
0.0115193760768800417507506061486180648415887939453889832357039705    -0.9724840346975700228019606785768109481649765412030978382522942637
0.0138846126161156108248660863676244349192776582534906475490696627    -0.9597794497589419270703541662589889691654165031616554269143100210
0.0162158784103383388822836729751309149158156038299309009708904939    -0.9447261340410098029663753196275006637445806889577669817993636614
0.0185074644601612704092605458051579631102389214176312854335687775    -0.9273609206218432054470313813251215694560543610686019175171100260
0.0207537612580390907753419534214731533478132648784418211209014380    -0.9077263027785315580369531329159532255477939282756582082176942534
0.0229492710048899331489423195617705058910474999190868284292047423    -0.8858703285078534262902984573133698751498684694878537165604231246
0.0250886205533449866186301380684433561023538074476335724474564981    -0.8618464823641237195396118394310599539965362252162683138358926676
0.0271665743590979332251898394394127266066426839866291274845649038    -0.8357135543195028434718077696157054528236144775838859814000659299
0.0291780472082805269455515021540288022829409459208054268303550677    -0.8075354957734567600514659863632431345941923607774963000573210070
0.0311181166222198175082159885571885820249111895329151126509727231    -0.7773812629903723355633301899110427557597991420481020025411969503
0.0329820348837793417656831796724593071377942161572778555906245243    -0.7453246483178474178293216610375876323146029472619407257350296318
0.0347652406453558776971805046427881571070733024941471943236797616    -0.7114440995848458078514315377040148791282825117870124919534010778
0.0364633700854572896304524097875417918318329502542965112299343301    -0.6758225281149860901311033159695445087798112547237997064742363989
0.0380722675843495567636383249278892186273033572541754294905922153    -0.6385471058213653850003069538733764812332949246131816395615828652
0.0395879958915440939848079281492023644541949391141024388083643619    -0.5997090518776252357390089268687998610711695239975291456271089710
0.0410068457596663986351100370090723507401779662124993039315984795    -0.5594034094862850132676978000700546965405284156066575273369874658
0.0423253450208158229825054854030274564828433789141963750899896746    -0.5177288132900332481244775845263155355773739550217483504631617460
0.0435402670830275907989643157044011396409312119283805380941306700    -0.4747872479948043999222123098514947492860179589697331696671183623
0.0446486388259413953703326695168133932341005635625203336543272727    -0.4306837987951116006620889339186299820664814172000373252847794529
0.0456477478762926086858859926085425224266073239389639298138652600    -0.3855263942122478924776150222743981502750457054371334274070591795
0.0465351492453836965103954187469531872278224771737984216765893749    -0.3394255419745844024688344315943150850439180467187044852714842015
0.0473086713122689190806049883388440623866200019726457181198494841    -0.2924940585862514400361571555506669236893458719388423697060455249
0.0479664211379951314110527561951322536106849214321465805928401539    -0.2448467932459533627484045939248293701483421753582148327990337669
0.0485067890978838478640900991458015820275917692478266549650447395    -0.1966003467915066845576274570657176979207830058034927598885504720
0.0489284528205119899447093615492148212325258099816152681686619262    -0.1478727863578719685698390965529729434414636640839630291173490067
0.0492303804237475607850431169881445875918765328199142232811246235    -0.0987833564469452795297036694539221034395586011789432172922330988
0.0494118330399181789670396461167048596977283900845409695999168820    -0.0494521871161596272342338180518076098977554568999159460631630120
0.0494723666239310208886693604209259446135322539423832672394478847    0.0000000000000000000000000000000000000000000000000000000000000000
0.0494118330399181789670396461167048596977283900845409695999168820    0.0494521871161596272342338180518076098977554568999159460631630120
0.0492303804237475607850431169881445875918765328199142232811246235    0.0987833564469452795297036694539221034395586011789432172922330988
0.0489284528205119899447093615492148212325258099816152681686619262    0.1478727863578719685698390965529729434414636640839630291173490067
0.0485067890978838478640900991458015820275917692478266549650447395    0.1966003467915066845576274570657176979207830058034927598885504720
0.0479664211379951314110527561951322536106849214321465805928401539    0.2448467932459533627484045939248293701483421753582148327990337669
0.0473086713122689190806049883388440623866200019726457181198494841    0.2924940585862514400361571555506669236893458719388423697060455249
0.0465351492453836965103954187469531872278224771737984216765893749    0.3394255419745844024688344315943150850439180467187044852714842015
0.0456477478762926086858859926085425224266073239389639298138652600    0.3855263942122478924776150222743981502750457054371334274070591795
0.0446486388259413953703326695168133932341005635625203336543272727    0.4306837987951116006620889339186299820664814172000373252847794529
0.0435402670830275907989643157044011396409312119283805380941306700    0.4747872479948043999222123098514947492860179589697331696671183623
0.0423253450208158229825054854030274564828433789141963750899896746    0.5177288132900332481244775845263155355773739550217483504631617460
0.0410068457596663986351100370090723507401779662124993039315984795    0.5594034094862850132676978000700546965405284156066575273369874658
0.0395879958915440939848079281492023644541949391141024388083643619    0.5997090518776252357390089268687998610711695239975291456271089710
0.0380722675843495567636383249278892186273033572541754294905922153    0.6385471058213653850003069538733764812332949246131816395615828652
0.0364633700854572896304524097875417918318329502542965112299343301    0.6758225281149860901311033159695445087798112547237997064742363989
0.0347652406453558776971805046427881571070733024941471943236797616    0.7114440995848458078514315377040148791282825117870124919534010778
0.0329820348837793417656831796724593071377942161572778555906245243    0.7453246483178474178293216610375876323146029472619407257350296318
0.0311181166222198175082159885571885820249111895329151126509727231    0.7773812629903723355633301899110427557597991420481020025411969503
0.0291780472082805269455515021540288022829409459208054268303550677    0.8075354957734567600514659863632431345941923607774963000573210070
0.0271665743590979332251898394394127266066426839866291274845649038    0.8357135543195028434718077696157054528236144775838859814000659299
0.0250886205533449866186301380684433561023538074476335724474564981    0.8618464823641237195396118394310599539965362252162683138358926676
0.0229492710048899331489423195617705058910474999190868284292047423    0.8858703285078534262902984573133698751498684694878537165604231246
0.0207537612580390907753419534214731533478132648784418211209014380    0.9077263027785315580369531329159532255477939282756582082176942534
0.0185074644601612704092605458051579631102389214176312854335687775    0.9273609206218432054470313813251215694560543610686019175171100260
0.0162158784103383388822836729751309149158156038299309009708904939    0.9447261340410098029663753196275006637445806889577669817993636614
0.0138846126161156108248660863676244349192776582534906475490696627    0.9597794497589419270703541662589889691654165031616554269143100210
0.0115193760768800417507506061486180648415887939453889832357039705    0.9724840346975700228019606785768109481649765412030978382522942637
0.0091259686763266563540586454217599548496924177883753496696743853    0.9828088105937272348625114056916117392025991619562073419953057338
0.0067102917659601362519069307297288039734360285557161102437971762    0.9907285468921894668108946672047034530542622653503277797668315664
0.0042785083468637618660784110826227855171274726708752114023382156    0.9962240127779701086021933611463113532930769718575232978763216664
0.0018398745955770841170924455540439238526384723388402424806442689    0.9992829840291237803789361409289444610727967181862428131517561527
