0.0034303008681070482860187831480434044411729458052113312443288164    -0.9986630421338179811282684173908887745841556074346317260911055450
0.0079698982297246224516130389263249654262887709925965393803975000    -0.9929623489061743640730954446661934091211028309083840251988476174
0.0124798837709886842067345717509833751775225473853508904910092969    -0.9827336698041668634779795796591887202195633702984288006458191668
0.0169335140078362380462307136717604313337264438256941510857628143    -0.9680213918539919427377480663718155085223118263536301007153201739
0.0213099987541365010544793610708784018288437765205240163949760787    -0.9488923634460897956222135394369141395257713832932453327810935659
0.0255892863971300106346995122003440281028795607386169939537977432    -0.9254337988067539509774913576991242588823437564389558476012036267
0.0297518295522027557990517292357229370930287538189488674889944434    -0.8977527115339419657013199513197812894546296453013510899814199982
0.0337786279991068965206038938811453287277994804752003110021674131    -0.8659753948668580629158887768165984386873047443379044840303013055
0.0376513053573860713276607992284591170269551194542606719625461957    -0.8302468370660660530323853047908061179958062539703806080302448794
0.0413521901096787297042201758702314784242062241137726261523035562    -0.7907300570752742551891441474203024111479695130847111098690078797
0.0448643952773181267670946135627748564422867005184251783772385091    -0.7476053596156660540003365052680028689057221800025464949693133872
0.0481718951017122005304688632232209366819754923674621691674217781    -0.7010695120204056975121220894265004502495759831499386464684372990
0.0512595980071430213353652993714480334641815016265305324956380028    -0.6513348462019977151064771558168593672276040573184759394492121604
0.0541134153858567544916376432592230752598974690411350662378722520    -0.5986282897127151531771725336001673101484663345646299478221683995
0.0567203258439912358168744036032867145864270226091147547411219249    -0.5431903302618026352709626910288768360339784703849160853908402413
0.0590684345955463148075507226369077370982169484922302967719964049    -0.4852739183881646627723201937084548083196675592830387035445024489
0.0611470277246504810153566079041910377727816328578536076277397436    -0.4251433132828283973221468634285674191693377691079346916820562833
0.0629466210643945081789519522471109312332461650317862208710798054    -0.3630728770209957101237069785146516898473888428576424714979837497
0.0644590034671390695882794391082550639237956450450184924974791990    -0.2993458227018700154834392565779039293560923175542383492236665878
0.0656772742677812073787575656855557676217161397738117154814314217    -0.2342529222062697686260561155737924925740888219904980256225286351
0.0665958747684548873757619664227337019443637088009921092697510421    -0.1680911794671035286067967374277021274474892818364693967319825443
0.0672106136006781758623741548270975961765396811656452021597761229    -0.1011624753055842395158596570086493908818713605014937396195159605
0.0675186858490364588202141891643010802121482695398182551451699355    -0.0337721900160520415195578318914397638159161159962019206821051777
0.0675186858490364588202141891643010802121482695398182551451699355    0.0337721900160520415195578318914397638159161159962019206821051777
0.0672106136006781758623741548270975961765396811656452021597761229    0.1011624753055842395158596570086493908818713605014937396195159605
0.0665958747684548873757619664227337019443637088009921092697510421    0.1680911794671035286067967374277021274474892818364693967319825443
0.0656772742677812073787575656855557676217161397738117154814314217    0.2342529222062697686260561155737924925740888219904980256225286351
0.0644590034671390695882794391082550639237956450450184924974791990    0.2993458227018700154834392565779039293560923175542383492236665878
0.0629466210643945081789519522471109312332461650317862208710798054    0.3630728770209957101237069785146516898473888428576424714979837497
0.0611470277246504810153566079041910377727816328578536076277397436    0.4251433132828283973221468634285674191693377691079346916820562833
0.0590684345955463148075507226369077370982169484922302967719964049    0.4852739183881646627723201937084548083196675592830387035445024489
0.0567203258439912358168744036032867145864270226091147547411219249    0.5431903302618026352709626910288768360339784703849160853908402413
0.0541134153858567544916376432592230752598974690411350662378722520    0.5986282897127151531771725336001673101484663345646299478221683995
0.0512595980071430213353652993714480334641815016265305324956380028    0.6513348462019977151064771558168593672276040573184759394492121604
0.0481718951017122005304688632232209366819754923674621691674217781    0.7010695120204056975121220894265004502495759831499386464684372990
0.0448643952773181267670946135627748564422867005184251783772385091    0.7476053596156660540003365052680028689057221800025464949693133872
0.0413521901096787297042201758702314784242062241137726261523035562    0.7907300570752742551891441474203024111479695130847111098690078797
0.0376513053573860713276607992284591170269551194542606719625461957    0.8302468370660660530323853047908061179958062539703806080302448794
0.0337786279991068965206038938811453287277994804752003110021674131    0.8659753948668580629158887768165984386873047443379044840303013055
0.0297518295522027557990517292357229370930287538189488674889944434    0.8977527115339419657013199513197812894546296453013510899814199982
0.0255892863971300106346995122003440281028795607386169939537977432    0.9254337988067539509774913576991242588823437564389558476012036267
0.0213099987541365010544793610708784018288437765205240163949760787    0.9488923634460897956222135394369141395257713832932453327810935659
0.0169335140078362380462307136717604313337264438256941510857628143    0.9680213918539919427377480663718155085223118263536301007153201739
0.0124798837709886842067345717509833751775225473853508904910092969    0.9827336698041668634779795796591887202195633702984288006458191668
0.0079698982297246224516130389263249654262887709925965393803975000    0.9929623489061743640730954446661934091211028309083840251988476174
0.0034303008681070482860187831480434044411729458052113312443288164    0.9986630421338179811282684173908887745841556074346317260911055450
