0.0024974818357615857759460387572660298791850974668271119420965993    -0.9990266668673409838510711069839584931980427857969603316816502148
0.0058056110152399848788258877458752734115246519894036667893391416    -0.9948751170183388849188899959487026594841267588869998286161566819
0.0090993694555093969480335210624192617218747224079821802075411173    -0.9874206373973435585521457204035462615340362908392385877511410382
0.0123633281288476441664678242601880964639944989484336930420569837    -0.9766863288579032372000100719883068574678059732400034120243720293
0.0155863030359241317029689097058367654685878223576398962013166713    -0.9627076457859235832569939269053899435369181747020375703625464548
0.0187575276214693779120079842840711626886355747427113427979552986    -0.9455309751649958537638370229061804125634365885009864067622174589
0.0218664514228530859455104265388793009815703165629724420678843067    -0.9252133598666514862562760604797913868555841935668342440680710089
0.0249027414672087730500549712733890425756231328791233603534653854    -0.9018222862847015807574672313884279643639284047889184742800360365
0.0278563093105958702870020347639151512373099356257426965550132642    -0.8754354540655689394179093357226108224865474848070161720403669108
0.0307173424978706760540046099161549110199622120771604654903290032    -0.8461405159707729494258875108728425003966323802141416573952013484
0.0334763364643726457160404448356107927148786074236837729643371676    -0.8140347859135678354696383040751989448275901832336139754937553088
0.0361241258403835525828870742074248459785730799301673298891566435    -0.7792249153462540215359486148405326557488890948290502591083679956
0.0386519147821025168368571390515798762390115093557285540372686325    -0.7418265388091843162857662687535780009397291449828156030407380280
0.0410513061366449742217182108776043341937827974464546887546177878    -0.7019638897191729193855709769696706012688111104896794390789343782
0.0433143293095970154419257603705081181962891240438496886502092795    -0.6597693876319831246922898228562204747889582485949750486674457277
0.0454334667282767139748521807515445715337756390176710815146600131    -0.6153831983311273707299378201617283005959726941294986221905096499
0.0474016788064449910585764101153236036382065889832506088200313891    -0.5689527681952094297316248341771539427738414371742116186705726860
0.0492124273245288860687906303688116280775041129800626816346386065    -0.5206323343859330733270171387497641188793668552508792204530462775
0.0508596971461881443197092069761187459120602653893317147718321933    -0.4705824124813822836832121363277426024314466398144200439157280261
0.0523380161982987446655886947526850131804317669734681028818373492    -0.4189692632552045280361026974625100052007901834250475827309891576
0.0536424736475536112721006277252465768628158596085654398883215322    -0.3659643403721911819843321081654874061220373897036415996165641319
0.0547687362130579863062226347171090207246210665623550486358661958    -0.3117437208344682288825503901521237713929484971101820170191731785
0.0557130625605899876833698174273711106847117171157984778696334275    -0.2564875200699973000774112144530083027269218730907741524879425232
0.0564723157306259650310442646817612479537373621270836423416353706    -0.2003792936062135697786024628292980304541431860915509187535667589
0.0570439735587945985678284342542272120992117362125463539033435899    -0.1436054273162561539470897628987891612947050162600677412345252601
0.0574261370541121148592901317732068293892190570504253857096688442    -0.0863545182632482152854431777687496363694015374870635879480299922
0.0576175367071470246723761288058714771729017447215605722859442063    -0.0288167481993417776562358475002270529894545421779078483714952390
0.0576175367071470246723761288058714771729017447215605722859442063    0.0288167481993417776562358475002270529894545421779078483714952390
0.0574261370541121148592901317732068293892190570504253857096688442    0.0863545182632482152854431777687496363694015374870635879480299922
0.0570439735587945985678284342542272120992117362125463539033435899    0.1436054273162561539470897628987891612947050162600677412345252601
0.0564723157306259650310442646817612479537373621270836423416353706    0.2003792936062135697786024628292980304541431860915509187535667589
0.0557130625605899876833698174273711106847117171157984778696334275    0.2564875200699973000774112144530083027269218730907741524879425232
0.0547687362130579863062226347171090207246210665623550486358661958    0.3117437208344682288825503901521237713929484971101820170191731785
0.0536424736475536112721006277252465768628158596085654398883215322    0.3659643403721911819843321081654874061220373897036415996165641319
0.0523380161982987446655886947526850131804317669734681028818373492    0.4189692632552045280361026974625100052007901834250475827309891576
0.0508596971461881443197092069761187459120602653893317147718321933    0.4705824124813822836832121363277426024314466398144200439157280261
0.0492124273245288860687906303688116280775041129800626816346386065    0.5206323343859330733270171387497641188793668552508792204530462775
0.0474016788064449910585764101153236036382065889832506088200313891    0.5689527681952094297316248341771539427738414371742116186705726860
0.0454334667282767139748521807515445715337756390176710815146600131    0.6153831983311273707299378201617283005959726941294986221905096499
0.0433143293095970154419257603705081181962891240438496886502092795    0.6597693876319831246922898228562204747889582485949750486674457277
0.0410513061366449742217182108776043341937827974464546887546177878    0.7019638897191729193855709769696706012688111104896794390789343782
0.0386519147821025168368571390515798762390115093557285540372686325    0.7418265388091843162857662687535780009397291449828156030407380280
0.0361241258403835525828870742074248459785730799301673298891566435    0.7792249153462540215359486148405326557488890948290502591083679956
0.0334763364643726457160404448356107927148786074236837729643371676    0.8140347859135678354696383040751989448275901832336139754937553088
0.0307173424978706760540046099161549110199622120771604654903290032    0.8461405159707729494258875108728425003966323802141416573952013484
0.0278563093105958702870020347639151512373099356257426965550132642    0.8754354540655689394179093357226108224865474848070161720403669108
0.0249027414672087730500549712733890425756231328791233603534653854    0.9018222862847015807574672313884279643639284047889184742800360365
0.0218664514228530859455104265388793009815703165629724420678843067    0.9252133598666514862562760604797913868555841935668342440680710089
0.0187575276214693779120079842840711626886355747427113427979552986    0.9455309751649958537638370229061804125634365885009864067622174589
0.0155863030359241317029689097058367654685878223576398962013166713    0.9627076457859235832569939269053899435369181747020375703625464548
0.0123633281288476441664678242601880964639944989484336930420569837    0.9766863288579032372000100719883068574678059732400034120243720293
0.0090993694555093969480335210624192617218747224079821802075411173    0.9874206373973435585521457204035462615340362908392385877511410382
0.0058056110152399848788258877458752734115246519894036667893391416    0.9948751170183388849188899959487026594841267588869998286161566819
0.0024974818357615857759460387572660298791850974668271119420965993    0.9990266668673409838510711069839584931980427857969603316816502148
