0.0037454048031127775151737788317615384776979163432821731665936394    -0.9985402006367742249360567206066503490560300331754145979988481657
0.0087004813675248441225656234243131402084684211583618960933744490    -0.9923163921385158084833380036135385688118977843522100774582564757
0.0136195867555799855202050663900613788732667197548707233110763651    -0.9811518330779139666627490053504878288056755555396577395291552338
0.0184714817368147491720422237433998441155207383139018773349047646    -0.9650996504224931393943980505802349747168771385898850927753516345
0.0232314819020192106289582629387314174882219020356579971822161362    -0.9442395091181940992032546530269892510724549347599229753438932967
0.0278757828212810100811142917793870643220588398929903486447491346    -0.9186752599841757743230010866942520489379852630450530059734122143
0.0323812228120698208808469395401116011469480517800294205069247737    -0.8885342382860432023383679101903223247583324582094259000677896836
0.0367253478138088736429092923487017997107087879997468728911092251    -0.8539665950047103787283022412926838903611690620290684497480062464
0.0408865123103462189084471692830684868540792890267025960424328430    -0.8151445396451350104874376357519405502994005745085942435687942217
0.0448439840819700314462431864030511071809630216557339996903100790    -0.7722614792487558990177585492319880137280964395654471097630738794
0.0485780464483520375276394366912927376150513991068246759257438498    -0.7255310536607170026069649367199536110124658002080952599330228789
0.0520700960917044618812318029931987510562641747411169265586390681    -0.6751860706661223653336990385638999233282554011237708753022771732
0.0553027355637280525487466326431529914715348464176177601014935720    -0.6214773459035758478024246991217667471444058800171635591564723228
0.0582598598775954953342106898442771680047561691033535673546965739    -0.5646724531854707684246368193820752194907454796042661152355681237
0.0609267367015619680385578368743741006725724894816501122292957942    -0.5050543913882023179827983522911772386120732955053486132737692966
0.0632900797332038549501388710197149306380242882440941854437439850    -0.4429201745254114838348265936473135495384784603081179492402539240
0.0653381148791814349842408948456221894960108011296769285835340096    -0.3785793520147071325117646727721978567428208484956703732898381976
0.0670606389062936523957049193517193507807130130727615679567511019    -0.3123524665027858122365451635729785355192636217532886364263612199
0.0684490702693666609854586607043498724451555436359000408982943875    -0.2445694569282012515073024347405186205304872592800496036700898165
0.0694964918615725780370840909250112567820934753811742273600419771    -0.1755680147755167857465077493809765906473745067245133154070245723
0.0701976854735582125871420419443993876688266862156284579333328387    -0.1056919017086532471173058489151217523833859988595976137824014964
0.0705491577893540688113382874802998849910634255089236447907414326    -0.0352892369641353590581967046314163558850021975895270767771388050
0.0705491577893540688113382874802998849910634255089236447907414326    0.0352892369641353590581967046314163558850021975895270767771388050
0.0701976854735582125871420419443993876688266862156284579333328387    0.1056919017086532471173058489151217523833859988595976137824014964
0.0694964918615725780370840909250112567820934753811742273600419771    0.1755680147755167857465077493809765906473745067245133154070245723
0.0684490702693666609854586607043498724451555436359000408982943875    0.2445694569282012515073024347405186205304872592800496036700898165
0.0670606389062936523957049193517193507807130130727615679567511019    0.3123524665027858122365451635729785355192636217532886364263612199
0.0653381148791814349842408948456221894960108011296769285835340096    0.3785793520147071325117646727721978567428208484956703732898381976
0.0632900797332038549501388710197149306380242882440941854437439850    0.4429201745254114838348265936473135495384784603081179492402539240
0.0609267367015619680385578368743741006725724894816501122292957942    0.5050543913882023179827983522911772386120732955053486132737692966
0.0582598598775954953342106898442771680047561691033535673546965739    0.5646724531854707684246368193820752194907454796042661152355681237
0.0553027355637280525487466326431529914715348464176177601014935720    0.6214773459035758478024246991217667471444058800171635591564723228
0.0520700960917044618812318029931987510562641747411169265586390681    0.6751860706661223653336990385638999233282554011237708753022771732
0.0485780464483520375276394366912927376150513991068246759257438498    0.7255310536607170026069649367199536110124658002080952599330228789
0.0448439840819700314462431864030511071809630216557339996903100790    0.7722614792487558990177585492319880137280964395654471097630738794
0.0408865123103462189084471692830684868540792890267025960424328430    0.8151445396451350104874376357519405502994005745085942435687942217
0.0367253478138088736429092923487017997107087879997468728911092251    0.8539665950047103787283022412926838903611690620290684497480062464
0.0323812228120698208808469395401116011469480517800294205069247737    0.8885342382860432023383679101903223247583324582094259000677896836
0.0278757828212810100811142917793870643220588398929903486447491346    0.9186752599841757743230010866942520489379852630450530059734122143
0.0232314819020192106289582629387314174882219020356579971822161362    0.9442395091181940992032546530269892510724549347599229753438932967
0.0184714817368147491720422237433998441155207383139018773349047646    0.9650996504224931393943980505802349747168771385898850927753516345
0.0136195867555799855202050663900613788732667197548707233110763651    0.9811518330779139666627490053504878288056755555396577395291552338
0.0087004813675248441225656234243131402084684211583618960933744490    0.9923163921385158084833380036135385688118977843522100774582564757
0.0037454048031127775151737788317615384776979163432821731665936394    0.9985402006367742249360567206066503490560300331754145979988481657
