0.0032874538425280148832499642083361798513606224070709461606918945    -0.9987187285842121091839477147871084916270906512314908092159681625
0.0076386162958488336141043567711316555044205898225651053580431706    -0.9932552109877686346921896846324636081457120841106307345393096810
0.0119628484643123209639434548499485125233929083624680225323364036    -0.9834510030716237087649010340361698519316542191080937743802551218
0.0162353331464330596707256874078986210158929190439750067254788823    -0.9693467873265644971457442775602708053383029469795041364868785055
0.0204369381476684276420347606862553864272310490241569037032122908    -0.9510039692577084425898029238514424226536015153873790289687118347
0.0245492116596588185378341571525057671376631521648313098933868670    -0.9285026930123606481971849246113209813754187869430339897257929467
0.0285541507006433865047399246258110816068752178326918683577463262    -0.9019413294385253568671713019774356396386344864322847802595937206
0.0324342355151847567676174631741701586930886808732865899180461244    -0.8714360157968963169409854645556061710519265261157796092675952930
0.0361724965841749516134599297663112486734452822013805724366337557    -0.8371201398999021212775989485663523641818689494634425936361154218
0.0397525861225310037809013801419610165916494688156830592595384457    -0.7991437541677419429155620692035930120405208561987349431999507349
0.0431588486484795382683017934465031395477193777824471417033399335    -0.7576729184454386335739965235696822012134199104336534329043131794
0.0463763890865059112044018482427450925486960452628959105184737482    -0.7128889734090643016618793277710188117042502457559171430866554212
0.0493911377473611696045704858620049231199940237904943169998259339    -0.6649877473903327291367026485720890614305148145332709257601737815
0.0521899117800571448722119417096760777217349799620321766700831571    -0.6141786999563736085954625426042536862481799450902047497020872273
0.0547604727815302259571251768885048059037953663485072129582793060    -0.5606840059346641944830583174182687911435234545911374394982232353
0.0570915802932315402220166053083827729103294259652469967894169534    -0.5047375838635779197742890253513010902732031192246025293226827279
0.0591730409423388759761545563857412924638323514930740504707087860    -0.4465840731048557027251821423494079593934170051987210994299262315
0.0609957530087396453307105781334375211810932043020158767989218454    -0.3864777640846671395833023876060232702018376080148300149379248518
0.0625517462209216626405643814499535367534158434584604253183721270    -0.3246814863377359022107612991799968363996289160070623258821096568
0.0638342166057170306312937798558135334823363436906859725558805032    -0.2614654592149745703069829662051709742333227337968797253213988814
0.0648375562389457267026039391108060188849947526018283188034245060    -0.1971061102791118079614913583705046175548628704223396653542893811
0.0655573777665497402511430023260759122819998908087335978957912390    -0.1318848665545148970538235307241272413633351534384889129502552239
0.0659905335888104745335706553304982595773582776265029978891534403    -0.0660869239163556751604737774741337085922762739362204088722755556
0.0661351296236554796534403543310549711953604527179312405664287198    0.0000000000000000000000000000000000000000000000000000000000000000
0.0659905335888104745335706553304982595773582776265029978891534403    0.0660869239163556751604737774741337085922762739362204088722755556
0.0655573777665497402511430023260759122819998908087335978957912390    0.1318848665545148970538235307241272413633351534384889129502552239
0.0648375562389457267026039391108060188849947526018283188034245060    0.1971061102791118079614913583705046175548628704223396653542893811
0.0638342166057170306312937798558135334823363436906859725558805032    0.2614654592149745703069829662051709742333227337968797253213988814
0.0625517462209216626405643814499535367534158434584604253183721270    0.3246814863377359022107612991799968363996289160070623258821096568
0.0609957530087396453307105781334375211810932043020158767989218454    0.3864777640846671395833023876060232702018376080148300149379248518
0.0591730409423388759761545563857412924638323514930740504707087860    0.4465840731048557027251821423494079593934170051987210994299262315
0.0570915802932315402220166053083827729103294259652469967894169534    0.5047375838635779197742890253513010902732031192246025293226827279
0.0547604727815302259571251768885048059037953663485072129582793060    0.5606840059346641944830583174182687911435234545911374394982232353
0.0521899117800571448722119417096760777217349799620321766700831571    0.6141786999563736085954625426042536862481799450902047497020872273
0.0493911377473611696045704858620049231199940237904943169998259339    0.6649877473903327291367026485720890614305148145332709257601737815
0.0463763890865059112044018482427450925486960452628959105184737482    0.7128889734090643016618793277710188117042502457559171430866554212
0.0431588486484795382683017934465031395477193777824471417033399335    0.7576729184454386335739965235696822012134199104336534329043131794
0.0397525861225310037809013801419610165916494688156830592595384457    0.7991437541677419429155620692035930120405208561987349431999507349
0.0361724965841749516134599297663112486734452822013805724366337557    0.8371201398999021212775989485663523641818689494634425936361154218
0.0324342355151847567676174631741701586930886808732865899180461244    0.8714360157968963169409854645556061710519265261157796092675952930
0.0285541507006433865047399246258110816068752178326918683577463262    0.9019413294385253568671713019774356396386344864322847802595937206
0.0245492116596588185378341571525057671376631521648313098933868670    0.9285026930123606481971849246113209813754187869430339897257929467
0.0204369381476684276420347606862553864272310490241569037032122908    0.9510039692577084425898029238514424226536015153873790289687118347
0.0162353331464330596707256874078986210158929190439750067254788823    0.9693467873265644971457442775602708053383029469795041364868785055
0.0119628484643123209639434548499485125233929083624680225323364036    0.9834510030716237087649010340361698519316542191080937743802551218
0.0076386162958488336141043567711316555044205898225651053580431706    0.9932552109877686346921896846324636081457120841106307345393096810
0.0032874538425280148832499642083361798513606224070709461606918945    0.9987187285842121091839477147871084916270906512314908092159681625
