0.0011170298471246066061206503656592466127734611714854677819791979    -0.9995647036903190344767210915155354359068094873410476391203463745
0.0025986222999289530134967882271050238212720628791691608708564618    -0.9977071599883464636579510710704415473237140079465379656019798665
0.0040785511134213955860207340825565869463902928556114944860989654    -0.9943681932852198650226768403804769993007023694517436156368056837
0.0055526113702562789022726326497814296881415614899065049354061882    -0.9895520213710219991278893872449244393076308251290688524679218198
0.0070184604849316255116099518242163639993792958722168400273766406    -0.9832657085664302272199409099494001892730139256220646709405088560
0.0084738937853455654496158280198390895062962721967666329943854651    -0.9755185726723612969162538608259135010128966472237091717998732684
0.0099167418095958754997498997893091463123983205322607736632133601    -0.9663221163380561110700921560994358646626165590352297994647661646
0.0113448584954162557620081724575723866290670811973653643312357771    -0.9556899997564025152488370688061441495038466088324957812565749517
0.0127561211151344210002561264439770134132431819893115059414104989    -0.9436380176528138211805815353848178769757600186842906330429284407
0.0141484325132360655482515810206792450646144543576293840623041005    -0.9301840749151675030225455551950160115941106102881714719612316492
0.0155197239124643629382452393441641297348514640248627908460950606    -0.9153481596407507172890776821407526032062518156986376659149030019
0.0168679578676351394743345408515924812603457590462946181484523460    -0.8991523132861565308526659682246063866180625942543648842037945421
0.0181911312412557611517626738568933111917060664825684924893297364    -0.8816205978467201461682742515605325015163298427396452121613337825
0.0194872781556019182159270505176313161934169584056890916509515071    -0.8627790600697918946737474318857908253751929313463757241113776146
0.0207544729014456085395227442379722414266808017331259969206031736    -0.8426556927364670462067126228069803352881742446595695205227717410
0.0219908327927516327705012584359096579274820364239272546006975880    -0.8212803930609102234587678804331119042949885407684409428243945365
0.0231945209602739198814553284674548293639897001704604224985055025    -0.7986849182650282821572014550068240556372354723914359494461520893
0.0243637490785630973324910546010028160546258099716937061209869803    -0.7749028383924234314056375210842963145162558814200809163695328973
0.0254967800216656770694797790606086925229293132147612182203494185    -0.7499694864306206722225147109832120765079159125510404172414071942
0.0265919304432199210909197947350353730561755398158166455647801914    -0.7239219058150526144433639633536798138247706664264903466037543039
0.0276475732769249269110861468401125768900981023044430537799447705    -0.6967987953924356096818604947299000822784033433720811992952738031
0.0286621401535606762257917554483884258522341481227546831682794832    -0.6686404519250901466048991873189290717903023269925379513975770761
0.0296341237309055976584751926459669644799646954186307159145516913    -0.6394887102214945546447620073463206452920961791166996065590632811
0.0305620799330526618956598408522208829256379005328908680182053913    -0.6093868809819365460588078316979272274690226241161585352781236739
0.0314446300957740664180365391442906295579680334808333132959069981    -0.5783796864515513694820780047599561439510795324893989322110223806
0.0322804630147326888724032321453390107452744491593759189371880831    -0.5465131939763112730795863335847349535471398792083573365765672302
0.0330683368934880044208752063918929383398132188916206057802968655    -0.5138347475606582155220197584983136594155077820030728472414347663
0.0338070811883962455511958134966326393653025155120706502210327622    -0.4803928975284482701426629533679691391262630645454414257978774013
0.0344955983476597958947455286759356464970576308291429702218375706    -0.4462373283916990566481030240775944964622810653148467902162996311
0.0351328654419393794159790921637166475793452866304013605915436617    -0.4114187850342975416860058430227436907013335950536822330941752764
0.0357179356841045685307260259993708262320494735396887782228877350    -0.3759889973203312879205168544273290963096141482694968847978038093
0.0362499398358634127983257816904139987244926244191002958967750567    -0.3400006032390483397758194379802348674612815120670874024388272971
0.0367280874991804395169059661921141078827515972072972109000474122    -0.3035070707006261645516316763573854052924005914003470638745318087
0.0371516682905637121447426016398871943830827246618972119932863432    -0.2665626180989353391455023718303080118270375446312060455440842149
0.0375200528964758378592392446085240979394022246252582030489171542    -0.2292221337593161054415073101906423139341997245389599198140049337
0.0378326940083005592475751396293841289133994645850159089727888119    -0.1915410943910428557398470662083354669468114752318372563735839563
0.0380891271354756018310233544370387129983414097469820661265774571    -0.1535754826656306368567881209554322319345263358211329266490227322
0.0382889712955835244303199893422642638017098557226789661029678926    -0.1153817040434367112588538604251195545971453625584540759643871079
0.0384319295803751721002565680035270083260507567860555933263550772    -0.0770165029721271773182907027659999792737625360030149001056024119
0.0385177895968846952378381138334802339263445578930737118045911593    -0.0385368785815119838364856354686574582011258909648031355813034092
0.0385464237829807033895140756610773678277997921997290950420009261    0.0000000000000000000000000000000000000000000000000000000000000000
0.0385177895968846952378381138334802339263445578930737118045911593    0.0385368785815119838364856354686574582011258909648031355813034092
0.0384319295803751721002565680035270083260507567860555933263550772    0.0770165029721271773182907027659999792737625360030149001056024119
0.0382889712955835244303199893422642638017098557226789661029678926    0.1153817040434367112588538604251195545971453625584540759643871079
0.0380891271354756018310233544370387129983414097469820661265774571    0.1535754826656306368567881209554322319345263358211329266490227322
0.0378326940083005592475751396293841289133994645850159089727888119    0.1915410943910428557398470662083354669468114752318372563735839563
0.0375200528964758378592392446085240979394022246252582030489171542    0.2292221337593161054415073101906423139341997245389599198140049337
0.0371516682905637121447426016398871943830827246618972119932863432    0.2665626180989353391455023718303080118270375446312060455440842149
0.0367280874991804395169059661921141078827515972072972109000474122    0.3035070707006261645516316763573854052924005914003470638745318087
0.0362499398358634127983257816904139987244926244191002958967750567    0.3400006032390483397758194379802348674612815120670874024388272971
0.0357179356841045685307260259993708262320494735396887782228877350    0.3759889973203312879205168544273290963096141482694968847978038093
0.0351328654419393794159790921637166475793452866304013605915436617    0.4114187850342975416860058430227436907013335950536822330941752764
0.0344955983476597958947455286759356464970576308291429702218375706    0.4462373283916990566481030240775944964622810653148467902162996311
0.0338070811883962455511958134966326393653025155120706502210327622    0.4803928975284482701426629533679691391262630645454414257978774013
0.0330683368934880044208752063918929383398132188916206057802968655    0.5138347475606582155220197584983136594155077820030728472414347663
0.0322804630147326888724032321453390107452744491593759189371880831    0.5465131939763112730795863335847349535471398792083573365765672302
0.0314446300957740664180365391442906295579680334808333132959069981    0.5783796864515513694820780047599561439510795324893989322110223806
0.0305620799330526618956598408522208829256379005328908680182053913    0.6093868809819365460588078316979272274690226241161585352781236739
0.0296341237309055976584751926459669644799646954186307159145516913    0.6394887102214945546447620073463206452920961791166996065590632811
0.0286621401535606762257917554483884258522341481227546831682794832    0.6686404519250901466048991873189290717903023269925379513975770761
0.0276475732769249269110861468401125768900981023044430537799447705    0.6967987953924356096818604947299000822784033433720811992952738031
0.0265919304432199210909197947350353730561755398158166455647801914    0.7239219058150526144433639633536798138247706664264903466037543039
0.0254967800216656770694797790606086925229293132147612182203494185    0.7499694864306206722225147109832120765079159125510404172414071942
0.0243637490785630973324910546010028160546258099716937061209869803    0.7749028383924234314056375210842963145162558814200809163695328973
0.0231945209602739198814553284674548293639897001704604224985055025    0.7986849182650282821572014550068240556372354723914359494461520893
0.0219908327927516327705012584359096579274820364239272546006975880    0.8212803930609102234587678804331119042949885407684409428243945365
0.0207544729014456085395227442379722414266808017331259969206031736    0.8426556927364670462067126228069803352881742446595695205227717410
0.0194872781556019182159270505176313161934169584056890916509515071    0.8627790600697918946737474318857908253751929313463757241113776146
0.0181911312412557611517626738568933111917060664825684924893297364    0.8816205978467201461682742515605325015163298427396452121613337825
0.0168679578676351394743345408515924812603457590462946181484523460    0.8991523132861565308526659682246063866180625942543648842037945421
0.0155197239124643629382452393441641297348514640248627908460950606    0.9153481596407507172890776821407526032062518156986376659149030019
0.0141484325132360655482515810206792450646144543576293840623041005    0.9301840749151675030225455551950160115941106102881714719612316492
0.0127561211151344210002561264439770134132431819893115059414104989    0.9436380176528138211805815353848178769757600186842906330429284407
0.0113448584954162557620081724575723866290670811973653643312357771    0.9556899997564025152488370688061441495038466088324957812565749517
0.0099167418095958754997498997893091463123983205322607736632133601    0.9663221163380561110700921560994358646626165590352297994647661646
0.0084738937853455654496158280198390895062962721967666329943854651    0.9755185726723612969162538608259135010128966472237091717998732684
0.0070184604849316255116099518242163639993792958722168400273766406    0.9832657085664302272199409099494001892730139256220646709405088560
0.0055526113702562789022726326497814296881415614899065049354061882    0.9895520213710219991278893872449244393076308251290688524679218198
0.0040785511134213955860207340825565869463902928556114944860989654    0.9943681932852198650226768403804769993007023694517436156368056837
0.0025986222999289530134967882271050238212720628791691608708564618    0.9977071599883464636579510710704415473237140079465379656019798665
0.0011170298471246066061206503656592466127734611714854677819791979    0.9995647036903190344767210915155354359068094873410476391203463745
