0.0039194902538441272829671651925764354336603645726908723443427432    -0.9984723322425077135176361873183924119620507178476091432930834368
0.0091039966374014033188686082958967238130179755598267040770628337    -0.9919595575932441464207183413296180163870532259589527282146822002
0.0142487564315764861085416017220041935720739931441623352742328791    -0.9802782209802553315055293821811363901808675965195734841724893279
0.0193199014236839003961246108920713523170235590882569685552337244    -0.9634866130140799934101949635742439398676189122787125463353383776
0.0242904566138388159020183242542492484552370393358121374986852217    -0.9416719568476378618184773903979382714664760898138277578187949634
0.0291344132614984949159404248257811937875505698401920319599705414    -0.9149479072061387294561028707992856167457801031084230569998004914
0.0338264920868602923449684757538020910533016106471323669212021689    -0.8834537652186168633376780116421674178621666942424515985302977464
0.0383422221941326575721284246628491148800725628683971755208598489    -0.8473537162093150489990860858217925175125965474772398837341731895
0.0426580571979820837638072053385138941049470912367672506733393290    -0.8068359641369386352790747408775121260608862434817525966330705322
0.0467514947543465800106467663371029339328630959356638568441917381    -0.7621117471949551214603284630290461878075952586859577562512537546
0.0506011927843901565238503989530147457498980090980121909738442844    -0.7134142352689570548519208779909041026425291671136361163960496630
0.0541870803188817868633731783262654135883905526707112847035381655    -0.6609973137514981331651347637413453941131568125342132934947593192
0.0574904619569105194276089168444165119278688681945654326892311396    -0.6051342596396009357250830711239552214383698078945272892967932823
0.0604941152499912945196787419913627933585088798704285874312181245    -0.5461163166600847191404050471796608366548542241247558026246027917
0.0631823804493961123256298177734082642566962346394688466803732381    -0.4842511767857347240696334347485137779935770818717232963220057182
0.0655412421263227974912337642492078302249625337784548263225295068    -0.4198613760292692524872793945605680260749889077145709480873529434
0.0675584022293651691924079047562655921429462925857296082735457925    -0.3532826128643038066454763641434678717804450301425655422392741457
0.0692233441936566842822994791226351478093049895709278238195715785    -0.2848619980329136271057228948383379317858798177542611695527530852
0.0705273877650850281262863554779407431837361667849641500677858822    -0.2149562448605182090148783814736749537372242863854530444424512816
0.0714637342525141412975811177029102485809000193677956732393186121    -0.1439298095107133107702999376107446886827888834713426482330077383
0.0720275019714219743453075516708570877535042459474147016448449739    -0.0721529908745862354223272509555610948576552766606143055244704432
0.0722157516937989879774623317137368801470706905252503489701553469    0.0000000000000000000000000000000000000000000000000000000000000000
0.0720275019714219743453075516708570877535042459474147016448449739    0.0721529908745862354223272509555610948576552766606143055244704432
0.0714637342525141412975811177029102485809000193677956732393186121    0.1439298095107133107702999376107446886827888834713426482330077383
0.0705273877650850281262863554779407431837361667849641500677858822    0.2149562448605182090148783814736749537372242863854530444424512816
0.0692233441936566842822994791226351478093049895709278238195715785    0.2848619980329136271057228948383379317858798177542611695527530852
0.0675584022293651691924079047562655921429462925857296082735457925    0.3532826128643038066454763641434678717804450301425655422392741457
0.0655412421263227974912337642492078302249625337784548263225295068    0.4198613760292692524872793945605680260749889077145709480873529434
0.0631823804493961123256298177734082642566962346394688466803732381    0.4842511767857347240696334347485137779935770818717232963220057182
0.0604941152499912945196787419913627933585088798704285874312181245    0.5461163166600847191404050471796608366548542241247558026246027917
0.0574904619569105194276089168444165119278688681945654326892311396    0.6051342596396009357250830711239552214383698078945272892967932823
0.0541870803188817868633731783262654135883905526707112847035381655    0.6609973137514981331651347637413453941131568125342132934947593192
0.0506011927843901565238503989530147457498980090980121909738442844    0.7134142352689570548519208779909041026425291671136361163960496630
0.0467514947543465800106467663371029339328630959356638568441917381    0.7621117471949551214603284630290461878075952586859577562512537546
0.0426580571979820837638072053385138941049470912367672506733393290    0.8068359641369386352790747408775121260608862434817525966330705322
0.0383422221941326575721284246628491148800725628683971755208598489    0.8473537162093150489990860858217925175125965474772398837341731895
0.0338264920868602923449684757538020910533016106471323669212021689    0.8834537652186168633376780116421674178621666942424515985302977464
0.0291344132614984949159404248257811937875505698401920319599705414    0.9149479072061387294561028707992856167457801031084230569998004914
0.0242904566138388159020183242542492484552370393358121374986852217    0.9416719568476378618184773903979382714664760898138277578187949634
0.0193199014236839003961246108920713523170235590882569685552337244    0.9634866130140799934101949635742439398676189122787125463353383776
0.0142487564315764861085416017220041935720739931441623352742328791    0.9802782209802553315055293821811363901808675965195734841724893279
0.0091039966374014033188686082958967238130179755598267040770628337    0.9919595575932441464207183413296180163870532259589527282146822002
0.0039194902538441272829671651925764354336603645726908723443427432    0.9984723322425077135176361873183924119620507178476091432930834368
