0.0029086225531551409584007243428554808066729964599463206185935273    -0.9988664044200710501854594449742185059962435129040785251770386177
0.0067597991957454015027788781779850318018738324064668105528787059    -0.9940319694320907125851082004206947281574779710683235903365247891
0.0105905483836509692635696814992410223394018190864591294563347171    -0.9853540840480058823090096256324894040155926309454058087178092210
0.0143808227614855744193789089273243499370317861705878927721016222    -0.9728643851066920737133441046062520536691734070499542017450962752
0.0181155607134893903512599434223546198446673170497340354264529159    -0.9566109552428079429977456441566220940514341246260465428559790830
0.0217802431701247929815920690626903412273134623579342960440271394    -0.9366566189448779337808749472724966021537315980952029223750542738
0.0253606735700123904401948783854427234601612599757121373393963330    -0.9130785566557918930897356427716570947841881916977823896227265532
0.0288429935805351980299063731132324325178468655935374578357126231    -0.8859679795236130486375409824667536341942903107558083624465571397
0.0322137282235780166481658273230039534485890588334252171583296054    -0.8554297694299460846113626439347574676548330394869059634383299203
0.0354598356151461541607346110009757970969600004969844709128704509    -0.8215820708593359483562541108739395377607413833434857485233744606
0.0385687566125876752447701502363859348647717050005189265108074002    -0.7845558329003992639053051963409912008473162725564443527388591219
0.0415284630901476974224119789640670178089779754858409900770369780    -0.7444943022260685382605362526821942428701879313295845785247791479
0.0443275043388032754920222868303941974607612983554531656632319068    -0.7015524687068222510895462578836557281497192284846956427409243790
0.0469550513039484329656330136349876825140643061860527299658042793    -0.6558964656854393607816248640036798190414105283823318265309345914
0.0494009384494663149212435807514327286922870509666131247921235602    -0.6077029271849502391803817963918328936042050206759943557121311889
0.0516557030695811384899052958400952796498254493954396450995331865    -0.5571583045146500543155229096258016078158983822377502613164614868
0.0537106218889962465234587972556645527680232135299221530458999992    -0.5044581449074642016514591318491411926353786782706792381827392110
0.0555577448062125176235674256122694975951352999839026758171727785    -0.4498063349740387891471314677783758173150645134651736659414806699
0.0571899256477283837230293150659931630115753722570917549368537814    -0.3934143118975651273942292538238172702461394686726560030790366209
0.0586008498132224458351224366308484662097675134440254733132503425    -0.3355002454194373568369882572910716978412185930367957619004305397
0.0597850587042654575095764053125852307966660420726690045852419788    -0.2762881937795319903276452785211301857148015871319961506135055794
0.0607379708417702160317500153848110016097992732354035357231967746    -0.2160072368760417568472845326171013337057559725101332727036211264
0.0614558995903166637564067860839153750972675757640075143092240504    -0.1548905899981459020716286209411095012018502200549376323967303264
0.0619360674206832433840875097808306885728770566912449049427597061    -0.0931747015600861408544503776396003478856713839221386146828891556
0.0621766166553472623210331073606134308676824692010266331011656376    -0.0310983383271888761123289896659491942472962229599980429747962357
0.0621766166553472623210331073606134308676824692010266331011656376    0.0310983383271888761123289896659491942472962229599980429747962357
0.0619360674206832433840875097808306885728770566912449049427597061    0.0931747015600861408544503776396003478856713839221386146828891556
0.0614558995903166637564067860839153750972675757640075143092240504    0.1548905899981459020716286209411095012018502200549376323967303264
0.0607379708417702160317500153848110016097992732354035357231967746    0.2160072368760417568472845326171013337057559725101332727036211264
0.0597850587042654575095764053125852307966660420726690045852419788    0.2762881937795319903276452785211301857148015871319961506135055794
0.0586008498132224458351224366308484662097675134440254733132503425    0.3355002454194373568369882572910716978412185930367957619004305397
0.0571899256477283837230293150659931630115753722570917549368537814    0.3934143118975651273942292538238172702461394686726560030790366209
0.0555577448062125176235674256122694975951352999839026758171727785    0.4498063349740387891471314677783758173150645134651736659414806699
0.0537106218889962465234587972556645527680232135299221530458999992    0.5044581449074642016514591318491411926353786782706792381827392110
0.0516557030695811384899052958400952796498254493954396450995331865    0.5571583045146500543155229096258016078158983822377502613164614868
0.0494009384494663149212435807514327286922870509666131247921235602    0.6077029271849502391803817963918328936042050206759943557121311889
0.0469550513039484329656330136349876825140643061860527299658042793    0.6558964656854393607816248640036798190414105283823318265309345914
0.0443275043388032754920222868303941974607612983554531656632319068    0.7015524687068222510895462578836557281497192284846956427409243790
0.0415284630901476974224119789640670178089779754858409900770369780    0.7444943022260685382605362526821942428701879313295845785247791479
0.0385687566125876752447701502363859348647717050005189265108074002    0.7845558329003992639053051963409912008473162725564443527388591219
0.0354598356151461541607346110009757970969600004969844709128704509    0.8215820708593359483562541108739395377607413833434857485233744606
0.0322137282235780166481658273230039534485890588334252171583296054    0.8554297694299460846113626439347574676548330394869059634383299203
0.0288429935805351980299063731132324325178468655935374578357126231    0.8859679795236130486375409824667536341942903107558083624465571397
0.0253606735700123904401948783854427234601612599757121373393963330    0.9130785566557918930897356427716570947841881916977823896227265532
0.0217802431701247929815920690626903412273134623579342960440271394    0.9366566189448779337808749472724966021537315980952029223750542738
0.0181155607134893903512599434223546198446673170497340354264529159    0.9566109552428079429977456441566220940514341246260465428559790830
0.0143808227614855744193789089273243499370317861705878927721016222    0.9728643851066920737133441046062520536691734070499542017450962752
0.0105905483836509692635696814992410223394018190864591294563347171    0.9853540840480058823090096256324894040155926309454058087178092210
0.0067597991957454015027788781779850318018738324064668105528787059    0.9940319694320907125851082004206947281574779710683235903365247891
0.0029086225531551409584007243428554808066729964599463206185935273    0.9988664044200710501854594449742185059962435129040785251770386177
