0.0020954922845412234027007314886400597679812932103771363545810426    -0.9991833539092946837564240195046781849742259703300227085510723013
0.0048722391682652847685820011329240685560426606288663406125589808    -0.9956996403832459646872018234334483076618557769085912270079842000
0.0076395294534875751427006829747543652575516412084065114966282673    -0.9894423651337309317821839350227057934732552800232993425694400914
0.0103858855009958621937978744109830403674448291493380061338774627    -0.9804275739567156884496079814032677754625578511397030105958455327
0.0131033663063451910183195464842169669655648392340070909556950257    -0.9686802216817815313536333396725620576648894433298184856343122918
0.0157843473130814661473204803972491703730725538689579519062782219    -0.9542330093769510558632331121856499370739081382745471256312315567
0.0184213427536100293606157510564453183105268487171122400963580042    -0.9371261903534538594051384710432898849106021264711470599266922243
0.0210069982884371873504614732186692650506890277865110939407341104    -0.9174074387881552813525414852152458268731434900038039934783936811
0.0235341053937133634252753600783577002987844850383689152025364009    -0.8951317117434720853642968294624592750295371394099992765675393604
0.0259956197312985001866505068017079327139848097316180230674002975    -0.8703610942928822609634262331041452012841869473961876577151171042
0.0283846802005347979051528693353884987703141837630423358392152763    -0.8431646258168722014703509539722366384702259608172321925772989152
0.0306946278361116832397503281924808053595267480058283296204308828    -0.8136181072882115714350897738212004474107040650896474537034239168
0.0329190242710452777575112643535988080802698765574078252815785787    -0.7818038898623609056326788127674826280296669569503944306699102582
0.0350516696364001087837183589610782511167250811878572545690809747    -0.7478106452786402318892575790132123879208949339855144910129447453
0.0370866198188709226918379170352773582789499639491344914683887337    -0.7117331186771977315959157219659093539107624528023122340459165367
0.0390182030161600095030307772112855134190918379390244169705222826    -0.6736718645049372270240272127552536844150642751155458864575819314
0.0408410355386867076602021080894693086860064759028936404917099547    -0.6337329662388500975125809301750079125518983764389622629000270380
0.0425500368110676386673082004847131274457234133459328311532646958    -0.5920277407040301444641761597565343398042481696806936759165533299
0.0441404435302973806907980847330809685891863326681307176847778971    -0.5486724278083963843722563003870058574406733183240093016446312341
0.0456078229405097698318682131583742114179944597204615576470796018    -0.5037878665577179787680872804573088921509806488978758588639789240
0.0469480851869620191931597364829289522385459174745706980269777375    -0.4574991582532666902262152604349615081764257759123342179025866972
0.0481574947146064403881468292859357839604642187210079111078780442    -0.4099353178104189667228236937558791210147214626782334172141042159
0.0492326806793619857796936200150241883828630358705233272719000849    -0.3612289141697948099923124523340489579534139601748394042159705524
0.0501706463429969028107204304421656821438441057158682952865902360    -0.3115157008030137003183601491057497501256592376029803419265650340
0.0509687774253939168502479689936810100983096097852119892602103233    -0.2609342373428117116106162674142783800035444834331303616440144551
0.0516248493908914821464399397734228085937643377492687370671129473    -0.2096255033920365449233667906314910963320504743144931746311430392
0.0521370336483753913839872083078182338745975798794849497600211735    -0.1577325055878579681152178562715543041241746242027031883689523022
0.0525039026478287390509413220142884653607880584859075305276587902    -0.1053998790163441438369143877618692870539254109368222917034619718
0.0527244338591279319613042488706125028718839375035442669792246395    -0.0527734840883100039516803286033385378247007695091781053140224260
0.0527980126219904214155123324308552672990156744026711684394586631    0.0000000000000000000000000000000000000000000000000000000000000000
0.0527244338591279319613042488706125028718839375035442669792246395    0.0527734840883100039516803286033385378247007695091781053140224260
0.0525039026478287390509413220142884653607880584859075305276587902    0.1053998790163441438369143877618692870539254109368222917034619718
0.0521370336483753913839872083078182338745975798794849497600211735    0.1577325055878579681152178562715543041241746242027031883689523022
0.0516248493908914821464399397734228085937643377492687370671129473    0.2096255033920365449233667906314910963320504743144931746311430392
0.0509687774253939168502479689936810100983096097852119892602103233    0.2609342373428117116106162674142783800035444834331303616440144551
0.0501706463429969028107204304421656821438441057158682952865902360    0.3115157008030137003183601491057497501256592376029803419265650340
0.0492326806793619857796936200150241883828630358705233272719000849    0.3612289141697948099923124523340489579534139601748394042159705524
0.0481574947146064403881468292859357839604642187210079111078780442    0.4099353178104189667228236937558791210147214626782334172141042159
0.0469480851869620191931597364829289522385459174745706980269777375    0.4574991582532666902262152604349615081764257759123342179025866972
0.0456078229405097698318682131583742114179944597204615576470796018    0.5037878665577179787680872804573088921509806488978758588639789240
0.0441404435302973806907980847330809685891863326681307176847778971    0.5486724278083963843722563003870058574406733183240093016446312341
0.0425500368110676386673082004847131274457234133459328311532646958    0.5920277407040301444641761597565343398042481696806936759165533299
0.0408410355386867076602021080894693086860064759028936404917099547    0.6337329662388500975125809301750079125518983764389622629000270380
0.0390182030161600095030307772112855134190918379390244169705222826    0.6736718645049372270240272127552536844150642751155458864575819314
0.0370866198188709226918379170352773582789499639491344914683887337    0.7117331186771977315959157219659093539107624528023122340459165367
0.0350516696364001087837183589610782511167250811878572545690809747    0.7478106452786402318892575790132123879208949339855144910129447453
0.0329190242710452777575112643535988080802698765574078252815785787    0.7818038898623609056326788127674826280296669569503944306699102582
0.0306946278361116832397503281924808053595267480058283296204308828    0.8136181072882115714350897738212004474107040650896474537034239168
0.0283846802005347979051528693353884987703141837630423358392152763    0.8431646258168722014703509539722366384702259608172321925772989152
0.0259956197312985001866505068017079327139848097316180230674002975    0.8703610942928822609634262331041452012841869473961876577151171042
0.0235341053937133634252753600783577002987844850383689152025364009    0.8951317117434720853642968294624592750295371394099992765675393604
0.0210069982884371873504614732186692650506890277865110939407341104    0.9174074387881552813525414852152458268731434900038039934783936811
0.0184213427536100293606157510564453183105268487171122400963580042    0.9371261903534538594051384710432898849106021264711470599266922243
0.0157843473130814661473204803972491703730725538689579519062782219    0.9542330093769510558632331121856499370739081382745471256312315567
0.0131033663063451910183195464842169669655648392340070909556950257    0.9686802216817815313536333396725620576648894433298184856343122918
0.0103858855009958621937978744109830403674448291493380061338774627    0.9804275739567156884496079814032677754625578511397030105958455327
0.0076395294534875751427006829747543652575516412084065114966282673    0.9894423651337309317821839350227057934732552800232993425694400914
0.0048722391682652847685820011329240685560426606288663406125589808    0.9956996403832459646872018234334483076618557769085912270079842000
0.0020954922845412234027007314886400597679812932103771363545810426    0.9991833539092946837564240195046781849742259703300227085510723013
