0.0035826631552835589311430286593513925705856363581839446140438130    -0.9986036451819366381565476769008205480922885272144754168889563981
0.0083231892962182416457358531222338537561579312929482218949564792    -0.9926499984472037417486171205977353449750016433036393506169879283
0.0130311049915827843206310824696869260271411715826389911409106665    -0.9819687150345405682393184736343414815383652492204618079868921500
0.0176775352579375906170925466695770885206512781264657880173641734    -0.9666083103968946047364251608924780971166790306094154138679748852
0.0222398475505787323939507585521689933448757087012999707196098862    -0.9466416909956290617847205969538370784504683441671350507978556031
0.0266962139675776648056747787931075277878249105658915235685364498    -0.9221639367190003880974673609605273192653628772506611683508265895
0.0310253749345154671625079388937680638859211521239748004418541718    -0.8932916717532417384646490514930573463654012404137926861627111095
0.0352066922016090162476997982615750908100880747127146413407743533    -0.8601624759606642253390788705671343877834144235770221010785934925
0.0392202367293024475641871853439293382181301245963066698072278715    -0.8229342205020863370357752600265020299934152580562704335440417312
0.0430468807091649711516911130811669417883192361631913201543168071    -0.7817843125939062913123631880986028176602735168390615230392883983
0.0466683877183733652677684757416541012049861414878535825127667855    -0.7369088489454903526237388485948920198796056808376170809273433989
0.0500674992379520297991321024748743173914986929351464372304821886    -0.6885216807712005252320198258804382359552330056185277807209471117
0.0532280167312689519459040440193104037984822169401755159660482536    -0.6368533944532233592712238459033831506920312434656764405428486288
0.0561348787597864766439239403748697632414801849461630158004450913    -0.5821502125693531866809673344441771310000888259832271460235860278
0.0587742327188417385743615176318314225312657254609802081165759261    -0.5246728204629160670911341004601624026071082708002825868908554658
0.0611335008310665225018863705363255732601242342652421200735086426    -0.4646951239196350985796015023097485108398126672371908828472463800
0.0632014400738199377499637302906668818663002372758228170208586336    -0.4025029438585419140779745085483464559702993575693964388358576801
0.0649681957507234308538265703590756950838497254875832730520237550    -0.3383926542506021616434041000318729895323414431374226979475929835
0.0664253484498425280829147156391037376131745467506748159560389255    -0.2726697697523775606087653916156451818982117542766420601215071692
0.0675659541636075362709102238736486309794725809239464619934535873    -0.2056474897832637457197872254715439307032363856994298310412338137
0.0683845773786696745316920993343160970734849130546449463808894456    -0.1376452059832530287565900414230655531067655565415250596178900299
0.0688773169776613228820028482980557888845241301106485451587410684    -0.0689869801631441724904146141038117296939206669309696826654092553
0.0690418248292320201107985551594047407233228922750047780771460502    0.0000000000000000000000000000000000000000000000000000000000000000
0.0688773169776613228820028482980557888845241301106485451587410684    0.0689869801631441724904146141038117296939206669309696826654092553
0.0683845773786696745316920993343160970734849130546449463808894456    0.1376452059832530287565900414230655531067655565415250596178900299
0.0675659541636075362709102238736486309794725809239464619934535873    0.2056474897832637457197872254715439307032363856994298310412338137
0.0664253484498425280829147156391037376131745467506748159560389255    0.2726697697523775606087653916156451818982117542766420601215071692
0.0649681957507234308538265703590756950838497254875832730520237550    0.3383926542506021616434041000318729895323414431374226979475929835
0.0632014400738199377499637302906668818663002372758228170208586336    0.4025029438585419140779745085483464559702993575693964388358576801
0.0611335008310665225018863705363255732601242342652421200735086426    0.4646951239196350985796015023097485108398126672371908828472463800
0.0587742327188417385743615176318314225312657254609802081165759261    0.5246728204629160670911341004601624026071082708002825868908554658
0.0561348787597864766439239403748697632414801849461630158004450913    0.5821502125693531866809673344441771310000888259832271460235860278
0.0532280167312689519459040440193104037984822169401755159660482536    0.6368533944532233592712238459033831506920312434656764405428486288
0.0500674992379520297991321024748743173914986929351464372304821886    0.6885216807712005252320198258804382359552330056185277807209471117
0.0466683877183733652677684757416541012049861414878535825127667855    0.7369088489454903526237388485948920198796056808376170809273433989
0.0430468807091649711516911130811669417883192361631913201543168071    0.7817843125939062913123631880986028176602735168390615230392883983
0.0392202367293024475641871853439293382181301245963066698072278715    0.8229342205020863370357752600265020299934152580562704335440417312
0.0352066922016090162476997982615750908100880747127146413407743533    0.8601624759606642253390788705671343877834144235770221010785934925
0.0310253749345154671625079388937680638859211521239748004418541718    0.8932916717532417384646490514930573463654012404137926861627111095
0.0266962139675776648056747787931075277878249105658915235685364498    0.9221639367190003880974673609605273192653628772506611683508265895
0.0222398475505787323939507585521689933448757087012999707196098862    0.9466416909956290617847205969538370784504683441671350507978556031
0.0176775352579375906170925466695770885206512781264657880173641734    0.9666083103968946047364251608924780971166790306094154138679748852
0.0130311049915827843206310824696869260271411715826389911409106665    0.9819687150345405682393184736343414815383652492204618079868921500
0.0083231892962182416457358531222338537561579312929482218949564792    0.9926499984472037417486171205977353449750016433036393506169879283
0.0035826631552835589311430286593513925705856363581839446140438130    0.9986036451819366381565476769008205480922885272144754168889563981
